tree
version=v4
num_class=1
num_tree_per_iteration=1
label_index=0
max_feature_idx=489
objective=binary sigmoid:1
feature_names=numero_de_cliente foto_mes active_quarter cliente_edad cliente_antiguedad mrentabilidad mrentabilidad_annual mcomisiones mactivos_margen mpasivos_margen cproductos tcuentas mcuenta_corriente ccaja_ahorro mcaja_ahorro mcaja_ahorro_dolares cdescubierto_preacordado mcuentas_saldo ctarjeta_debito ctarjeta_debito_transacciones mautoservicio ctarjeta_visa ctarjeta_visa_transacciones mtarjeta_visa_consumo ctarjeta_master_transacciones mtarjeta_master_consumo cprestamos_personales mprestamos_personales cprestamos_prendarios mprestamos_prendarios cplazo_fijo mplazo_fijo_dolares minversion1_pesos minversion2 cseguro_vida cseguro_vivienda ccaja_seguridad cpayroll_trx mpayroll ccuenta_debitos_automaticos mcuenta_debitos_automaticos ctarjeta_visa_debitos_automaticos mttarjeta_visa_debitos_automaticos cpagomiscuentas mpagomiscuentas mtarjeta_visa_descuentos ccomisiones_mantenimiento mcomisiones_mantenimiento ccomisiones_otras mcomisiones_otras ctransferencias_recibidas mtransferencias_recibidas ctransferencias_emitidas mtransferencias_emitidas cextraccion_autoservicio mextraccion_autoservicio mcheques_emitidos tcallcenter ccallcenter_transacciones thomebanking chomebanking_transacciones ccajas_transacciones ccajas_consultas ccajas_otras catm_trx matm ctrx_quarter cmobile_app_trx Master_status Master_mfinanciacion_limite Master_Fvencimiento Master_msaldototal Master_msaldopesos Master_mconsumospesos Master_fultimo_cierre Master_mpagospesos Master_mpagosdolares Master_fechaalta Master_cconsumos Master_mpagominimo Visa_status Visa_mfinanciacion_limite Visa_Fvencimiento Visa_msaldototal Visa_msaldopesos Visa_msaldodolares Visa_mconsumospesos Visa_mconsumosdolares Visa_mlimitecompra Visa_fultimo_cierre Visa_mpagado Visa_mpagospesos Visa_mpagosdolares Visa_fechaalta Visa_cconsumos Visa_mpagominimo active_quarter_lag1 internet_lag1 cliente_edad_lag1 cliente_antiguedad_lag1 mrentabilidad_lag1 mrentabilidad_annual_lag1 mcomisiones_lag1 mactivos_margen_lag1 mpasivos_margen_lag1 cproductos_lag1 tcuentas_lag1 mcuenta_corriente_lag1 ccaja_ahorro_lag1 mcaja_ahorro_lag1 mcaja_ahorro_dolares_lag1 mcuentas_saldo_lag1 ctarjeta_debito_transacciones_lag1 mautoservicio_lag1 ctarjeta_visa_transacciones_lag1 mtarjeta_visa_consumo_lag1 mprestamos_personales_lag1 mprestamos_prendarios_lag1 minversion2_lag1 cseguro_vivienda_lag1 ccaja_seguridad_lag1 cpayroll_trx_lag1 mpayroll_lag1 mcuenta_debitos_automaticos_lag1 mttarjeta_visa_debitos_automaticos_lag1 mttarjeta_master_debitos_automaticos_lag1 mpagomiscuentas_lag1 ccomisiones_mantenimiento_lag1 mcomisiones_mantenimiento_lag1 ccomisiones_otras_lag1 mcomisiones_otras_lag1 mforex_sell_lag1 ctransferencias_recibidas_lag1 mtransferencias_recibidas_lag1 ctransferencias_emitidas_lag1 mtransferencias_emitidas_lag1 cextraccion_autoservicio_lag1 mextraccion_autoservicio_lag1 ccallcenter_transacciones_lag1 chomebanking_transacciones_lag1 ccajas_depositos_lag1 catm_trx_lag1 matm_other_lag1 ctrx_quarter_lag1 cmobile_app_trx_lag1 Master_mfinanciacion_limite_lag1 Master_Fvencimiento_lag1 Master_msaldototal_lag1 Master_msaldopesos_lag1 Master_mconsumospesos_lag1 Master_fultimo_cierre_lag1 Master_mpagado_lag1 Master_mpagospesos_lag1 Master_fechaalta_lag1 Master_cconsumos_lag1 Master_mpagominimo_lag1 Visa_mfinanciacion_limite_lag1 Visa_Fvencimiento_lag1 Visa_msaldototal_lag1 Visa_msaldopesos_lag1 Visa_mconsumospesos_lag1 Visa_mconsumosdolares_lag1 Visa_mlimitecompra_lag1 Visa_fultimo_cierre_lag1 Visa_mpagado_lag1 Visa_mpagospesos_lag1 Visa_mpagosdolares_lag1 Visa_fechaalta_lag1 Visa_cconsumos_lag1 Visa_mpagominimo_lag1 cliente_edad_delta1 mrentabilidad_delta1 mrentabilidad_annual_delta1 mcomisiones_delta1 mactivos_margen_delta1 mpasivos_margen_delta1 cproductos_delta1 mcuenta_corriente_delta1 mcaja_ahorro_delta1 mcaja_ahorro_adicional_delta1 mcaja_ahorro_dolares_delta1 mcuentas_saldo_delta1 ctarjeta_debito_transacciones_delta1 mautoservicio_delta1 ctarjeta_visa_delta1 ctarjeta_visa_transacciones_delta1 mtarjeta_visa_consumo_delta1 ctarjeta_master_delta1 cprestamos_personales_delta1 mprestamos_personales_delta1 mplazo_fijo_dolares_delta1 minversion2_delta1 mpayroll_delta1 mcuenta_debitos_automaticos_delta1 mttarjeta_visa_debitos_automaticos_delta1 mttarjeta_master_debitos_automaticos_delta1 cpagomiscuentas_delta1 mpagomiscuentas_delta1 ccomisiones_mantenimiento_delta1 mcomisiones_mantenimiento_delta1 ccomisiones_otras_delta1 mcomisiones_otras_delta1 ctransferencias_recibidas_delta1 mtransferencias_recibidas_delta1 ctransferencias_emitidas_delta1 mtransferencias_emitidas_delta1 cextraccion_autoservicio_delta1 tcallcenter_delta1 ccallcenter_transacciones_delta1 thomebanking_delta1 chomebanking_transacciones_delta1 ccajas_transacciones_delta1 ccajas_consultas_delta1 catm_trx_delta1 matm_delta1 catm_trx_other_delta1 matm_other_delta1 ctrx_quarter_delta1 cmobile_app_trx_delta1 Master_mfinanciacion_limite_delta1 Master_Fvencimiento_delta1 Master_msaldototal_delta1 Master_msaldopesos_delta1 Master_mconsumospesos_delta1 Master_mlimitecompra_delta1 Master_fultimo_cierre_delta1 Master_mpagospesos_delta1 Master_cconsumos_delta1 Master_mpagominimo_delta1 Visa_mfinanciacion_limite_delta1 Visa_msaldototal_delta1 Visa_msaldopesos_delta1 Visa_mconsumospesos_delta1 Visa_mconsumosdolares_delta1 Visa_mlimitecompra_delta1 Visa_fultimo_cierre_delta1 Visa_mpagado_delta1 Visa_mpagospesos_delta1 Visa_cconsumos_delta1 Visa_mpagominimo_delta1 internet_lag2 cliente_edad_lag2 cliente_antiguedad_lag2 mrentabilidad_lag2 mrentabilidad_annual_lag2 mcomisiones_lag2 mactivos_margen_lag2 mpasivos_margen_lag2 cproductos_lag2 tcuentas_lag2 mcuenta_corriente_lag2 ccaja_ahorro_lag2 mcaja_ahorro_lag2 mcaja_ahorro_dolares_lag2 cdescubierto_preacordado_lag2 mcuentas_saldo_lag2 ctarjeta_debito_lag2 ctarjeta_debito_transacciones_lag2 mautoservicio_lag2 ctarjeta_visa_transacciones_lag2 mtarjeta_visa_consumo_lag2 cprestamos_personales_lag2 mprestamos_personales_lag2 mprestamos_prendarios_lag2 ccaja_seguridad_lag2 cpayroll_trx_lag2 mpayroll_lag2 ccuenta_debitos_automaticos_lag2 mcuenta_debitos_automaticos_lag2 ctarjeta_visa_debitos_automaticos_lag2 mttarjeta_visa_debitos_automaticos_lag2 cpagomiscuentas_lag2 mpagomiscuentas_lag2 ccajeros_propios_descuentos_lag2 mtarjeta_visa_descuentos_lag2 ccomisiones_mantenimiento_lag2 mcomisiones_mantenimiento_lag2 ccomisiones_otras_lag2 mcomisiones_otras_lag2 ctransferencias_recibidas_lag2 mtransferencias_recibidas_lag2 ctransferencias_emitidas_lag2 mtransferencias_emitidas_lag2 cextraccion_autoservicio_lag2 mextraccion_autoservicio_lag2 thomebanking_lag2 chomebanking_transacciones_lag2 ccajas_depositos_lag2 catm_trx_lag2 matm_lag2 ctrx_quarter_lag2 cmobile_app_trx_lag2 Master_mfinanciacion_limite_lag2 Master_Fvencimiento_lag2 Master_msaldototal_lag2 Master_msaldopesos_lag2 Master_mconsumospesos_lag2 Master_mlimitecompra_lag2 Master_fultimo_cierre_lag2 Master_mpagospesos_lag2 Master_fechaalta_lag2 Master_cconsumos_lag2 Master_mpagominimo_lag2 Visa_mfinanciacion_limite_lag2 Visa_Fvencimiento_lag2 Visa_msaldototal_lag2 Visa_msaldopesos_lag2 Visa_msaldodolares_lag2 Visa_mconsumospesos_lag2 Visa_mconsumosdolares_lag2 Visa_mlimitecompra_lag2 Visa_fultimo_cierre_lag2 Visa_mpagado_lag2 Visa_mpagospesos_lag2 Visa_fechaalta_lag2 Visa_cconsumos_lag2 Visa_mpagominimo_lag2 active_quarter_delta2 cliente_edad_delta2 mrentabilidad_delta2 mrentabilidad_annual_delta2 mcomisiones_delta2 mactivos_margen_delta2 mpasivos_margen_delta2 cproductos_delta2 mcuenta_corriente_delta2 ccaja_ahorro_delta2 mcaja_ahorro_delta2 mcaja_ahorro_dolares_delta2 cdescubierto_preacordado_delta2 mcuentas_saldo_delta2 ctarjeta_debito_delta2 ctarjeta_debito_transacciones_delta2 mautoservicio_delta2 ctarjeta_visa_delta2 ctarjeta_visa_transacciones_delta2 mtarjeta_visa_consumo_delta2 ctarjeta_master_delta2 ctarjeta_master_transacciones_delta2 cprestamos_personales_delta2 mprestamos_personales_delta2 cpayroll_trx_delta2 mpayroll_delta2 ccuenta_debitos_automaticos_delta2 mcuenta_debitos_automaticos_delta2 mttarjeta_visa_debitos_automaticos_delta2 mttarjeta_master_debitos_automaticos_delta2 cpagomiscuentas_delta2 mpagomiscuentas_delta2 mcomisiones_mantenimiento_delta2 ccomisiones_otras_delta2 mcomisiones_otras_delta2 ctransferencias_recibidas_delta2 mtransferencias_recibidas_delta2 ctransferencias_emitidas_delta2 mtransferencias_emitidas_delta2 mextraccion_autoservicio_delta2 tcallcenter_delta2 ccallcenter_transacciones_delta2 chomebanking_transacciones_delta2 ccajas_transacciones_delta2 ccajas_consultas_delta2 ccajas_depositos_delta2 ccajas_otras_delta2 catm_trx_other_delta2 ctrx_quarter_delta2 Master_mfinanciacion_limite_delta2 Master_Fvencimiento_delta2 Master_msaldototal_delta2 Master_msaldopesos_delta2 Master_mconsumospesos_delta2 Master_mlimitecompra_delta2 Master_fultimo_cierre_delta2 Master_mpagospesos_delta2 Master_mpagosdolares_delta2 Master_cconsumos_delta2 Master_mpagominimo_delta2 Visa_mfinanciacion_limite_delta2 Visa_Fvencimiento_delta2 Visa_Finiciomora_delta2 Visa_msaldototal_delta2 Visa_msaldopesos_delta2 Visa_mconsumospesos_delta2 Visa_mconsumosdolares_delta2 Visa_mlimitecompra_delta2 Visa_fultimo_cierre_delta2 Visa_mpagado_delta2 Visa_mpagospesos_delta2 Visa_cconsumos_delta2 Visa_mpagominimo_delta2 active_quarter_tend6 internet_tend6 cliente_edad_tend6 mrentabilidad_tend6 mrentabilidad_annual_tend6 mcomisiones_tend6 mactivos_margen_tend6 mpasivos_margen_tend6 cproductos_tend6 mcuenta_corriente_tend6 ccaja_ahorro_tend6 mcaja_ahorro_tend6 mcaja_ahorro_dolares_tend6 cdescubierto_preacordado_tend6 mcuentas_saldo_tend6 ctarjeta_debito_tend6 ctarjeta_debito_transacciones_tend6 mautoservicio_tend6 ctarjeta_visa_transacciones_tend6 mtarjeta_visa_consumo_tend6 ctarjeta_master_transacciones_tend6 mtarjeta_master_consumo_tend6 cprestamos_personales_tend6 mprestamos_personales_tend6 mplazo_fijo_dolares_tend6 minversion1_pesos_tend6 cseguro_vida_tend6 cseguro_accidentes_personales_tend6 cpayroll_trx_tend6 mpayroll_tend6 ccuenta_debitos_automaticos_tend6 mcuenta_debitos_automaticos_tend6 ctarjeta_visa_debitos_automaticos_tend6 mttarjeta_visa_debitos_automaticos_tend6 ctarjeta_master_debitos_automaticos_tend6 mttarjeta_master_debitos_automaticos_tend6 cpagomiscuentas_tend6 mpagomiscuentas_tend6 mtarjeta_visa_descuentos_tend6 ccomisiones_mantenimiento_tend6 mcomisiones_mantenimiento_tend6 ccomisiones_otras_tend6 mcomisiones_otras_tend6 cforex_tend6 cforex_buy_tend6 mforex_buy_tend6 cforex_sell_tend6 mforex_sell_tend6 ctransferencias_recibidas_tend6 mtransferencias_recibidas_tend6 ctransferencias_emitidas_tend6 mtransferencias_emitidas_tend6 cextraccion_autoservicio_tend6 mextraccion_autoservicio_tend6 mcheques_depositados_tend6 tcallcenter_tend6 ccallcenter_transacciones_tend6 thomebanking_tend6 chomebanking_transacciones_tend6 ccajas_transacciones_tend6 ccajas_consultas_tend6 ccajas_depositos_tend6 ccajas_extracciones_tend6 ccajas_otras_tend6 catm_trx_tend6 matm_tend6 catm_trx_other_tend6 matm_other_tend6 ctrx_quarter_tend6 cmobile_app_trx_tend6 Master_delinquency_tend6 Master_status_tend6 Master_mfinanciacion_limite_tend6 Master_Fvencimiento_tend6 Master_msaldototal_tend6 Master_msaldopesos_tend6 Master_msaldodolares_tend6 Master_mconsumospesos_tend6 Master_mlimitecompra_tend6 Master_fultimo_cierre_tend6 Master_mpagospesos_tend6 Master_fechaalta_tend6 Master_cconsumos_tend6 Master_mpagominimo_tend6 Visa_mfinanciacion_limite_tend6 Visa_Fvencimiento_tend6 Visa_Finiciomora_tend6 Visa_msaldototal_tend6 Visa_msaldopesos_tend6 Visa_msaldodolares_tend6 Visa_mconsumospesos_tend6 Visa_mconsumosdolares_tend6 Visa_mlimitecompra_tend6 Visa_fultimo_cierre_tend6 Visa_mpagado_tend6 Visa_mpagospesos_tend6 Visa_mpagosdolares_tend6 Visa_fechaalta_tend6 Visa_cconsumos_tend6 Visa_mpagominimo_tend6
feature_infos=[31116053:214033382] [202101:202107] [0:1] [18:99] [1:482] [-245888.218771154:919246.15789644199] [-1044919.34756506:9704898.6834034193] [-99224.436553530802:673734.010504512] [-215597.773467338:212860.48805977401] [-32752.580348694999:353664.512150775] [3:18] [1:2] [-1149059.4280262799:13936203.8980041] [2:9] [-7355.4307838517598:19634332.784605399] [-47182.898420940299:60082443.840512097] [0:1] [-1198133.93360051:87492314.994282603] [0:12] [0:151] [0:773400.91523663804] [0:3] [0:527] [0:2303698.2623586399] [0:209] [0:2051845.45167187] [0:422] [0:4952649.8157706801] [0:37] [0:8864140.9774067793] [0:94] [0:45421103.580119997] [0:39063823.038244903] [0:85845610.540474296] [0:3] [0:7] [0:8] [0:164] [0:27167463.513031598] [0:259] [0:13346371.2481612] [0:49] [0:332706.74623097898] [0:111] [0:127583226.997664] [0:94623.862189797597] [0:17] [-12785.8592922724:5848.9022805545701] [0:256] [-99224.436553530802:673734.010504512] [0:1418] [0:142999350.495125] [0:365] [0:137254678.84605899] [0:172] [0:3551388.65947593] [0:31586597.190245699] [0:1] [0:104] [0:1] [0:4073] [0:1] [0:19] [0:191] [0:172] [0:3551388.65947593] [0:3180] [0:1] [0:9] [0:249078163.36839601] [-2914178:6546] [-834478.88469192397:3294566.1969061401] [-834478.88469192397:2834263.9890775401] [-33066.3951117201:2026735.8838436201] [-3:3381] [-2325321.2650605799:15511.377642986101] [0:10543.934706300601] [1:7724] [0:186] [0:1757470.0799902501] [0:9] [0:108265238.49943601] [-2914237:3043] [-875963.93622816296:5200634.8660783404] [-805403.60277799401:6100344.6933713602] [-1033965.24474934:1315211.1767861799] [-36063.785090630801:2130023.6212826101] [0:13624.654607741601] [785.40132045344899:22355913.546643101] [-3:2812] [0:2084386.76035405] [-1723175.4732265901:719405.07184894604] [0:7977.1871856527496] [1:12706] [0:205] [0:5339874.8895404898] [0:1] [0:4] [18:99] [1:481] [-250548.09:919246.15789644199] [-976959.88370077696:10429387.845677501] [-82121.276545402594:783107.82221397304] [-224582.92999999999:274875.62047125801] [-37886.669999999998:341614.62284488301] [3:18] [1:2] [-1246600.5256559199:12027300.15] [2:9] [-13314.1879524947:12935396.388054701] [-48116.2019054298:60494035.002602004] [-1146782.4706776701:83742578.128556907] [0:144] [0:700810.65000000002] [0:376] [0:1605428.2511413901] [0:5121039.90936164] [-457939.75823100901:8999104.4700000007] [0:103621588.624153] [0:7] [0:8] [0:209] [0:52494324.729999997] [0:13760108.757216999] [0:525263.30000000005] [0:273682.77890766802] [0:25744220.902758699] [0:30] [-13220.5785078347:10213.5336809948] [0:249] [-82121.276545402594:783107.82221397304] [0:6779.1027825839501] [0:1484] [0:178492539.05847201] [0:408] [0:137254678.84605899] [0:172] [0:3016273.8117332198] [0:68] [0:3936] [0:26] [0:172] [0:238460.79379562999] [0:3215] [0:92] [0:469958798.80829298] [-2914209:6515] [-723701.67670112604:2749970.54200861] [-686473.36264589301:2681872.79] [-39120.955520746298:2829546.3212893102] [-3:187] [0:2269709.5642916299] [-1831137.5382253199:83139.720000000001] [1:7693] [0:253] [0:1604954.69500354] [0:108265238.49943601] [-2914268:2131] [-892416.81385207502:4285581.1594913099] [-686160.81298389903:4921179.5309804296] [-33773.384900716301:1455542.6116668] [0:9001.8296221257897] [809.74876140885306:22947436.078985099] [-3:156] [0:2722561.71] [-2699883.1200000001:33930.288016999999] [0:11579.625660059301] [1:12676] [0:258] [0:2500250.0676712901] [-2:2] [-778401.84472209797:705423.84817544604] [-1206910.66742095:414413.7042023] [-781998.78071863705:661911.59238754399] [-282965.38371581899:182911.19474045601] [-135448.575380002:165414.468467211] [-5:4] [-6618608.17913114:7326031.3876964301] [-8915679.5052191205:10796902.7555985] [-1106524.8437453499:1056181.95123117] [-16533485.6694942:19238203.981692299] [-30872988.8985781:56874944.179691397] [-81:80] [-331584.83069652499:436998.16664339002] [-2:1] [-294:405] [-1421338.5950990999:1452102.0995359099] [-1:1] [-114:44] [-1104404.2281303001:4003422.790488] [-44470013.958926603:42547253.580119997] [-33883308.796793804:9801274.9543933906] [-52494324.729999997:26563259.2530316] [-2778535.30808332:6679782.63878706] [-436868.76950956299:269723.33139509999] [-273682.77890766802:135246.242366363] [-78:83] [-18421343.8160748:127486914.41843501] [-28:16] [-15337.4665532567:12861.9623067632] [-187:79] [-781998.78071863705:661911.59238754399] [-293:334] [-142802193.78777:142999350.495125] [-113:99] [-131758032.46786:137254678.84605899] [-90:103] [-1:1] [-60:95] [-1:1] [-1772:1321] [-1:1] [-25:15] [-90:103] [-1323144:2143126.4640850802] [-39:45] [-188159.06961848101:329666.853960765] [-415:306] [-91:1] [-465017804.600034:245786691.98681301] [-2163:61] [-2103798.0316965501:1965300.7398424] [-2096470.3021223401:1751286.0282100199] [-2334124.2739574201:1731186.4491668199] [-3159263.5816583899:1036671.31448786] [-28:31] [-2019440.62535763:1704812.3773866999] [-74:57] [-1387881.8700000001:1268695.9083472199] [-107112511.71252:107047882.502195] [-1933644.57756808:1621565.4503703101] [-2268165.0843569501:1313403.2549741] [-1420167.05135846:1403608.65508049] [-9001.8296221257897:12289.0547877467] [-2626548.6449684598:8533156.0309872199] [-28:31] [-2722561.71:2084386.76035405] [-1537550.06668464:2699883.1200000001] [-137:114] [-2268156.48031114:1017256.26776173] [0:4] [18:99] [1:480] [-250548.09:515688.49596999999] [-903473.22929424106:10568997.0276825] [-89120.539999999994:450981.14776999998] [-224582.92999999999:204996.65664140601] [-39056.344340000003:441151.53883999999] [3:18] [1:2] [-1012879.70202209:17616047.56927] [2:9] [-3376.8344626049702:16248901.9111109] [-49158.397045988997:70135540.930368096] [0:1] [-1085101.9401322999:89416848.689999998] [0:11] [0:145] [0:728891.68192124995] [0:570] [0:2807408.59553] [0:386] [0:5331002.5458015101] [-526895.83938915003:9164894.6054599993] [0:8] [0:108] [0:24876493.879999999] [0:214] [0:14186672.1289778] [0:41] [0:394557.10274055297] [0:111] [0:34392952.026953503] [0:18] [0:82880.860320077802] [0:15] [-12785.8592922724:5284.4327590027597] [0:239] [-89120.539999999994:450981.14776999998] [0:1129] [0:106590163.85421699] [0:418] [0:37537786.39689] [0:172] [0:2903836.6469546999] [0:1] [0:4124] [0:27] [0:172] [0:2903836.6469546999] [0:2910] [0:56] [0:249078163.36839601] [-2914237:6485] [-707754.03690223896:3294566.1969061401] [-707754.03690223896:1969313.6885599999] [-30506.875180823601:2026735.8838436201] [813.07426114731595:23751379.009596098] [-3:4891] [-1871403.2482405801:18915.583056078998] [1:7663] [0:158] [0:1355635.3522143201] [0:96895453.222278401] [-2914299:4598] [-900437.93307804305:3901780.5032438198] [-572350.96803303401:4417195.1789265899] [-1082990.2904263099:1337478.3799999999] [-81420.344791745694:2797722.2999999998] [0:15842.540000000001] [699.42538999999999:23609328.4539955] [-3:4485] [0:2831539.9588500001] [-2965533.5127507602:87349.797290000002] [1:12645] [0:249] [0:2027307.6299999999] [-1:1] [-2:2] [-342022.93934525398:672217.47445930901] [-2095689.53197548:734602.56489970104] [-292166.45271295297:668557.11795872101] [-222199.295742652:193449.412766769] [-243833.19422000201:199813.58580528901] [-8:4] [-11314040.4446242:9108814.6137997899] [-4:4] [-15702144.029363699:11411619.071672199] [-48952176.541546397:31493214.3528849] [-1:1] [-33019000.504470401:58759708.149930499] [-4:5] [-82:99] [-491569.38274436397:414738.12377609202] [-2:1] [-565:430] [-1503326.00216425:1266321.7800199001] [-1:1] [-280:174] [-114:78] [-990723.56999999995:4003422.790488] [-50:56] [-24876493.879999999:26799266.0752616] [-55:45] [-8404573.9830966201:6676593.7620556904] [-364115.87661659397:269726.13271233998] [-113668.846785313:107834.415688308] [-86:84] [-34321475.701131299:120730838.19320901] [-15434.6341032567:15743.1299039653] [-190:86] [-292166.45271295297:668557.11795872101] [-248:450] [-40902099.6202868:142999350.495125] [-123:155] [-33737753.084094398:137254678.84605899] [-1216401:2878666.5029314202] [-1:1] [-72:101] [-3041:1892] [-1:1] [-14:17] [-27:25] [-43:191] [-49:44] [-773:623] [-246505126.39067101:245679341.04004699] [-2132:762] [-3163344.6079657702:3155316.4873275599] [-1737113.0882262699:1948177.7490775399] [-1882179.03367828:1889517.1907218799] [-3245440.9077918702:1023668.51754343] [-25:62] [-1981296.5418563101:1675092.79705162] [-10543.934706300601:10543.934706300601] [-106:68] [-1355635.3522143201:1561180.7559863899] [-95885200.712539196:107050710.842172] [-2913903:2913875] [-95:62] [-1594116.2416537299:1794183.5740449801] [-1869898.34459426:2099130.4197029602] [-1505326.5669917599:1235794.1429779499] [-11535.704700885401:13184.5084767797] [-2725947.6783905299:9676919.4251400009] [-25:61] [-2535877.60327252:2084386.76035405] [-1533781.75689427:2058275.3696952399] [-145:142] [-1368113.59784624:1489751.2849039901] [-0.5:1] [-2:2] [-0.68571428571428605:2] [-79583.814870551607:71012.674863167107] [-639652.15947528998:210409.22042408999] [-64303.422679385199:79015.289130664503] [-55120.796411191899:29408.2334071351] [-71534.793703234202:59972.959129919102] [-3:3] [-3168797.5358358501:2040737.16199128] [-2:2] [-3602017.1222039:2231818.7110715802] [-7551251.2687234702:9477594.1627649497] [-1:0.40000000000000002] [-8133143.7857128903:10484471.139771299] [-2:1.1428571428571399] [-47:46] [-240200.40295156499:167849.19901493] [-80.914285714285697:76] [-597964.58439766197:394312.47026534] [-39.914285714285697:34] [-363164.82586956298:326060.33836577099] [-25.8571428571429:36.257142857142902] [-213756.71156196401:1108412.08657711] [-5856304.7990564601:9872269.9442938399] [-7462757.7601439003:4024716.7283671098] [-1:1] [-1:1] [-8.8571428571428594:41.371428571428602] [-7510477.2550657103:5210643.1557970503] [-11.171428571428599:61.171428571428599] [-2824977.38256178:3491395.8468981399] [-5.6285714285714299:10.9142857142857] [-67931.547680141099:45204.228751692201] [-6:7] [-27131.185668964899:25417.461054480598] [-25.457142857142902:15.800000000000001] [-3275752.7841149098:17786298.557095598] [-10494.392139174601:13517.694598542501] [-8:9] [-5729.0437843825503:2912.4047556386199] [-73.900000000000006:25.342857142857099] [-64300.278669905798:79015.289130664503] [-5:4] [-2.05714285714286:2] [-8167.3899896404901:3662.77419399155] [-5:3] [-461.15106535148999:586.324198929413] [-90.342857142857099:84.771428571428601] [-7960042.5949056:71499675.247562498] [-17:37.714285714285701] [-8056771.1481858902:68627339.423029497] [-26:43] [-493363.66366187501:570252.68001374905] [-4009938.8755231402:2977723.3189218198] [-1:1] [-60:21] [-1:1] [-2174.9428571428598:303.28571428571399] [-1:1] [-12:5] [-6.28571428571429:5.3142857142857096] [-3:3] [-20.1428571428571:27.285714285714299] [-23.8857142857143:43] [-493016.12051901798:570252.68001374905] [-26:33] [-318850.92557910603:239480.15691259201] [-357.19999999999999:395.88571428571402] [-298.48571428571398:1] [-1:1] [-9:9] [-14593099.9480434:39518578.362025797] [-2163:445.19999999999999] [-476935.41866961401:704582.68243340997] [-476935.41866961401:1004144.84707407] [-815202.74924379704:325630.36874117597] [-825676.92316318594:429882.00623742299] [-771635.51940969296:335618.17387470999] [-302.57142857142901:184.40000000000001] [-709141.69378624903:419310.57723835501] [-1364.88571428571:310.10000000000002] [-61:43] [-187513.81256234:422167.13696696499] [-19277224.920446299:15294411.787336901] [-748891.54285714298:873618] [-34.285714285714299:31] [-658530.34631407296:819528.19202438998] [-772456.09318951005:899768.26865999796] [-599615.01248142996:201836.965024987] [-724944.68799205904:383624.18564987998] [-7859.9652280601404:2486.7159396554898] [-695762.22582419601:2241718.9975627498] [-316.07142857142901:602.142857142857] [-534695.970729411:295969.88818230102] [-707795.642882274:634280.03352569405] [-2161.6908638621198:2435.7416836287498] [-1848:867.42857142857099] [-48:54] [-277948.21500000003:708953.53721072699]
tree_sizes=4009 4054 4048 4062 4091 4079 4077 4108 4092 4096 4097 4130 4124 4114 4122 4113 4127 4128 4129 4133 4116 4131 4143 4144 4137 4129 4144 4151 4159 4157 4134 4152 4135 4112 4144 4118 4155 4144 4132 4122 4170 4172 4152 4163 4160 4167 4141 4148 4169 4151 4159 4188 4179 4171 4159 4155 4159 4173 4154 4158 4179 4152 4151 4146 4165 4151 4160 4172 4155 4165 4151 4177 4168 4168 4165 4167 4143 4171 4139 4174 4168 4141 4156 4160 4168 4198 4207 4153 4186 4152 4125 4160 4148 4154 4163 4159 4166 4175 4166 4154 4170 4185 4174 4156 4173 4154 4152 4156 4141 4150 4167 4163 4190 4148 4214 4174 4142 4149 4152 4172 4149 4160 4184 4149 4172 4151 4156 4140 4127 4169 4149 4170 4176 4170 4161 4190 4154 4152 4187 4190 4196 4176 4183 4182 4173 4132 4135 4188 4137 4155 4175 4147 4150 4150 4193 4190 4184 4147 4162 4120 4192 4176 4161 4153 4134 4153 4141 4184 4185 4143 4128 4121 4187 4142 4130 4164 4106 4176 4172 4082 4210 4201 4157 4144 4171 4154 4137 4145 4159 4122 4107 4082 4145 4185 4125 4120 4199 4157 4199 4146 4144 4139 4141 4173 4135 4144 4179 4149 4111 4137 4142 4157 4149 4117 4126 4171 4157 4192 4115 4150 4160 4138 4151 4144 4153 4132 4145 4144 4119 4114 4171 4136 4110 4149 4125 4136 4130 4120 4147 4162 4110 4156 4164 4153 4143 4159 4150 4140 4142 4142 4154 4145 4160 4129 4153 4129 4116 4163 4134 4159 4128 4100 4129 4147 4153 4123 4131 4109 4147 4125 4116 4146 4115 4111 4120 4123 4167 4063 4115 4145 4122 4119 4102 4132 4131 4139 4146 4133 4110 4176 4110 4169 4155 4157 4110 4188 4143 4116 4113 4148 4131 4145 4161 4098 4150 4139 4120 4160 4186 4159 4141 4124 4118 4097 4094 4102 4103 4086 4154 4139 4181 4131 4102 4179 4173 4119 4127 4139 4167 4117 4156 4134 4124 4120 4108 4142 4145 4108 4122 4104 4121 4164 4146 4139 4114 4091 4148 4142 4091 4123 4120 4085 4131 4120 4097 4180 4145 4137 4167 4147 4129 4105 4103 4136 4116 4137 4103 4176 4188 4115 4149 4112 4148 4130 4145 4107 4110 4136 4105 4178 4147 4130 4133 4117 4107 4158 4156 4134 4098 4126 4173 4174 4126 4131 4119 4147 4185 4114 4129 4133 4141 4137 4120 4115 4168 4108 4137 4158 4147 4172 4109 4120 4089 4099 4107 4167 4144 4144 4115 4161 4150 4120 4129 4120 4117 4097 4125 4139 4140 4129 4119 4110 4123 4130 4114 4133 4089 4107 4137 4145 4105 4145 4133 4125 4181 4105 4111 4129 4111 4127 4158 4122 4124 4132 4115 4100 4131 4124 4160 4097 4113 4110 4105 4092 4157 4143 4117 4114 4107 4123 4107 4110 4133 4088 4127 4092 4154 4135 4111 4122 4108 4139 4102 4101 4110 4143 4129 4132 4121 4117 4145 4140 4099 4121 4103 4110 4127 4150 4142 4092 4099 4152 4143 4139 4138 4123 4094 4121 4136 4125 4172 4129 4126 4120 4127 4125 4151 4132 4138 4157 4146 4138 4161 4123 4110 4127 4133 4137 4126 4110 4121 4133 4091 4133 4126 4151 4119 4117 4085 4157 4148 4163 4091 4120 4115 4083 4115 4154 4123 4154 4115 4144 4121 4123 4130 4151 4120 4124 4112 4123 4100 4095 4094 4117 4108 4142 4099 4135 4120 4128 4100 4163 4127 4116 4098 4116 4137 4139 4121 4144 4129 4149 4097 4097 4119 4120 4111 4123 4149 4144 4133 4127 4117 4119 4121 4106 4136 4105 4137 4104 4145 4158 4090 4130 4097 4126 4163 4096 4120 4113 4126 4124 4124 4184 4157 4098 4134 4117 4101 4121 4143 4134 4104 4132 4119 4141 4117 4128 4089 4096 4114 4130 4118 4183 4122 4158 4105 4130 4140 4124 4157 4139 4117 4154 4138 4128 4135 4133 4108 4175 4131 4113 4123 4120 4101 4136 4114 4127 4178 4133 4108 4124 4167 4138 4136 4137 4138 4132 4105 4141 4148 4122 4083 4111 4117 4114 4106 4122 4136 4194 4102 4106 4105 4110 4143 4120 4117 4167 4126 4147 4115 4110 4139 4142 4098 4126 4118 4118 4127 4134 4117 4130 4107 4120 4117 4128 4140 4116 4119 4126 4151 4138 4138 4111 4093 4116 4134 4136 4142 4151 4126 4128 4130 4150 4144 4119 4123 4146 4119 4107 4096 4139 4098 4118 4167 4135 4117 4096 4171 4102 4129 4120 4127 4121 4120 4199 4126 4115 4132 4121 4111 4126 4115 4107 4138 4139 4132 4129 4108 4143 4120 4172 4104 4120 4150 4099 4127 4123 4133 4126 4164 4132 4113 4089 4120

Tree=0
num_leaves=36
num_cat=0
split_feature=66 143 17 403 262 68 337 252 5 254 395 38 334 394 9 23 14 95 398 116 84 17 236 238 254 262 321 429 429 82 83 262 17 71 311
split_gain=33831.8 15185.1 14886.9 5841.45 4203.72 6407.87 3041.7 2521.63 1683.56 1363.49 1262.19 1245.03 1474.02 977.269 872.313 827.748 751.904 641.138 596.833 574.073 521.767 516.315 501.301 488.511 484.411 483.749 468.166 466.118 414.149 348.899 306.367 301.737 464.353 390.094 253.445
threshold=39.500000000000007 13.500000000000002 1.0000000180025095e-35 -1.0000000180025095e-35 7450.5896562644512 6.5000000000000009 -1.0000000180025095e-35 3220.8884938436008 376.84452328819003 1.0000000180025095e-35 119.47954351710251 14288.889162116202 -1.0000000180025095e-35 380.55834029780152 691.84479025867506 5170.9310941049853 5796.2874789344305 719.9999794754566 -1.0000000180025095e-35 27098.037770394756 4510.1116036817657 1242.6675043590251 -18883.530238042145 21.500000000000004 1.0000000180025095e-35 14593.805622726451 1013.00645997053 1.0000000180025095e-35 0.12857142857142853 -1611.4999999999998 7658.3305708202706 54112.007721300004 5371.6186839264356 1042.4212446461001 18.500000000000004
decision_type=2 8 2 10 8 8 8 8 2 10 10 2 8 10 2 2 2 10 10 10 8 2 10 8 8 10 10 10 10 10 10 8 2 10 8
left_child=1 2 3 -1 5 8 -3 10 -5 -7 18 12 -2 34 15 31 19 25 20 22 -8 27 -4 -10 -6 26 -12 -9 -23 -25 -20 32 33 -14 -11
right_child=11 6 16 4 24 9 7 21 23 13 17 -13 14 -15 -16 -17 -18 -19 30 -21 -22 28 -24 29 -26 -27 -28 -29 -30 -31 -32 -33 -34 -35 -36
leaf_value=-2.995033932514291 -3.9339315954445855 -3.6987372271060379 -3.9572726968373764 -4.1253590543029262 -3.9707826301872342 -2.9709375963254203 -3.9572095959538944 -4.3350438644303866 -3.9657783570859233 -3.8128341716225247 -4.0651816585074076 -4.4476842645835051 -4.2169809607617434 -3.2483760460424236 -4.4373069609451692 -4.4106025509235334 -4.3539098658321738 -4.2313998153234964 -4.271773289495072 -4.3635060268143908 -4.2401104479430405 -4.4097974916918004 -4.1975605912943461 -3.814138550581931 -4.2516721374932711 -4.255893134596124 -3.7884100216796588 -4.1152261503858938 -4.2822092436027486 -3.5996433628171407 -4.3576549439158692 -4.4209005424003553 -4.3689590037383743 -4.3725584022890747 -3.5303634238071053
leaf_weight=20.052887545898557 14.911121243610978 18.952788487076759 24.847882907837629 58.066082281991839 19.993099249899387 16.154711434617639 22.193296741694212 150.83310524746776 30.479910265654325 14.133877616375683 38.204516706988215 6798.4907087832689 125.53083417564631 24.034766726195812 2431.6128421388566 1868.1948759630322 131.21069156937301 63.79377025179565 259.61134877800941 39.854664629325271 49.647935183718801 548.01658510230482 114.76899862103164 49.265292532742023 52.039454249665141 16.64497248083353 23.054243646562099 26.71326763741672 67.189727213233709 27.968815432861447 156.70428444631398 88.247052082791924 220.76112158037722 54.323354732245207 15.855771426111462
leaf_count=1677 1247 1585 2078 4856 1672 1351 1856 12614 2549 1182 3195 568550 10498 2010 203353 156235 10973 5335 21711 3333 4152 45830 9598 4120 4352 1392 1928 2234 5619 2339 13105 7380 18462 4543 1326
internal_value=-4.40203 -4.22191 -4.02505 -3.79717 -3.84939 -3.75038 -4.30914 -4.31727 -3.91484 -3.3619 -4.24483 -4.43433 -4.41543 -3.47881 -4.41693 -4.3959 -4.26566 -4.11739 -4.28182 -4.20114 -4.15272 -4.37483 -4.1548 -3.80135 -4.17371 -4.02402 -3.96102 -4.30197 -4.39586 -3.73646 -4.3041 -4.33971 -4.32183 -4.26397 -3.66349
internal_weight=0 2080.29 638.727 328.045 307.992 235.959 1441.56 1422.61 165.78 70.1791 629.854 11602.1 4803.58 54.0244 4788.67 2357.06 310.682 141.698 488.157 179.472 71.8412 792.753 139.617 107.714 72.0326 77.9037 61.2588 177.546 615.206 77.2341 416.316 488.862 400.615 179.854 29.9896
internal_count=1144240 173972 53416 27434 25757 19733 120556 118971 13864 5869 52674 970268 401718 4518 400471 197118 25982 11850 40824 15009 6008 66297 11676 9008 6024 6515 5123 14848 51449 6459 34816 40883 33503 15041 2508
is_linear=0
shrinkage=1


Tree=1
num_leaves=36
num_cat=0
split_feature=109 290 66 429 399 360 169 27 14 104 334 8 121 95 244 27 83 430 322 349 245 158 322 68 430 116 314 330 413 66 245 80 76 83 55
split_gain=19830.7 8310.19 4760.3 2591.86 1810.58 1393.66 1137.15 1102.21 797.015 681.207 657.403 614.009 709.219 528.782 461.998 439.694 628.75 420.979 417.368 397.846 386.581 375.572 354.492 462.855 413.81 289.052 278.035 248.289 236.8 227.21 205.666 202.669 194.315 172.979 158.923
threshold=269.56114985614005 40.500000000000007 47.500000000000007 0.042857142857142858 -21.263405896684347 1.0000000180025095e-35 1209.2626212434652 10137.975175644702 13166.768175700601 223.79661621291152 -1.0000000180025095e-35 -168.00809133866997 1.0000000180025095e-35 262.96609712596205 7553.7170463731009 17615.617106294354 1.0000000180025095e-35 27.743544683851052 -478.97648732358493 678.09194918497712 199.46147333039002 3922.1623947461653 422.40478738206303 1.0000000180025095e-35 217.38706215666903 53766.61393898596 465.50000000000006 1.0000000180025095e-35 -4586.1539253613746 81.500000000000014 1001.8887967437601 6.5000000000000009 13.268798139970501 6388.2527919668109 4860.8516778063904
decision_type=8 8 2 10 10 10 10 2 2 10 8 2 8 10 8 2 10 10 10 10 8 10 10 8 10 10 10 8 10 2 8 8 8 10 2
left_child=1 4 3 8 5 6 7 22 11 13 -4 -2 14 19 -13 16 -6 -12 -9 -5 -19 27 23 24 32 28 -26 34 -16 -23 -22 -30 -1 -32 -3
right_child=2 21 10 9 15 -7 -8 18 -10 -11 17 12 -14 -15 25 -17 -18 20 -20 -21 30 29 -24 -25 26 -27 -28 -29 31 -31 33 -33 -34 -35 -36
leaf_value=0.11981068627703273 -0.00063733097717918845 0.21078306934060567 0.24508706705704789 0.21451826511838065 0.2431070819663676 0.58663992117957042 0.12743504613358994 0.27204877830220414 -0.01698995028984349 0.092194613579106063 -0.040269790397232434 0.19366186829194601 -0.0053229287068780242 0.14403145724510474 0.27237374814980181 0.047619049768407036 0.1081768158674689 0.096022892187766593 0.07051827960559913 0.40809075919534149 0.02525961193986884 0.034403221582752906 0.18467005076990634 0.41725200180079053 0.27793952463214316 -0.019487650505894242 0.46317705997159353 0.03484672819040581 0.074988716849849701 -0.030058095581373557 0.016099878360049766 0.21381340452214223 0.28110636800360805 -0.033154272999881149 0.031225543954933585
leaf_weight=20.361488262191415 329.99645214062184 44.393430203199387 19.607408146373928 49.264725524932146 176.79784802347422 34.965268012136221 106.16588815953583 42.158438052982092 670.64980921056122 128.30484431888908 8608.8340179165825 122.81933315191418 160.50432377681136 77.80234325863421 18.250602009706199 70.582134525291622 150.3270625974983 72.861712460406125 56.676988760940731 50.669438603334129 217.89808466285467 241.47465880680829 33.100685009732842 147.62894092593342 30.213639521040022 53.946913020685315 51.650036992505193 84.303106185048819 212.47311696223915 275.29156443662941 197.85581598803401 28.000017586164176 128.22110720444471 1102.2411784920841 15.696582879871128
leaf_count=1341 26168 3196 1336 3199 9600 1519 7081 1911 56022 9601 746805 8939 12685 5536 1345 4967 10457 6116 3846 2942 18551 19199 1594 5105 1497 4171 2622 6641 15871 23528 16332 1704 7186 94336 1291
internal_value=0 0.15406 -0.0223793 0.0480621 0.238953 0.288758 0.271854 0.301917 0.0232776 0.177365 -0.0354945 0.0524415 0.0818307 0.238847 0.113952 0.157412 0.181101 -0.0360338 0.156481 0.312665 -0.0131113 0.0193871 0.336876 0.350201 0.307247 0.0826414 0.394811 0.0885444 0.103937 6.34059e-05 -0.0183496 0.0911531 0.259003 -0.0256585 0.163879
internal_weight=0 1710.01 12122 1902.68 1048.85 651.142 616.177 510.011 1596.64 306.041 10219.3 925.991 595.994 177.737 435.49 397.707 327.125 10199.7 98.8354 99.9342 1590.86 661.159 411.176 378.075 230.446 312.671 81.8637 144.393 258.724 516.766 1518 240.473 148.583 1300.1 60.09
internal_count=1144240 112581 1031659 148183 58726 33702 32183 25102 126905 21278 883476 70883 44715 11677 32030 25024 20057 882140 5757 6141 135335 53855 19345 17751 12646 23091 4119 11128 18920 42727 129219 17575 8527 110668 4487
is_linear=0
shrinkage=0.0485032


Tree=2
num_leaves=36
num_cat=0
split_feature=84 109 143 27 14 21 38 68 175 38 68 429 9 430 278 57 319 61 17 430 116 294 93 432 349 27 88 423 104 429 245 429 104 7 70
split_gain=12188.9 9465.43 2502.63 2218.15 1405.42 1389.15 1345.37 915.938 899.096 896.726 922.477 651.085 589.274 541.139 504.872 498.579 427.811 419.327 381.127 479.384 358.818 306.933 283.495 336.012 245.337 202.646 193.844 191.427 187.645 185.491 170.742 161.926 134.28 127.285 127.142
threshold=2940.6969989231407 993.27766249961803 32.500000000000007 13725.934347699453 2966.2715611262156 1.0000000180025095e-35 14288.889162116202 1.0000000180025095e-35 11.008890600814 14288.889162116202 6.5000000000000009 0.12857142857142853 498.60253547223653 40.24384200345601 690.27386500000011 1.0000000180025095e-35 -3228.7830321060596 1.0000000180025095e-35 65501.084545540703 182.26692672897704 27098.037770394756 617.60470349329512 934.50000000000011 119.49645718154601 239.13848202035504 10137.975175644702 171490.67637196303 -40.13918504550464 136.64498867458352 0.12857142857142853 406.92504493401708 0.042857142857142858 136.64498867458352 1177.6738990397303 -423.99999999999994
decision_type=10 8 8 2 2 2 2 10 8 2 10 10 2 10 8 2 8 2 2 10 8 10 8 10 10 2 8 10 8 10 8 10 10 2 8
left_child=1 3 5 7 13 -2 18 8 15 10 12 28 14 20 24 17 -5 21 19 -6 27 22 -1 -24 -4 33 -25 -3 -7 -16 -21 -15 -13 -26 -10
right_child=2 4 9 16 6 11 -8 -9 34 -11 -12 32 -14 31 29 -17 -18 -19 -20 30 -22 -23 23 26 25 -27 -28 -29 -30 -31 -32 -33 -34 -35 -36
leaf_value=0.1679643866195682 0.39750156008094295 0.25312205029211615 0.021706359254838072 0.19609053452217479 0.048772395042248062 0.051453328874324911 -0.039585738192991674 0.45742807706607286 0.066577080119682705 -0.046780512798554684 0.33557195708968629 0.17226051846034979 -0.03338467444260327 0.10492074261306271 -0.022483906151111389 0.41598675769241023 0.035146131363782286 0.37728698087907181 -0.00024870306076676187 0.24917919386865781 -0.0078076953829556862 0.094283085587687457 0.21236815303029999 0.38360080957769915 0.012354813052869312 -0.027181910973806511 0.26288422301473652 0.091312363645827538 -0.0050397271539186902 0.027387695039550592 0.11405303647463153 0.25236038362641611 0.081600728180143453 0.14246864985588775 0.15637646861641111
leaf_weight=189.53182949125767 27.47446861397475 19.084393505938351 377.43272385559976 46.403989025391638 401.15958445798606 259.91619895212352 1003.2743649296463 35.189924313686788 99.923584193922579 5341.9666862776503 17.37793015409261 89.430544409900904 2561.1373834274709 24.827715415507555 1024.2172789722681 31.220135158859193 238.82476131431758 37.259366900660098 271.03260040748864 38.98745942581445 95.060909604653716 49.844232153147459 371.29288173932582 44.172881101258099 21.300802727229893 26.509811529889703 107.3334652679041 174.22504557203501 295.66945674177259 211.71944094821811 50.48615100607276 59.567314406856894 67.402347683906555 104.27528406772763 58.989452790468931
leaf_count=8471 832 1285 31665 1816 31199 17289 89525 878 6078 484452 885 4711 226589 1575 86252 1357 15852 1186 22749 2374 7660 2535 14956 1580 1728 2107 3088 12177 22882 17179 3467 2886 4146 8009 2820
internal_value=0 0.0782982 -0.0269043 0.180962 0.0153859 0.0590762 -0.00268807 0.21426 0.205613 -0.0334722 -0.0171064 0.0460248 -0.018523 0.100961 0.0030368 0.225835 0.0613302 0.218409 0.0459139 0.0714148 0.0693462 0.210642 0.218784 0.237207 0.0426637 0.0946737 0.29808 0.107287 0.0213891 -0.0139408 0.172933 0.208986 0.133298 0.120398 0.0999111
internal_weight=0 3447.69 10425.8 1309.99 2137.71 739.893 1764.94 1024.76 989.568 9685.94 4343.97 712.419 4326.59 372.765 1765.46 830.655 285.229 799.435 761.666 490.633 288.37 762.175 712.331 522.799 529.519 152.086 151.506 193.309 555.586 1235.94 89.4736 84.395 156.833 125.576 158.913
internal_count=1144240 235514 908726 60617 174897 49860 149314 42949 42071 858866 374414 49028 373529 25583 146940 33173 17668 31816 59789 37040 21122 30630 28095 19624 43509 11844 4668 13462 40171 103431 5841 4461 8857 9737 8898
is_linear=0
shrinkage=0.0485032


Tree=3
num_leaves=36
num_cat=0
split_feature=252 159 38 80 122 9 27 17 84 290 430 68 78 116 5 59 101 16 95 325 217 80 262 231 16 250 278 16 429 319 98 130 101 93 245
split_gain=11485.1 4817.95 2011.42 2005.57 1440.69 1836.73 1152.25 1154.66 838.738 675.582 607.457 481.046 501.296 466.343 433.727 385.763 400.125 335.564 269.41 252.35 246.597 246.498 207.014 201.125 186.302 180.294 177.15 163.297 154.474 148.162 146.586 135.76 129.208 117.72 116.035
threshold=3220.8884938436008 6018.6266093502009 14288.889162116202 8.0000000000000018 1.0000000180025095e-35 208.34544941747103 30158.956134264805 1242.6675043590251 7442.4556038476412 99.500000000000014 217.38706215666903 1.0000000180025095e-35 20.500000000000004 7480.4840777355066 -3924.1435857611896 1.0000000180025095e-35 18481.920765117506 1.0000000180025095e-35 119.24115284858551 -1.0000000180025095e-35 -10.499999999999998 8.0000000000000018 4157.5344332396808 297.80002292071555 1.0000000180025095e-35 -395.75741638082496 690.27386500000011 1.0000000180025095e-35 0.092857142857142874 -983.76615468555781 40.500000000000007 678.04960301462006 14867.825024787702 495.50000000000006 607.20113728300009
decision_type=8 10 2 10 10 2 2 2 10 10 10 10 8 8 2 2 8 2 10 10 8 8 10 10 2 10 8 2 10 8 10 10 10 8 8
left_child=1 2 6 4 5 8 7 11 13 10 17 12 -1 20 -8 19 23 -3 34 33 -2 -19 31 30 -9 -22 -27 -21 -20 -16 -17 -12 -26 -14 -7
right_child=3 9 -4 -5 -6 18 14 24 -10 -11 22 -13 15 -15 29 16 -18 21 28 27 25 -23 -24 -25 32 26 -28 -29 -30 -31 -32 -33 -34 -35 -36
leaf_value=0.07524617906684046 0.22580240000383275 0.15102286245511035 -0.018945369860180066 0.53100522649394577 -0.043727370459102105 0.03809437216930104 0.23481078279847009 0.20396030238960111 0.0024178916044181914 -0.031425474173043907 0.22382534939486151 0.31399959586171744 0.12339062532806787 0.015520104298995821 0.098993343127644476 0.33254987203032188 0.12301414920258985 0.0059803442969500317 -0.03439208759384859 0.19149043563062629 0.027589045459743167 0.17438798566597263 0.0057697497770993009 0.15485852607658177 0.082385267911745705 0.16517265909369028 0.087422255589630973 0.09814974746947612 -0.0044985541524918985 0.010211939809780203 0.24498014468479776 0.11158295467545536 0.011239778229683835 0.18971296208196767 -0.0089317356585522714
leaf_weight=119.24946311023086 47.775530927814543 41.688562766648829 209.95590294711292 15.111237583681939 5906.7041706871241 195.68877191189677 26.905811569653451 21.22791036311537 408.40986644290388 566.34670354332775 31.234107770957053 56.850480209104717 72.960154606960714 127.37679128348827 56.945196839049459 71.321101011708379 67.435172467492521 835.28951859194785 2355.561202079989 58.176897349767387 54.837206177413464 20.960176353342831 36.94963064417243 37.704186748713255 152.27795944549143 129.7256239829585 147.13303467817605 182.15102969110012 491.52982049901038 197.91593976039439 121.71584311500192 134.59844678733498 99.157849437557161 459.39672499615699 334.33261785749346
leaf_count=6270 3161 2222 16425 631 555289 15611 673 1042 33629 50969 1848 903 2532 9515 2773 2673 2675 64976 213272 1647 3525 855 2545 1941 8669 7863 9479 7663 41648 12887 4642 8221 6046 11700 27820
internal_value=0 0.0725934 0.12313 -0.0273601 -0.0281874 -0.00680286 0.139689 0.156393 0.0541432 0.0116203 0.0337684 0.176163 0.169579 0.0958225 0.0496015 0.180084 0.226947 0.0166453 -0.0233203 0.161999 0.122778 0.0101028 0.109591 0.257321 0.0659773 0.107938 0.123853 0.120745 -0.0292312 0.0300489 0.277334 0.132724 0.0543279 0.180623 0.00843074
internal_weight=0 3678.41 2011.35 10214.2 10199.1 4292.37 1801.39 1519.62 915.258 1667.07 1100.72 1246.96 1190.11 506.848 281.767 1070.86 298.176 897.938 3377.11 772.685 379.471 856.25 202.782 230.741 272.664 331.696 276.859 240.328 2847.09 254.861 193.037 165.833 251.436 532.357 530.021
internal_count=1144240 222797 91161 921443 920812 365523 74736 58403 67172 131636 80667 42646 41743 33543 16333 35473 11931 68053 298351 23542 24028 65831 12614 9256 15757 20867 17342 9310 254920 15660 7315 10069 14715 14232 43431
is_linear=0
shrinkage=0.0485032


Tree=4
num_leaves=36
num_cat=0
split_feature=66 38 83 325 111 266 429 27 412 57 80 66 17 321 68 27 337 324 76 109 61 322 80 49 116 172 6 330 93 27 16 59 71 381 76
split_gain=14641.6 2185.42 1760.67 1252.44 670.914 518.698 507.159 451.188 420.371 415.281 325.637 313.218 302.65 288.724 252.468 207.526 199.683 195.943 195.927 193.166 165.847 154.897 147.802 141.649 137.647 133.561 129.664 125.103 122.993 118.945 113.227 166.337 110.522 110.411 105.302
threshold=22.500000000000004 35022.892371544811 6388.2527919668109 -64.903159417813995 19426.940536910701 1.0000000180025095e-35 1.0000000180025095e-35 1.0000000180025095e-35 0.52857142857142858 1.0000000180025095e-35 6.5000000000000009 111.50000000000001 1242.6675043590251 1013.00645997053 1.0000000180025095e-35 13725.934347699453 -1.0000000180025095e-35 -1.0000000180025095e-35 0.78011967106750013 6204.9937739810803 1.0000000180025095e-35 802.99637214462712 1.0000000180025095e-35 433.53210469922755 1.0000000180025095e-35 595.97921457871519 14540.592737986151 -12394.503289308448 640.50000000000011 39896.602876537603 1.0000000180025095e-35 1.0000000180025095e-35 3777.9837662924651 1029.2178320226651 75.556516311480507
decision_type=2 2 10 8 8 8 10 2 10 2 10 2 2 10 8 2 8 8 8 10 2 10 8 2 10 10 2 10 8 2 2 2 10 10 8
left_child=3 2 4 8 7 12 16 9 10 13 20 19 15 14 32 30 -4 27 -11 24 21 25 -16 -18 -8 34 -19 -6 -27 -9 -5 -32 -2 -33 -1
right_child=1 -3 6 5 17 -7 11 29 -10 18 -12 -13 -14 -15 22 -17 23 26 -20 -21 -22 -23 -24 -25 -26 28 -28 -29 -30 -31 31 33 -34 -35 -36
leaf_value=0.072441616738107534 0.056916880397307926 -0.044872158820240468 0.12412191849739627 0.16521891033531952 0.21567214142729008 -0.0030832713662574222 0.084902785388870763 0.053251260035344188 0.026599557417819164 0.089757918956909141 0.28540947382244108 -0.021318737269847544 0.05267474615465402 0.15556740777162237 0.063739993598307204 0.043662714100476105 -0.0075975081377255456 0.024151886921327522 0.27207566138725725 0.0070509552901222546 0.22333950586585105 0.064385715956023673 0.18557122855863248 -0.033075197096174222 -0.0041475272232738862 0.12394365300497687 -0.018279387174805501 0.045493769226440758 0.18220539835097702 -0.017909574020997812 0.083974392930911093 0.16490164928358814 -0.007004276925208267 0.059842155514016802 0.13936865967110168
leaf_weight=63.808246802538633 398.38424733188003 5602.4430459290743 20.306856821291149 109.46811028756201 15.186793364584444 170.21475586108863 211.74513436947018 86.939892269670963 64.649138132110238 21.600647413171828 42.563801372423768 339.11621089838445 348.40460992697626 88.070820637978613 41.132167596369982 95.686087128706276 628.05346737336367 279.1438561687246 38.730471798218787 233.09159000311047 65.398367635905743 54.871104231104255 54.421334178186953 2811.5854414077476 50.59213410038501 114.54569842666388 431.07723510917276 30.717938575893641 333.20470193400979 151.64585680700839 241.70968924183398 138.02060540113598 75.732884406112134 28.370769700966775 415.0678356513381
leaf_count=1758 25460 549365 815 2563 1069 12584 14024 5387 3140 1335 782 30202 22169 4090 2453 5510 56003 22108 2024 19147 1287 1983 2729 257600 3814 3333 36335 2379 8026 10874 9287 5262 5235 1497 12611
internal_value=0 -0.0230811 -0.00275862 0.111213 0.0388205 0.074961 -0.0193417 0.0658085 0.146767 0.0850089 0.153898 0.0145971 0.0887749 0.0738376 0.0612023 0.109284 -0.0275278 0.00467497 0.2068 0.0391811 0.148551 0.143568 0.133127 -0.0284232 0.0677293 0.148257 -0.00160229 0.101794 0.167301 0.00802121 0.121416 0.109667 0.0467065 0.146988 0.130451
internal_weight=0 11609.7 6007.27 2285.98 1712.78 1131.87 4294.49 956.658 1154.11 718.073 1089.46 834.545 961.66 657.741 569.671 613.255 3459.95 756.126 60.3311 495.429 1046.9 981.498 95.5535 3439.64 262.337 926.626 710.221 45.9047 447.75 238.586 517.569 408.101 474.117 166.391 478.876
internal_count=1144240 1052448 503083 91792 121478 58872 381605 59587 32920 43326 29780 67187 46288 39967 35877 24119 314418 61891 3359 36985 28998 27711 5182 313603 17838 25728 58443 3448 11359 16261 18609 16046 30695 6759 14369
is_linear=0
shrinkage=0.0485032


Tree=5
num_leaves=36
num_cat=0
split_feature=143 66 37 80 339 399 104 68 430 429 23 6 357 349 23 27 14 16 357 450 245 122 94 17 250 423 84 80 167 83 320 365 14 27 172
split_gain=11441.6 2754 1082.68 758.782 611.267 593.487 576.213 486.929 755.479 383.699 263.694 260.844 250.816 301.774 212.972 178.516 236.674 225.362 194.667 151.261 147.825 147.792 127.048 118.346 171.795 116.102 85.5743 84.1826 83.1145 81.3376 81.2096 80.9728 106.187 80.2781 77.0066
threshold=23.500000000000004 47.500000000000007 1.0000000180025095e-35 8.0000000000000018 1.0000000180025095e-35 -131.38981051829498 136.64498867458352 8.0000000000000018 101.59429891979852 0.042857142857142858 6387.2628825752008 16184.168431979802 1.0000000180025095e-35 361.00614931127654 3927.4361139546504 3880.3643782144754 5796.2874789344305 1.0000000180025095e-35 1.0000000180025095e-35 0.12857142857142853 686.71331708188006 65267.748076086202 30.500000000000004 2955.1119398294254 -2010.9914597883146 -66.57096745234638 7442.4556038476412 1.0000000180025095e-35 633.50000000000011 3883.1138442870802 -1820.3714668738596 -26.499999999999996 5796.2874789344305 17615.617106294354 793.34641426081669
decision_type=8 2 2 10 8 10 8 10 10 10 2 2 8 10 2 2 2 2 10 10 8 8 8 2 10 10 8 10 8 10 10 8 2 2 10
left_child=2 3 4 6 5 19 15 8 14 31 23 12 13 22 21 16 17 -2 25 27 -12 -3 29 24 -10 26 -19 28 -1 -7 -30 -8 -33 -17 -27
right_child=1 7 -4 -5 -6 11 9 -9 10 -11 20 -13 -14 -15 -16 33 -18 18 -20 -21 -22 -23 -24 -25 -26 34 -28 -29 30 -31 -32 32 -34 -35 -36
leaf_value=0.092651756496853241 0.21834622135724824 -0.0054141111657157147 -0.020605284404626948 0.32397039532089483 -0.009909794235850743 0.077950840442175984 0.063146792284574163 0.2279755605445942 0.012797627092697605 0.070608408522895419 0.034552345415650991 0.045138539484900264 0.22126866639477061 0.14907790474566179 -0.040360479652702161 0.09278979952672943 0.0047257750742993633 0.1725371454783387 0.20813581956597929 0.19768379307157175 -0.01658082685865277 -0.036684711774699279 0.09324508402765147 0.032333165766900811 0.17319145890057253 0.045235434839612225 0.076481202400479134 0.17317123868451334 0.094317557165204124 0.024217037004039758 0.1383607931664218 0.014074493924213489 -0.023639065739821059 0.0014115228809173078 0.095516683344103598
leaf_weight=167.01759609393775 29.464526415802538 768.54084019642323 186.91373604629189 20.920042704790831 112.05418866407126 130.94613606482744 36.18278312496841 16.889413699507713 24.931870169937611 178.53377657942474 180.79432383365929 312.55967525951564 36.377986062318087 171.14343434479088 7252.8935619648546 27.258566504344344 95.170559590682387 41.672724145464599 26.30726857483387 79.414116439409554 503.24337971583009 661.70181803591549 440.81550493463874 110.62209667265415 42.472734928131104 248.21171093080193 45.798061385750771 87.996973178349435 118.97034188266844 134.18578280694783 572.10988506115973 263.59186970442533 526.36992794275284 132.85357930324972 100.73939589597285
leaf_count=4680 1267 63639 12998 437 6076 5931 2421 627 1478 10319 14292 15943 1320 5017 725114 1491 6775 1928 1182 1101 45267 66585 16160 8117 2397 14014 2696 1085 3276 7818 12977 19469 46995 8765 4583
internal_value=0 -0.0219324 0.0917704 0.0335879 0.100657 0.10616 0.0301209 -0.0322273 -0.0326878 0.00612917 0.0106192 0.0833849 0.0964716 0.0912956 -0.0369873 0.062368 0.0747437 0.0882823 0.0800004 0.133388 -0.00306609 -0.0198815 0.0772874 0.0632026 0.113864 0.0722765 0.122244 0.127991 0.123358 0.0507557 0.130779 -0.0078051 -0.0110549 0.0169684 0.0597512
internal_weight=0 11335.2 2550.51 1773.07 2363.59 2251.54 1752.15 9562.09 9545.2 1004.68 862.064 1226.03 913.469 877.091 8683.14 747.476 587.364 492.194 462.729 1025.51 684.038 1430.24 705.947 178.027 67.4046 436.422 87.4708 946.095 858.098 265.132 691.08 826.145 789.962 160.112 348.951
internal_count=1144240 1049858 94382 122342 81384 75308 121905 927516 926889 79204 71551 52189 36246 34926 855338 42701 32445 25670 24403 23119 59559 130224 29909 11992 3875 23221 4624 22018 20933 13749 16253 68885 66464 10256 18597
is_linear=0
shrinkage=0.0485032


Tree=6
num_leaves=36
num_cat=0
split_feature=290 252 337 430 9 122 278 14 51 83 23 83 148 192 68 27 23 458 27 349 409 349 25 101 23 302 399 27 217 365 17 59 38 104 101
split_gain=9234.18 2127.94 707.849 694.724 527.403 524.224 482.891 411.809 344.806 341.034 302.622 293.57 271.742 221.199 215.036 185.213 279.545 175.777 148.966 197.241 127.38 121.687 109.145 102.843 102.81 97.6724 104.571 95.8066 111.306 94.598 84.8216 74.0356 73.6354 66.0777 102.258
threshold=55.500000000000007 268.91007387443506 -1.0000000180025095e-35 30.794833339673854 342.48645024515656 56155.400543906006 690.27386500000011 9183.4965354375818 5209.8399336944012 2539.2845093813703 1202.7565036496001 3883.1138442870802 14257.337319694052 -1.0000000180025095e-35 6.5000000000000009 17615.617106294354 2579.8202648036454 -1.842857142857145 6939.3348726559861 1323.3665254164102 -604.70891709186628 1323.3665254164102 2214.3059882319853 20603.765000000003 8863.9698477474067 349.37994590113209 -1.0000000180025095e-35 17615.617106294354 -13.499999999999998 -16.499999999999996 281.65613822894903 1.0000000180025095e-35 25689.472409504506 136.64498867458352 4847.8593018779311
decision_type=8 10 8 10 2 10 10 2 2 10 2 10 8 10 10 2 2 8 2 10 10 10 2 10 2 10 10 2 8 8 2 2 2 10 10
left_child=1 8 12 4 13 7 22 9 10 17 14 23 -2 -3 25 16 20 27 19 29 -15 -12 33 30 32 26 31 28 -4 -11 -8 -1 -9 34 -5
right_child=2 3 5 6 -6 -7 11 24 -10 18 21 -13 -14 15 -16 -17 -18 -19 -20 -21 -22 -23 -24 -25 -26 -27 -28 -29 -30 -31 -32 -33 -34 -35 -36
leaf_value=0.10620600453479273 0.21315752641066379 -0.021716910486337487 0.1710732794501266 0.17216304192400106 -0.025592525818642537 -0.044335943692429769 0.11613133594754603 -0.0067446807205221023 0.039319932703402199 0.020451219196769344 0.048817926139374648 -0.001268692925866115 0.030377395192857426 0.13889269333622373 0.19151846814333884 -0.013865101391723362 0.013829604881294479 0.014078775653592831 -0.039028903971453983 0.058711347654713517 0.061847508127020258 0.12092989671744846 0.019158658562793852 0.027295109391975655 -0.036962400012700798 0.043656453450141117 0.081940251957631285 0.012474293221175744 0.066655029327938722 -0.018603031033538223 0.054099104224187962 0.14095888675338702 -0.042547940212464178 0.090330225102559378 0.092134232024719709
leaf_weight=807.06432098895311 35.962713744491339 180.3841959554702 40.192213700152934 90.737294040620327 735.24445978924632 4200.5706026684493 106.54092334769666 534.72787017002702 304.94883602205664 184.1396503187716 373.44894195441157 295.91202657483518 40.895980243571103 58.297374271787703 65.137153318151832 142.48244270961732 347.58071109931916 214.26687709894031 368.59527586493641 108.76302943192422 376.65800726786256 64.570012652315199 28.862669059075415 106.42421293165535 2196.1187782362103 65.74849431309849 362.62762274034321 32.205689808353782 59.673743867315352 702.8112110523507 101.0355623755604 175.58632948342711 180.84333222545683 113.62938417587429 64.094751384109259
leaf_count=15552 1114 15197 1887 2440 67202 449433 3187 45965 15147 16571 19246 21628 1776 2768 706 10130 25484 15028 35287 8235 18750 2346 1456 6041 220357 1949 11276 2325 3465 66488 5318 3907 18651 5984 1944
internal_value=0 0.0518936 -0.030657 0.0233641 0.00624218 -0.0319337 0.0581019 -0.0206631 0.0872209 -0.00177538 0.094852 0.0333951 0.115901 0.0274166 0.105357 0.036998 0.046259 0.0412075 -0.0126868 -0.0029355 0.0721739 0.0594482 0.108784 0.0660621 -0.0317599 0.10138 0.104201 0.0852197 0.108679 -0.010495 0.0859378 0.112416 -0.0157931 0.11842 0.139034
internal_weight=0 4967.02 8899.77 2747.88 1840.65 8822.91 907.237 4622.34 2219.13 1710.65 1914.18 609.913 76.8587 1105.4 1476.16 925.019 782.536 346.339 1364.31 995.714 434.955 438.019 297.324 314.001 2911.69 1411.03 1345.28 132.072 99.866 886.951 207.576 982.651 715.571 268.461 154.832
internal_count=1144240 257658 886582 187529 139531 883692 47998 434259 70129 149286 54982 36174 2890 72329 33390 57132 47002 22705 126581 91294 21518 21592 11824 14546 284973 32684 30735 7677 5352 83059 8505 19459 64616 10368 4384
is_linear=0
shrinkage=0.0485032


Tree=7
num_leaves=36
num_cat=0
split_feature=265 22 104 9 278 262 80 22 21 73 128 57 9 80 339 116 16 66 177 16 278 68 38 431 95 357 38 17 418 88 473 57 211 199 266
split_gain=6400.14 5139.23 967.117 888.757 482.769 469.943 433.094 280.477 242.498 223.599 199.887 191.102 182.393 159.503 260.768 150.117 139.131 133.268 132.882 127.922 124.181 120.446 128.135 110.344 96.9579 100.513 81.4341 77.8533 75.7932 70.8856 65.4466 64.529 64.3632 89.9394 62.1428
threshold=1.0000000180025095e-35 2.5000000000000004 316.15336166089355 342.48645024515656 885.39342483641019 27326.406242285204 8.0000000000000018 1.0000000180025095e-35 1.0000000180025095e-35 1.0000000180025095e-35 640.41084369017619 1.0000000180025095e-35 622.31499951654303 1.0000000180025095e-35 -1.0000000180025095e-35 36994.921601763861 1.0000000180025095e-35 61.500000000000007 -98.990207788324483 1.0000000180025095e-35 610.33924974669515 8.0000000000000018 35022.892371544811 -0.2142857142857145 3737.0923312177051 1.0000000180025095e-35 35022.892371544811 179671.05722324352 -0.107142857142857 92496.288629260816 3.5611210976563101 1.0000000180025095e-35 1.0000000180025095e-35 1284.2234522841602 58593.87628224666
decision_type=8 2 10 2 10 10 10 2 2 10 10 2 2 10 10 10 2 2 10 2 8 10 2 10 10 10 2 2 10 10 8 2 10 10 10
left_child=1 3 4 5 15 6 9 10 29 11 21 18 20 14 -7 16 -3 -6 32 -20 -4 22 28 30 25 -18 -9 31 34 -5 -21 -10 33 -1 -2
right_child=7 2 12 8 17 13 -8 26 27 -11 -12 -13 -14 -15 -16 -17 24 -19 19 23 -22 -23 -24 -25 -26 -27 -28 -29 -30 -31 -32 -33 -34 -35 -36
leaf_value=0.090199354398207768 0.021220072517320675 0.18589980558171226 0.021045778672453587 0.050623758508337967 0.014943876369777551 0.11465901043976814 0.21598994160798202 -0.02870274691798641 0.0073262262437946823 0.027439917072626226 0.1241919258504366 0.14977155585445698 -0.034830250193825379 0.13396600278119342 0.0095397191239276671 -0.023209923352602281 0.06103623105349839 -0.022908717229801999 0.11008709037974494 0.10748332457802694 -0.018996306595171892 0.12195769998109451 -0.031889503831237148 0.05494926110857689 0.016682785120461452 0.14436602082288799 -0.04630013178258454 -0.030438040524219105 -0.014666808691933104 0.1246326435776923 0.048386285202375375 0.090395418474281911 0.14975723221924198 0.13599456257902051 0.11137309359549692
leaf_weight=1019.2796220229939 79.735650916583836 20.769718086346984 246.52008332870901 111.74823015835136 549.1332120615989 66.100227863527834 61.33736205752939 722.48395532462746 326.88104211073369 146.71596853341907 23.944295985624194 116.31188559345901 1813.852155723609 35.174023236148059 346.76533407624811 52.288582581095397 399.06570498272777 363.76245039422065 185.30917133018374 185.43255779519677 698.39949309732765 14.242884830571709 609.17079404555261 627.14036870282143 107.3023646036163 37.230680434964597 4305.0048626353964 134.96492953505367 124.74165709037334 41.847519060596824 57.835717468522489 23.587113726884127 52.323385937139392 111.97412633989006 23.227371752262115
leaf_count=21776 5675 990 19713 5268 35618 2518 633 69761 23573 7155 1507 3083 183754 693 19147 4239 24126 34195 4328 7896 64276 374 61819 23399 7645 2096 479659 11374 9235 634 2109 1609 733 2048 1582
internal_value=0 0.0273288 -0.00867775 0.0696238 0.0222567 0.0806475 0.0886571 -0.0393602 0.0176699 0.0855359 -0.0140174 0.0891544 -0.0258288 0.0348165 0.0263694 0.0554115 0.0626957 -0.000139285 0.0860058 0.0734954 -0.00854973 -0.0179056 -0.020286 0.0657051 0.0579884 0.0681471 -0.0437713 0.000862948 0.0107566 0.0707877 0.0934333 0.0129169 0.0971648 0.0947323 0.0415576
internal_weight=0 7939.05 4288.32 3650.73 1529.55 3011.7 2563.66 5902.55 639.029 2502.32 875.063 2355.61 2758.77 448.04 412.866 616.657 564.368 912.896 2239.29 1055.72 944.92 851.118 836.875 870.409 543.599 436.296 5027.49 485.433 227.705 153.596 243.268 350.468 1183.58 1131.25 102.963
internal_count=1144240 514628 376652 137976 108909 95518 73160 629612 42458 72527 80192 65372 267743 22358 21665 39096 34857 69813 62289 37732 83989 78685 78311 33404 33867 26222 549420 36556 16492 5902 10005 25182 24557 23824 7257
is_linear=0
shrinkage=0.0485032


Tree=8
num_leaves=36
num_cat=0
split_feature=66 23 14 14 262 122 398 169 1 116 430 278 349 176 265 16 172 38 391 430 358 174 337 302 67 16 430 1 394 49 17 254 17 130 458
split_gain=6779.42 2508.68 1373.82 873.963 323.359 282.477 243.617 297.874 236.566 236.11 232.536 197.119 192.973 201.693 224.23 182.265 155.467 152.698 139.015 133.993 124.566 115.467 109.031 102.695 102.367 97.9507 94.0287 88.7901 86.0456 84.72 66.1973 64.7837 64.2511 61.0926 59.4474
threshold=81.500000000000014 2579.8202648036454 4285.0192957086902 4285.0192957086902 67933.940237226911 15014.491079884103 -1.0000000180025095e-35 4761.8664856705309 202104.50000000003 22681.812536481055 182.26692672897704 536.61816371807515 325.63710248346007 -1.0000000180025095e-35 1.0000000180025095e-35 1.0000000180025095e-35 793.34641426081669 35022.892371544811 0.042857142857142858 101.59429891979852 2.5000000000000004 -1.0000000180025095e-35 -1.0000000180025095e-35 424.01017500000006 1.0000000180025095e-35 1.0000000180025095e-35 101.59429891979852 202105.50000000003 380.55834029780152 558.39235619339058 45863.592709035656 1.0000000180025095e-35 2955.1119398294254 526.73358876867258 -5.6142857142857139
decision_type=2 2 2 2 8 8 10 8 2 8 10 8 10 8 8 2 10 2 10 10 10 8 8 8 2 2 10 2 10 2 2 8 2 10 10
left_child=1 2 4 9 6 11 7 29 -6 15 25 26 13 30 -15 -3 20 19 27 -5 34 31 -13 -18 -12 28 -2 -9 -8 -1 -4 -10 -24 -21 -17
right_child=5 3 12 17 8 -7 10 18 21 -11 24 22 -14 14 -16 16 23 -19 -20 33 -22 -23 32 -25 -26 -27 -28 -29 -30 -31 -32 -33 -34 -35 -36
leaf_value=0.11138287469429684 -0.0083970218234744667 0.12823230986383263 0.16728606471435337 -0.022116411930946347 -0.0077306947419904211 -0.044494715467683313 0.065337855362516989 0.12085473167534289 0.14665233884792478 -0.026071723979209999 0.085121194464691477 0.11883583132649413 0.064099456260261103 0.020529020239743848 -0.028362983256933781 0.061159848921662679 0.076262047981949355 -0.044407669033327192 0.04012530768840248 0.061094736965318489 0.11572229984511986 0.014543616208418981 -0.015968310203424853 0.018155887151141407 0.13172318382487458 0.053895077460209169 0.041266565289148412 0.060312935507281 0.12084590507041604 0.16886733087640821 0.041723761008906825 0.072734049036740744 -0.036060973683237879 0.0044910354336980558 0.012204390589903451
leaf_weight=98.270353371277452 426.8711357107386 48.069973190315068 21.108840016648173 937.93852401897311 182.01007000729442 3978.0599105646834 176.21638103295118 169.67819988541305 37.866194018162787 165.7678264118731 424.24343524314463 11.406042507849634 132.69520787056535 453.54236213024706 429.80882310681045 63.620629445649683 242.2174064591527 566.76750812027603 138.13519451487809 59.228017490357161 30.808119222521782 65.591173948720098 483.62271763570607 101.55809667240828 150.13262934517115 1083.3607598179951 113.54130753781646 85.810520208440721 104.75446395576 156.16252175718546 18.565607869997621 105.91091273445636 1657.9695434151217 184.88816096913069 704.92699004150927
leaf_count=2239 39906 2060 960 87550 10846 461601 3927 2894 1643 13480 6790 376 6425 28760 43253 4328 11937 64269 2912 3629 1831 3844 45976 6127 3254 35272 8054 1297 1508 2964 1370 3002 171265 13304 45387
internal_value=0 0.0317212 0.056949 -0.00104522 0.073802 -0.0362824 0.0800187 0.105764 0.0327135 0.0281639 0.0714128 -0.0241531 0.00940746 0.00154488 -0.00326018 0.0357114 0.0318207 -0.0237096 0.079326 -0.0137853 0.0200905 0.0678729 -0.030727 0.0590963 0.0973022 0.0605136 0.00203736 0.100521 0.0860329 0.146665 0.108529 0.0922017 -0.0315236 0.0182244 0.0162569
internal_weight=0 7139.65 4033.86 3105.79 2978.14 6671.47 2586.76 648.057 391.378 1356.97 1938.71 2693.41 1055.72 923.026 883.351 1191.2 1143.13 1748.82 393.624 1182.05 799.356 209.368 2153 343.776 574.376 1364.33 540.412 255.489 280.971 254.433 39.6744 143.777 2141.59 244.116 768.548
internal_count=1144240 417062 163160 253902 82392 727178 63057 12306 19335 85150 50751 265577 80768 74343 72013 71670 69610 168752 7103 104483 51546 8489 217617 18064 10044 40707 47960 4191 5435 5203 2330 4645 217241 16933 49715
is_linear=0
shrinkage=0.0485032


Tree=9
num_leaves=36
num_cat=0
split_feature=66 14 27 265 245 17 80 38 278 95 249 80 9 430 80 27 189 66 83 95 408 17 83 57 250 16 22 426 360 57 430 66 25 57 76
split_gain=6969.21 1760.59 623.074 497.133 461.917 401.906 258.833 539.571 413.807 243.15 196.088 183.559 175.306 159.824 144.912 184.796 149.694 137.952 111.824 107.425 163.032 98.3349 95.2321 100.129 89.3263 87.6127 83.2518 82.0246 81.9667 84.4425 76.4059 76.0482 114.072 77.7653 74.0325
threshold=22.500000000000004 5796.2874789344305 1.0000000180025095e-35 1.0000000180025095e-35 776.8662984626751 1242.6675043590251 6.5000000000000009 1.0000000180025095e-35 610.33924974669515 562.96295001702003 1.5000000000000002 1.0000000180025095e-35 1353.1178480982851 40.24384200345601 8.0000000000000018 25806.484886219954 -10380.771510927498 47.500000000000007 3883.1138442870802 1042.0024029221152 -0.67142857142857137 55209.936725340158 8956.7153365961167 1.0000000180025095e-35 -1325.4464809845697 1.0000000180025095e-35 1.0000000180025095e-35 -0.042857142857142844 1.0000000180025095e-35 1.0000000180025095e-35 39.150638852917758 146.50000000000003 2214.3059882319853 1.0000000180025095e-35 0.88832259413650017
decision_type=2 2 2 8 8 2 10 2 8 10 8 8 2 10 10 2 10 2 10 10 10 2 10 2 10 2 2 8 8 2 10 2 2 2 8
left_child=5 2 3 4 13 10 7 8 12 31 14 -5 21 19 15 28 -17 -4 -10 20 -2 22 23 -3 -15 -11 -26 -7 29 34 -29 32 33 -6 -1
right_child=1 6 17 11 9 27 -8 -9 18 25 -12 -13 -14 24 -16 16 -18 -19 -20 -21 -22 -23 -24 -25 26 -27 -28 30 -30 -31 -32 -33 -34 -35 -36
leaf_value=0.039008546051352497 0.1864215382348316 0.048908615629736453 0.0082830405531829545 -0.028552385103800006 0.059308202497061459 0.090014114306136192 0.13519269961763966 -0.044503858740344633 -0.0038151086540004803 0.1124877286570803 0.021480471811713489 0.080985608379767635 -0.025832123627561245 0.053750553415682599 0.14490852313947972 0.081254577032117442 0.0096276921242941169 -0.03584377137854982 -0.033484219391571757 0.023447752979185246 0.058346970310326915 -0.0042386481764513598 0.013442884592749086 0.15942764196717266 0.19358707927480254 -0.0017951821226432311 0.10483467945482768 0.011264975736172739 0.11606186543832679 0.12049750679474404 0.048928246976229661 -0.028395140166200157 -0.0056100175376483609 0.14429859879121937 0.074473802971001465
leaf_weight=150.67060239892453 26.844206982292235 199.29930311441422 226.39286396186799 432.65470898803324 266.78113506175578 45.056090847589076 21.454521072097123 4362.1713028652593 354.63715560548007 16.152899282053113 187.87322090845555 39.255876091308892 221.65334480721503 64.30894442461431 64.040393969044089 106.98095353785902 191.54186591506004 631.83487604185939 1900.1917138667777 176.79302666988224 181.31553841754794 192.43061275873333 200.85973558016121 21.351382179185748 30.425682280212641 686.16522196959704 136.02662757318467 435.88412724249065 114.21744270436466 86.97729051951319 178.65205359552056 27.800742152146995 60.761254295706749 27.983897843398154 1710.0948886191472
leaf_count=3751 1268 13007 13202 42884 11114 2216 489 522878 27094 982 6619 2432 21812 2561 498 2803 8308 64081 201693 13245 9114 17089 17748 1258 654 56104 5381 25099 1278 1582 7148 1978 3559 821 32490
internal_value=0 -0.020389 0.0107884 0.0246067 0.0368242 0.0606759 -0.0330346 -0.0335189 -0.0180135 0.0177915 0.0692176 -0.0194405 0.011142 0.0703832 0.0729167 0.0709636 0.0352965 -0.0242035 -0.0288179 0.0512503 0.0748634 0.0244909 0.0376066 0.059603 0.1023 0.000833257 0.121058 0.0268454 0.0761273 0.0737855 0.0222141 0.0488619 0.054903 0.0673769 0.0716021
internal_weight=0 10505.5 3031.5 2173.27 1701.36 3271.99 7474.05 7452.59 3090.42 1085.65 2612.4 471.911 835.594 615.714 2424.52 2360.48 298.523 858.228 2254.83 384.953 208.16 613.941 421.51 220.651 230.761 702.318 166.452 659.592 2061.96 1947.74 614.536 383.327 355.526 294.765 1860.77
internal_count=1144240 1052448 229380 152097 106781 91792 823068 822579 299701 74558 57329 45316 70914 32223 50710 50212 11111 77283 228787 23627 10382 49102 32013 14265 8596 57086 6035 34463 39101 37823 32247 17472 15494 11935 36241
is_linear=0
shrinkage=0.0485032


Tree=10
num_leaves=36
num_cat=0
split_feature=143 14 66 430 336 27 122 27 122 430 266 217 278 68 8 16 95 246 59 95 16 17 95 72 80 295 57 399 485 278 76 172 95 7 336
split_gain=4243.63 3290.35 979.337 338.034 251.586 238.41 218.771 217.439 212.717 185.978 183.439 183.121 182.679 153.069 138.579 122.394 121.693 112.121 105.033 99.0907 89.0122 78.3781 77.2348 76.371 76.1189 71.4695 83.6761 71.2653 125.33 67.5623 64.8809 61.0167 58.1785 56.9399 54.5157
threshold=100.50000000000001 7437.4470845067208 39.500000000000007 55.362191848836609 405.72211588407856 63478.521204420213 15014.491079884103 17615.617106294354 27279.597906353902 182.26692672897704 26512.043419013153 -25.499999999999996 781.6243546484601 8.0000000000000018 -2503.9339581382897 1.0000000180025095e-35 878.80414769640004 -264.00975900623195 1.0000000180025095e-35 1392.6224244224252 1.0000000180025095e-35 55209.936725340158 1042.0024029221152 629.42784116736755 6.5000000000000009 3649.3798957166055 1.0000000180025095e-35 -1073.5927803838147 1.0000000180025095e-35 536.61816371807515 9.2083161262180031 793.34641426081669 2440.7146215689304 1034.8557547681651 -1169.3725783478496
decision_type=8 2 2 10 8 2 10 2 10 10 8 8 8 10 2 2 10 10 2 10 2 2 10 10 8 10 2 10 10 8 8 10 10 2 8
left_child=1 2 4 10 5 9 7 12 11 13 16 22 20 15 -7 -1 -3 -17 -11 29 -4 32 34 33 -14 26 27 -19 -29 -5 -20 -6 -13 -22 -2
right_child=8 3 6 19 31 14 -8 -9 -10 18 -12 21 24 -15 -16 17 -18 25 30 -21 23 -23 -24 -25 -26 -27 -28 28 -30 -31 -32 -33 -34 -35 -36
leaf_value=0.075311546625072071 0.11642467186864495 -0.00031748206352273054 0.15800257768912032 0.063235975597165262 0.010916562535596674 0.09635695053114636 -0.027818093458707366 -0.030264625768684973 -0.044302527865074888 0.068702027774884086 -0.039792252212728252 -0.0071393957390160183 0.0055627447322509453 0.13341531464831846 0.0051295152889290164 0.016914000560533979 -0.029687847746661927 0.072628295151709807 0.054097053623208359 -0.0099980910820781678 0.047490832197190858 -0.039086697550476134 -0.00090756570081747668 0.013724564127012109 0.082103865802271359 0.006634703323967814 0.10709806680449165 0.036485574633757158 0.07479139790812854 0.015440821248310988 0.11092426552935661 0.049181524365738735 -0.02954592553873724 0.098712229853124195 0.025737205215578967
leaf_weight=469.11180209275335 26.748326867818832 704.18817726150155 18.852322026155889 121.80221019778401 346.69654944352806 45.922523709945381 320.36314397398382 182.47211025329307 2933.0232997993007 629.32646477315575 1295.8854589127004 470.11267960024998 502.90932524576783 57.546154614537954 266.52334478963166 243.98552164249122 627.74513881420717 309.66976625844836 56.289856038987637 180.83814420178533 149.07105325255543 948.15060161519796 137.37962788157165 97.633169883862138 32.544376798905432 76.434552286751568 68.459446890279651 793.4784072143957 269.08349421154708 162.28150300960988 294.82362442649901 136.68785182759166 648.9328644676134 77.653281729668379 37.396892158780247
leaf_count=7218 1690 56531 727 5941 17285 754 33599 15847 371936 9408 157648 42633 39815 415 12789 11369 65930 4993 1423 15765 9535 105054 13648 6463 1134 2629 1524 23729 9259 11303 5420 5081 69670 3499 2576
internal_value=0 0.0198981 0.0425893 -0.0200554 0.0545819 0.0590159 0.00731 0.0179154 -0.0356761 0.0628857 -0.0268002 -0.0245238 0.0279209 0.0553112 0.0185379 0.0532959 -0.0141598 0.0474315 0.08056 0.0180676 0.0555448 -0.0288263 0.0196104 0.0495898 0.0102148 0.0523394 0.0547642 0.0521533 0.0461862 0.0359332 0.101814 0.0217368 -0.0201329 0.0650342 0.0635536
internal_weight=0 8538.28 5445.54 3092.74 4064.04 3580.65 1381.5 1061.14 5201.74 3268.21 2627.82 2268.72 878.664 2287.77 312.446 2230.22 1331.93 1761.11 980.44 464.922 343.21 2067.2 201.525 324.358 535.454 1517.13 1440.69 1372.23 1062.56 284.084 351.113 483.384 1119.05 226.724 64.1452
internal_count=1144240 537033 223915 313118 113296 90930 110619 77020 607207 77387 280109 235271 61173 61136 13543 60721 122461 53503 16251 33009 20224 217357 17914 19497 40949 42134 39505 37981 32988 17244 6843 22366 112303 13034 4266
is_linear=0
shrinkage=0.0485032


Tree=11
num_leaves=36
num_cat=0
split_feature=66 9 430 80 121 23 21 38 27 104 278 27 169 8 61 27 340 266 264 357 295 430 245 192 265 278 57 27 102 334 365 398 488 59 27
split_gain=5538.02 1536.06 571.935 364.168 350.945 312.825 289.913 220.576 200.484 197.819 243.689 164.557 161.292 142.129 128.081 124.453 346.394 124.155 146.412 120.187 92.6415 92.3021 114.047 82.3835 126.455 158.023 81.2202 91.6049 74.4063 74.2156 71.3555 77.0798 70.0452 56.3676 55.356
threshold=75.500000000000014 392.34702420047955 101.59429891979852 1.0000000180025095e-35 1.0000000180025095e-35 2579.8202648036454 1.0000000180025095e-35 48924.510013081308 30158.956134264805 927.87507157485004 781.6243546484601 63478.521204420213 5425.0899676512008 -1392.1417032143747 1.0000000180025095e-35 25806.484886219954 -6577.3449039616598 1.0000000180025095e-35 1.0000000180025095e-35 1.0000000180025095e-35 373.72867453763803 3.6261873768636357 467.83279651769806 -1156.2702464725996 1.0000000180025095e-35 885.39342483641019 1.0000000180025095e-35 3880.3643782144754 294.3031133521651 -1.0000000180025095e-35 -16.499999999999996 -0.042857142857142844 -0.72857142857142831 1.0000000180025095e-35 3880.3643782144754
decision_type=2 2 10 8 8 2 2 2 2 8 8 2 8 2 2 2 8 10 10 10 10 10 8 10 8 10 2 2 10 10 8 8 8 2 2
left_child=1 2 3 5 9 7 -3 15 12 10 26 19 -5 -10 -14 16 -1 18 30 20 28 -8 -23 -7 25 32 34 -28 33 -11 -18 -32 -25 -4 -2
right_child=4 6 11 8 -6 23 21 -9 13 29 -12 -13 14 -15 -16 -17 17 -19 -20 -21 -22 22 -24 24 -26 -27 27 -29 -30 -31 31 -33 -34 -35 -36
leaf_value=0.19565987673933638 0.021586937701131192 0.050575711485842584 0.072244464208289269 0.12308058718851034 -0.043442038502407923 -0.034788857460359549 -0.02793291775564485 -0.026901724681028479 0.096210484448922995 0.095606628518824011 -0.021968749174451987 0.0015400981765295578 0.050288493254303165 -6.288664200471219e-05 0.11512596098887193 -0.0097691319628863457 0.098698218937622137 -0.0035503159461897972 -0.025008640435997345 0.1179366802002631 0.032049469958570276 0.043959890312683172 -0.014243999860547843 0.096025816709411752 -0.034316482276609259 -0.0028773186826269543 0.10235023513345223 -0.035804967236990753 0.062106461112929591 -0.035680095386171562 0.085063418823567966 0.042000402533523037 0.029482818003902882 0.11469489158240199 -0.027141906122282171
leaf_weight=34.645954944659024 317.08106812182814 151.96851900359616 179.20552091952413 98.471450577490032 3821.1140387863852 122.9134277892299 1027.0599055448547 124.59660348901525 43.307130038738251 10.216227251105009 913.73041124595329 93.788707548752427 681.09549025353044 216.03686102386564 80.106143469922245 108.28392782760784 65.043245127424598 136.29862793162465 65.868631296791136 104.49358641076833 185.27418256923556 99.790186420083046 383.82026131916791 41.316539355553687 151.76917725754902 594.7271425514482 50.828357241116464 14.515140411444007 949.2847529342398 1195.3625616375357 108.84547571092844 962.30580900795758 374.85387921147048 124.85926873097196 66.314810984767973
leaf_count=1207 25435 4816 2972 1008 499006 13312 107891 12131 1243 517 93157 4323 12895 11927 902 6456 2254 9367 2151 2254 6917 5123 32148 2444 15908 42567 3819 1295 21079 135508 2584 29258 21315 2933 6118
internal_value=0 0.0276949 0.0397589 0.0298976 -0.0341229 0.0208051 -0.013282 0.0350794 0.0533919 -0.0202566 -0.00759359 0.0639194 0.0646682 0.0160135 0.0571118 0.0402928 0.044241 0.0403213 0.0452958 0.0677107 0.0640626 -0.0197059 -0.00223397 0.00297436 0.00696657 0.0131645 0.0216773 0.071661 0.0687949 -0.0345676 0.0493715 0.0463763 0.0360891 0.089676 0.0131585
internal_weight=0 7310.03 5647.39 4010.49 6389.16 2891.47 1662.64 1605.89 1119.02 2568.05 1362.47 1636.91 859.673 259.344 761.202 1481.29 1373.01 1338.36 1202.06 1543.12 1438.62 1510.67 483.61 1285.58 1162.67 1010.9 448.739 65.3435 1253.35 1205.58 1136.19 1071.15 416.17 304.065 383.396
internal_count=1144240 379385 229407 188929 764855 160954 149978 65408 27975 265849 129824 40478 14805 13170 13797 53277 46821 45614 36247 36155 33901 145162 37271 95546 82234 66326 36667 5114 26984 136025 34096 31842 23759 5905 31553
is_linear=0
shrinkage=0.0485032


Tree=12
num_leaves=36
num_cat=0
split_feature=66 429 9 17 22 458 266 130 429 80 16 265 84 83 108 157 9 80 27 49 27 57 95 104 105 278 57 259 231 59 6 79 430 169 8
split_gain=5787.71 601.193 577.215 452.217 222.034 193.891 326.815 201.513 188.907 161.871 161.598 158.713 143.243 128.685 128.576 106.251 104.072 99.4525 98.0155 97.9826 90.9154 81.7669 78.9609 77.9405 74.5922 70.7477 66.6049 64.298 59.8458 69.2532 58.0544 48.2612 47.4544 46.1521 45.6323
threshold=54.500000000000007 0.042857142857142858 769.43375595793509 1.0000000180025095e-35 1.0000000180025095e-35 -7.6428571428571441 1.0000000180025095e-35 678.04960301462006 1.0000000180025095e-35 1.0000000180025095e-35 1.0000000180025095e-35 1.0000000180025095e-35 8911.7221949297418 5134.5278277866355 2.5000000000000004 -1261.9999999999998 769.43375595793509 8.0000000000000018 25806.484886219954 492.66686728260953 114708.078312882 1.0000000180025095e-35 1.0000000180025095e-35 1041.4575298712152 7.5000000000000009 200.73370841537653 1.0000000180025095e-35 3.5000000000000004 2162.2648418534905 1.0000000180025095e-35 11378.248526792751 90.951727419555013 217.38706215666903 709.54663828251012 -770.01872349900043
decision_type=2 10 2 2 2 8 8 8 10 8 2 8 10 10 10 10 2 10 2 2 2 2 10 10 10 10 2 10 10 2 2 10 10 8 2
left_child=2 4 3 8 14 -5 7 20 10 32 -1 16 24 18 27 28 19 -15 25 -6 21 34 30 26 -3 -12 -14 -2 29 -10 -9 -27 -4 -31 -7
right_child=1 12 9 5 11 6 -8 22 15 -11 13 -13 23 17 -16 -17 -18 -19 -20 -21 -22 -23 -24 -25 -26 31 -28 -29 -30 33 -32 -33 -34 -35 -36
leaf_value=0.067151336629471953 -0.019231144045797646 0.067718265179853243 -0.028958542139751218 0.080662286072722134 0.0078608201082664732 0.0095702545086528198 -0.022146415081158978 0.060052464187123178 0.050949843493466165 0.049064149264926214 0.028450280627251353 -0.044004935148725159 0.00075895599827658993 0.0049636654579733762 0.059645538541591547 0.090306959291408417 -0.038195538193419545 0.11296020745991615 0.0015168453179000227 -0.025390442434045066 -0.021423066025430964 0.10229263526362567 -0.00023595079649836533 -0.028323045877109144 0.0079086883115816291 0.057636694583480905 0.05365219034928434 0.043717574587871365 0.014927681195786401 0.1014611602384453 0.015785808982145516 0.011071460621728766 0.015326914205353256 0.061108727853520235 0.046819809588964388
leaf_weight=435.40826865239069 568.4691017344594 125.94817444775254 432.90158488880843 123.6154811643064 274.92883787117898 86.874619293026626 387.92935372609645 102.02201901003718 579.46319109667093 85.599417668767273 364.64089164277539 3701.36335947318 342.2444564322941 392.12927709426731 59.58869202947244 291.4729282213375 1117.2928907205351 21.141842797398567 128.94745510490611 862.65095068886876 48.553176921792328 58.225504904985428 569.94231493584812 187.85597449401394 80.353131003677845 730.10767589742318 66.966563402209431 40.921697775833309 74.168869512155652 130.29571494739503 219.98612447176129 56.407306883018464 65.542439559474587 136.5699872802943 707.16176771791652
leaf_count=5687 58919 7308 41916 5699 24081 5091 35518 2885 8505 2088 10235 505044 30645 22996 5108 5533 134481 171 6642 89518 2947 2044 34819 20938 5738 13442 5723 2059 2266 1960 9141 1809 3606 3061 26617
internal_value=0 -0.0300445 0.0333492 0.0380983 -0.0348494 0.0215688 0.018219 0.0269535 0.0494997 -0.0125535 0.0407971 -0.0378252 0.00958026 0.0340207 -0.00835469 0.0647857 -0.0276812 0.0104885 0.0416179 -0.0173543 0.0431348 0.0468126 0.0106114 -0.00245869 0.0444228 0.0461099 0.00941483 -0.015004 0.0567044 0.0603656 0.0298108 0.0542971 -0.0231353 0.0808106 0.0427444
internal_weight=0 7428.58 6229.11 5645.06 6625.22 2304.31 2180.69 1792.77 3340.75 584.043 2128.78 5956.24 803.368 1693.37 668.979 1211.97 2254.87 413.271 1280.1 1137.58 900.815 852.262 891.95 597.067 206.301 1151.16 409.211 609.391 920.498 846.329 322.008 786.515 498.444 266.866 794.036
internal_count=1144240 889562 254678 207068 819210 124761 119062 83544 82307 47610 60982 753124 70352 55295 66086 21325 248080 23167 32128 113599 36699 33752 46845 57306 13046 25486 36368 60978 15792 13526 12026 15251 45522 5021 31708
is_linear=0
shrinkage=0.0485032


Tree=13
num_leaves=36
num_cat=0
split_feature=38 23 14 66 109 27 450 334 430 76 340 68 59 6 244 9 430 21 240 430 57 245 0 8 430 199 412 399 365 57 245 57 12 93 396
split_gain=4146.22 2546.89 414.609 363.322 242.979 180.374 182.614 159.627 140.3 133.255 174.618 130.146 112.065 137.52 87.3796 81.0287 90.3219 79.4299 77.3401 67.6416 71.4993 66.8903 65.3908 64.1742 57.5286 55.3091 52.8781 49.6619 46.2439 45.56 42.2309 40.7509 37.6052 37.1224 35.7306
threshold=35022.892371544811 6387.2628825752008 5796.2874789344305 87.500000000000014 2013.7028164522851 94119.003628135164 0.071428571428571411 -1.0000000180025095e-35 71.650114971943964 7.3569744027060011 -22848.349828120696 1.0000000180025095e-35 1.0000000180025095e-35 9890.3626373652769 10392.59931396815 1353.1178480982851 40.24384200345601 1.0000000180025095e-35 1.0000000180025095e-35 54.790725395493958 1.0000000180025095e-35 406.92504493401708 135756659.50000003 -428.66482650445192 3.6261873768636357 -62.817630015144992 0.092857142857142874 -1.0000000180025095e-35 1.0000000180025095e-35 1.0000000180025095e-35 686.71331708188006 1.0000000180025095e-35 -52.909457251094487 363.50000000000006 -1.0000000180025095e-35
decision_type=2 2 2 2 8 2 10 8 10 8 8 10 2 2 8 2 10 2 10 10 2 8 2 2 10 10 10 10 10 2 8 2 2 8 10
left_child=1 2 5 4 8 6 9 -4 30 -1 -11 12 26 19 29 16 -9 32 -7 20 33 24 31 -20 -6 -18 27 -12 -15 -5 -3 -10 -2 -14 -27
right_child=17 3 7 14 21 18 -8 15 22 10 11 -13 13 28 -16 -17 25 -19 23 -21 -22 -23 -24 -25 -26 34 -28 -29 -30 -31 -32 -33 -34 -35 -36
leaf_value=0.021594809430787336 0.010492373044326901 0.022803604684693581 0.12181853419396621 -0.019613745131180537 -0.0071723930124621728 -0.018714786521051952 0.086932281234173625 0.0063644592324469578 0.054187794218453517 0.13727677100776775 0.045197230337999078 0.11272725968624993 0.014762720749656512 0.050888182261702941 -0.03584689316668252 -0.015693810280923554 0.0036376814382294603 -0.044120420842878004 0.074161307685549863 0.092328409237450837 0.12508963435215428 -0.020123571821163169 0.01375711078417364 0.0081072082224353213 0.037013877497561992 0.029355104154507403 -0.00050252065268725798 0.028467286252583161 0.021170434434607446 0.015169999518901406 -0.0043281926803971126 0.11701625644140154 -0.032394845081967105 0.059523132719404057 0.070091361042066314
leaf_weight=516.55653304280713 90.771333327982575 224.42843207763508 30.647644858807325 641.34493873128667 248.69818539731205 138.13386175781488 254.5068418555893 672.97488493658602 179.18360386136919 50.856244313996285 1362.5940701304935 68.722939314320683 52.90980838239193 319.94366380712017 1235.8412706023082 236.69085040641949 75.642302447464317 3811.8189875534736 53.549066761508584 257.26025122124702 34.78915603319183 864.45604877592996 93.03190778195858 97.794143268838525 96.105847562663257 90.531435267999768 78.585587531328201 601.77022417448461 200.31173180323094 102.78488164814189 338.56062586652115 28.094425909221172 102.31350201880559 247.47187065938488 115.00005311891437
leaf_count=17952 8665 12691 507 72841 23110 8056 3821 50795 7550 1092 21337 439 2236 9078 150374 22135 4466 533966 1153 3846 790 84217 3640 4149 4713 4292 2763 15323 6135 10956 25071 1089 11980 7927 5085
internal_value=0 0.0161588 0.037482 -0.0130817 0.00111306 0.0445139 0.04716 0.0125218 0.0207684 0.0444904 0.0481015 0.046695 0.0452569 0.0576421 -0.0279403 0.00970893 0.0160105 -0.0425831 0.00752723 0.0736214 0.0592628 -0.012919 0.0475406 0.0314788 0.00514347 0.0390976 0.0385113 0.0400721 0.0394461 -0.0148091 0.00648755 0.0627036 -0.0122331 0.0516389 0.0521481
internal_weight=0 9609.77 5557.24 4052.53 2072.56 4335.76 4046.28 1221.49 863.299 3791.77 3275.22 3224.36 3155.64 1112.69 1979.97 1190.84 954.149 4004.9 289.477 592.431 335.171 1209.26 300.31 151.343 344.804 281.174 2042.95 1964.36 520.255 744.13 562.989 207.278 193.085 300.382 205.531
internal_count=1144240 589629 193377 396252 162081 106097 92739 87280 50041 88918 70966 69874 69435 30012 234171 86773 64638 554611 13358 14799 10953 112040 12279 5302 27823 13843 39423 36660 15213 83797 37762 8639 20645 10163 9377
is_linear=0
shrinkage=0.0485032


Tree=14
num_leaves=36
num_cat=0
split_feature=252 66 83 14 38 337 266 330 430 21 9 429 25 27 340 80 429 9 115 360 478 1 207 174 266 57 57 254 488 8 38 101 25 27 320
split_gain=3358.16 1063.55 774.443 307.674 244.726 221.641 263.268 177.226 163.427 148.037 146.079 173.293 105.774 109.466 210.256 106.734 83.5834 79.7069 66.833 64.9128 83.3324 73.6505 64.9061 63.3651 60.6635 55.2361 50.5886 50.4143 51.5532 49.1185 49.0131 42.7173 41.3846 46.4098 39.9682
threshold=4628.5685713764906 54.500000000000007 5134.5278277866355 27068.727058643406 61742.080766046602 -1.0000000180025095e-35 14948.060103881251 -585.88671356798989 71.650114971943964 1.0000000180025095e-35 769.43375595793509 0.092857142857142874 661.7356204287596 13725.934347699453 -4018.8940147853946 1.0000000180025095e-35 1.0000000180025095e-35 49.011482261169512 1.0000000180025095e-35 1.0000000180025095e-35 703.39215484719068 202101.50000000003 1.0000000180025095e-35 -239.68973685807046 26512.043419013153 1.0000000180025095e-35 1.0000000180025095e-35 1.0000000180025095e-35 -0.28474903474903496 -901.04691360473589 35022.892371544811 6088.4980673702312 1774.5214544644803 17615.617106294354 -1.0000000180025095e-35
decision_type=8 2 10 2 2 8 8 10 10 2 2 10 2 2 10 10 10 2 10 8 10 2 10 8 8 2 2 10 8 2 2 10 2 2 10
left_child=1 7 3 5 9 -2 17 19 18 -4 11 -11 13 14 -9 26 24 -7 -3 20 21 -1 32 29 -5 34 27 -16 -29 -15 -26 -10 33 -19 -23
right_child=2 8 4 16 -6 6 -8 12 31 10 -12 -13 -14 23 15 -17 -18 22 -20 -21 -22 25 -24 -25 30 -27 -28 28 -30 -31 -32 -33 -34 -35 -36
leaf_value=0.022591282984914671 0.14365562308033517 0.0058149021391370711 0.080993834456166397 -0.0098576236327306034 -0.045640461117864142 0.054253775622699674 -0.016728064466614585 0.11818054054858741 0.042189423458973342 -0.023097279921528591 -0.036813785831786072 0.017704421055864276 -0.0044337122292328179 0.083761642442650816 0.047922911247712967 0.09871044096561693 0.021309344604895853 0.0262948770760335 -0.027469467202031129 0.076998014288633565 0.021405310768760979 0.038358017529218892 0.085200906630918671 -0.011915011503516411 0.0079832496991424154 0.088497605863754436 0.059357216494490585 0.047101342636950441 0.019029586998881451 0.010153244483936405 -0.04147001890816096 0.0028386656239374566 -0.017751513139588972 -0.019916015040765435 0.054071143051129096
leaf_weight=254.62699421262369 31.10058324970305 169.76391842216253 31.088177413213998 347.28249698318541 2174.7751306919381 215.66139776259661 462.90203168755397 68.012328315991908 120.04656011983752 1286.156974574551 1401.0296611855738 302.47991675650701 234.85435583302751 32.984469892922789 222.3119659316726 53.344940984621644 100.72977343108505 458.15690248738974 865.37325021438301 141.34298678534105 352.48929657787085 586.72917787823826 34.004229445010424 208.57079125894234 52.709906082134694 85.629974441137165 119.60615153471008 178.63115100795403 1111.9571411171928 60.344718620181084 446.8145904908888 141.27410411275923 73.556809071917087 57.550780265592039 1085.2068374725059
leaf_count=4994 464 13798 422 32195 329394 6761 53768 1704 8028 147829 180428 22858 11823 996 3426 494 6560 23171 99843 1809 11434 13270 1532 10679 5680 1582 2747 6628 35161 2930 63947 11062 4936 3820 18067
internal_value=0 0.0256198 -0.0228915 0.00067166 -0.033234 0.0156926 0.0126356 0.036155 -0.0133583 -0.0243021 -0.025397 -0.0153285 0.0264032 0.0299261 0.0345697 0.0311966 -0.0204588 0.0288378 -0.0220108 0.0450685 0.04316 0.0469709 0.0200434 0.00294934 -0.0254273 0.0505029 0.0289905 0.0265898 0.022915 0.036168 -0.0362517 0.0209158 0.0162834 0.0211379 0.048557
internal_weight=0 6093.1 7476 2280.47 5195.53 1332.93 1301.83 4796.64 1296.46 3020.75 2989.67 1588.64 2290.62 2055.76 1753.86 1685.85 947.537 838.93 1035.14 2506.03 2364.68 2012.19 623.269 301.9 846.807 1757.57 1632.51 1512.9 1290.59 93.3292 499.524 261.321 589.264 515.708 1671.94
internal_count=1144240 260475 883765 202834 680931 94452 93988 127744 132731 351537 351115 170687 76588 64765 50160 48456 108382 40220 113641 51156 49347 37913 33459 14605 101822 32919 47962 45215 41789 3926 69627 19090 31927 26991 31337
is_linear=0
shrinkage=0.0485032


Tree=15
num_leaves=36
num_cat=0
split_feature=66 122 23 122 120 17 17 80 27 1 340 349 130 396 262 72 57 423 286 408 278 378 47 337 169 80 262 488 342 199 17 294 300 57 77
split_gain=3969.59 1096.71 576.352 332.517 271.623 190.711 154.356 152.629 170.015 354.684 217.137 141.612 127.481 118.719 111.179 87.1685 86.4943 85.7316 69.6243 69.1324 68.1995 65.8201 61.8837 60.2298 51.6796 49.5168 47.9428 63.445 46.0099 43.7778 73.7264 40.1009 50.1895 37.7382 35.0519
threshold=75.500000000000014 15014.491079884103 2579.8202648036454 1.0000000180025095e-35 1.0000000180025095e-35 8638.6929467642531 77341.775841207666 8.0000000000000018 17615.617106294354 202105.50000000003 -3053.0906260229244 1323.3665254164102 599.11843755334962 1.0000000180025095e-35 37027.356912384006 1433.5012431639102 1.0000000180025095e-35 -100.92646119063498 49.500000000000007 -0.5071428571428569 299.9550000000001 75.500000000000014 878.35316184438113 -1.0000000180025095e-35 2197.8129723218854 6.5000000000000009 31943.846638250852 -1.3857142857142848 -45177.308448554097 424.71863571529303 2955.1119398294254 393.74039436244453 594.50000000000011 1.0000000180025095e-35 1417.5000000000002
decision_type=2 10 2 8 8 2 2 10 2 2 8 10 8 8 8 10 2 10 10 10 8 8 2 8 8 8 8 10 8 10 2 10 10 2 8
left_child=1 2 4 6 7 14 11 8 10 -10 24 12 26 29 15 16 17 19 31 -4 -7 -11 28 -14 -1 -5 27 -2 -3 30 -12 32 -15 -13 -21
right_child=3 22 5 25 -6 20 -8 -9 9 21 13 33 23 18 -16 -17 -18 -19 -20 34 -22 -23 -24 -25 -26 -27 -28 -29 -30 -31 -32 -33 -34 -35 -36
leaf_value=0.12256672512036193 0.072104084623276984 0.0042983971138055672 0.094922715969806837 -0.043591776957909584 -0.015313054994525789 0.012974030583097996 -0.035076127885331661 0.092327053950126012 -0.016907924204527993 0.016866266819250252 0.033860762278948138 0.017518338857519744 0.087772043545842338 0.041423073364719426 -0.021781684424063467 2.8190844790034238e-05 0.070130551925010498 0.016435603044016301 0.093135129033761976 0.068785219621668905 -0.019259452457495142 0.076733360550328991 0.032486055085842389 -0.02450204098042584 0.070705603722371071 -0.012066226047192553 -0.031863826198757259 0.0094211484274396261 -0.034320322924714985 0.055287117050454714 0.0082198491784418251 0.023460678489258809 0.058260068931421577 0.070592010225929383 0.021318002729758031
leaf_weight=83.153790802694857 46.653079594951123 79.689641061704606 59.566824612207711 3087.2798875821754 215.18766194628552 209.0210573868826 865.00645221304148 129.75477796047926 342.20409620041028 58.138057567179203 986.12569317594171 177.17570618214086 11.363055831752717 1032.5967492368072 148.3703219871968 320.91066822689027 107.20536380633712 771.82725321874022 76.743240150623024 50.937949630897492 591.16412382060662 168.19092104956508 37.801260163541883 1043.8592527122237 99.048743879422545 121.8364602541551 47.947525450959802 204.51092238351703 813.09451552247629 142.33065400226042 360.16718495078385 168.99506476102397 698.09368922002614 38.338554826565087 130.01087587699294
leaf_count=1781 3178 9262 3096 477872 8907 15148 108728 934 15853 2281 18444 14642 302 14610 11991 20681 4244 36972 2577 2341 56056 3957 2939 118477 1617 14652 4945 19320 99050 2723 18677 4450 13584 2739 7210
internal_value=0 0.0211488 0.02777 -0.03214 0.0378793 0.00847088 -0.0186243 0.0405134 0.0389186 0.014248 0.0427643 -0.00955907 -0.0153703 0.0400505 0.0181962 0.022314 0.0287021 0.0243149 0.0478421 0.0496001 -0.0108396 0.0613551 -0.0282995 -0.023293 0.094374 -0.0423949 0.01258 0.0210643 -0.0308732 0.0297057 0.0270012 0.0460124 0.0482145 0.0269598 0.0346802
internal_weight=0 7880.33 6949.74 5643.97 4560.73 2389.01 2434.85 4345.54 4215.79 568.533 3647.25 1569.85 1354.33 3465.05 1588.83 1440.46 1119.55 1012.34 1976.43 240.516 800.185 226.329 930.585 1055.22 182.203 3209.12 299.112 251.164 892.784 1488.62 1346.29 1899.69 1730.69 215.514 180.949
internal_count=1144240 379385 268134 764855 110395 157739 272331 101488 100554 22091 78463 163603 146222 75065 86535 74544 53863 49619 35221 12647 71204 6238 111251 118779 3398 492524 27443 22498 108312 39844 37121 32644 28194 17381 9551
is_linear=0
shrinkage=0.0485032


Tree=16
num_leaves=36
num_cat=0
split_feature=66 38 95 17 10 430 9 450 429 53 122 27 101 72 172 71 412 57 429 95 278 419 322 211 334 244 169 68 155 488 217 127 98 268 388
split_gain=3643.99 1408.35 410.028 176.186 163.267 330.575 158.253 123.989 113.725 107.565 87.6506 82.3174 80.2738 77.9551 72.4709 71.5219 76.9171 65.843 63.6148 62.0653 59.2364 54.6988 51.5453 51.2558 46.3929 49.8162 46.1109 45.9467 43.836 41.4054 40.5361 40.201 39.9709 38.8852 48.8431
threshold=75.500000000000014 1.0000000180025095e-35 411.72054000316808 5371.6186839264356 7.5000000000000009 182.26692672897704 208.34544941747103 0.12857142857142853 1.0000000180025095e-35 1.0000000180025095e-35 69989.967742031775 50730.670141108807 8690.0989355925121 2511.2648511334551 1024.2334278471401 2006.7782482700052 0.092857142857142874 1.0000000180025095e-35 0.12857142857142853 119.24115284858551 409.14807605128806 -10551.366111797148 -252.71447777013248 1.0000000180025095e-35 -1.0000000180025095e-35 13570.688385641803 1390.3373929067752 1.0000000180025095e-35 85.805415566046022 -0.167109634551495 -17.499999999999996 1.0000000180025095e-35 40.500000000000007 3745.8791335897508 -1.4999999999999998
decision_type=2 2 10 2 2 10 2 10 10 2 8 2 10 10 10 10 10 2 10 10 8 10 8 10 8 8 10 10 8 8 10 10 8 8 10
left_child=1 2 3 7 5 10 11 9 27 15 19 14 32 33 20 16 24 28 -6 30 -4 -21 -18 -22 -1 29 -16 -8 -11 -26 -2 -3 -5 34 -7
right_child=4 31 6 12 18 13 8 -9 -10 17 -12 -13 -14 -15 26 -17 22 -19 -20 21 23 -23 -24 -25 25 -27 -28 -29 -30 -31 -32 -33 -34 -35 -36
leaf_value=0.069224556372982179 0.045068394675985057 -0.033954157854014073 0.036240241082436592 0.062138072626422139 -0.042139528287212159 0.10060603046100521 -0.016390812284531871 0.076589524961432953 0.023069752750295169 0.074009469858357671 -0.03936251844130037 -0.022151985443978239 0.0054428111491097988 -0.0060912903323236374 0.067456588395717568 0.0054351200856677878 0.037348032451524724 0.12437103718332891 -0.017145343525502142 0.025197784955327901 0.0049943004901234021 -0.027886953990673626 -0.0084585305922891818 0.072372450885214393 0.06431474578345682 0.029979305683552112 0.029591646748641634 0.065597837933594513 0.028277380278526228 0.040785289086930986 -0.0076507297042944077 -0.0051643895989107536 0.024282697467568129 0.0059118517402775234 0.03849454532491238
leaf_weight=120.66673076245934 40.287011879030615 992.49467865051702 278.31171927787364 96.720241482835263 2535.5495971399359 49.384524081367999 680.7261396353133 210.73227998334914 261.19871761603281 138.90653491206467 1015.1099543590099 91.102160521782935 565.53543739253655 90.035811030305922 132.04411883000284 170.68412660295144 100.56867436645553 41.687898792792112 264.56014405796304 47.673428407870233 499.09295885683969 1083.7121924911626 135.87525232415646 28.054091170430183 197.13110927958041 1028.7309667062946 177.18872785847634 16.469084141775966 76.446567191276699 1637.0275250989944 231.35426951106638 128.9262955696322 204.0658828751184 36.0092803244479 75.049697945825756
leaf_count=1143 2841 117455 10709 3623 377670 3383 65232 2551 14864 3955 163687 6126 32699 8379 3514 5188 2780 728 27688 5827 26538 143512 5609 856 3527 20290 6925 197 2492 25130 22678 8614 8640 3101 6089
internal_value=0 0.0197629 0.0279684 0.035977 -0.0315965 -0.0230119 0.0104843 0.0404151 -0.00422741 0.0383253 -0.0285062 0.0221775 0.0162104 0.0300298 0.0258005 0.036032 0.0376539 0.0685761 -0.039778 -0.0206514 0.0181375 -0.0256501 0.0110248 0.00858008 0.0397642 0.0385225 0.0457602 -0.0144541 0.0577754 0.0433142 0.000168023 -0.0306443 0.0364554 0.0502997 0.0631449
internal_weight=0 8010.39 6888.97 4724.78 5468.73 2668.62 2164.19 3858.46 958.394 3647.73 2418.14 1205.79 866.322 250.479 1114.69 3390.68 3220 257.041 2800.11 1403.03 805.459 1131.39 236.444 527.147 2983.56 2862.89 309.233 697.195 215.353 1834.16 271.641 1121.42 300.786 160.444 124.434
internal_count=1144240 379385 253316 118355 764855 359497 134961 73393 80293 70842 338545 54668 44962 20952 48542 63667 58479 7175 405358 174858 38103 149339 8389 27394 50090 48947 10439 65429 6447 28657 25519 126069 12263 12573 9472
is_linear=0
shrinkage=0.0485032


Tree=17
num_leaves=36
num_cat=0
split_feature=66 266 9 14 430 14 38 249 84 72 334 429 262 302 461 59 246 61 80 57 423 238 8 122 398 40 80 217 419 57 357 400 262 59 365
split_gain=3504.53 545.929 367.466 336.716 325.555 119.683 113.25 107.101 105.204 96.9057 67.5765 83.775 63.9745 61.4151 61.2191 54.0291 77.4717 53.4169 53.3179 52.0188 53.1823 48.8653 45.3072 47.4033 55.3628 45.0487 43.5141 44.846 52.1191 42.898 42.834 41.9263 41.2832 40.384 69.9952
threshold=39.500000000000007 54446.544151224807 622.31499951654303 2966.2715611262156 182.26692672897704 240.93886207941003 57821.158738036152 1.5000000000000002 5978.0635372652359 2511.2648511334551 -1.0000000180025095e-35 1.0000000180025095e-35 48117.836429377356 1084.6037128506603 0.77857142857142858 1.0000000180025095e-35 515.77646155712011 1.0000000180025095e-35 1.0000000180025095e-35 1.0000000180025095e-35 -66.57096745234638 -1.4999999999999998 -37.971206297077991 15014.491079884103 -0.107142857142857 2508.0409970706155 1.0000000180025095e-35 -17.499999999999996 -4837.267455666969 1.0000000180025095e-35 1.0000000180025095e-35 0.24285714285714302 60734.391121819361 1.0000000180025095e-35 -26.499999999999996
decision_type=2 8 2 2 10 2 2 8 10 10 8 10 10 10 10 2 8 2 10 2 8 10 2 10 8 2 8 8 8 2 10 10 8 2 10
left_child=3 2 4 5 8 7 26 13 14 12 -5 22 21 15 25 17 29 -1 -4 20 -7 -6 -12 24 -24 33 27 28 -3 -17 -10 -8 -22 -2 -35
right_child=1 6 18 10 9 19 31 -9 30 -11 11 -13 -14 -15 -16 16 -18 -19 -20 -21 32 -23 23 -25 -26 -27 -28 -29 -30 -31 -32 -33 -34 34 -36
leaf_value=0.034827753985112633 -0.0091385354523151139 0.098538060317318724 -0.029550264340874849 0.090128602176031941 0.071693705518768081 0.044532186307206706 -0.043599378031942852 0.0055516657294359456 -0.020081512732329766 -0.00087228690149154917 -0.016524591730189914 0.024797509529442485 -0.017125925623642606 0.011189498166118842 0.075837668931069746 0.052606165881859346 0.021638013580615116 0.065365349294898789 0.073666901626397968 0.054446529135621841 0.014695213399087352 0.035881190239984546 0.064647835071869303 -0.023935680313296872 0.0064770020450796674 -0.02325353542843327 0.037010377185602218 -0.025421981086428777 -0.029052044425720725 0.08509458439137832 0.011514003711631375 0.063414480648851301 -0.021832752444083055 0.083970766079611445 0.011368668590725817
