tree
version=v4
num_class=1
num_tree_per_iteration=1
label_index=0
max_feature_idx=489
objective=binary sigmoid:1
feature_names=numero_de_cliente foto_mes active_quarter cliente_edad cliente_antiguedad mrentabilidad mrentabilidad_annual mcomisiones mactivos_margen mpasivos_margen cproductos tcuentas mcuenta_corriente ccaja_ahorro mcaja_ahorro mcaja_ahorro_dolares cdescubierto_preacordado mcuentas_saldo ctarjeta_debito ctarjeta_debito_transacciones mautoservicio ctarjeta_visa ctarjeta_visa_transacciones mtarjeta_visa_consumo ctarjeta_master_transacciones mtarjeta_master_consumo cprestamos_personales mprestamos_personales cprestamos_prendarios mprestamos_prendarios cplazo_fijo mplazo_fijo_dolares minversion1_pesos minversion2 cseguro_vida cseguro_vivienda ccaja_seguridad cpayroll_trx mpayroll ccuenta_debitos_automaticos mcuenta_debitos_automaticos ctarjeta_visa_debitos_automaticos mttarjeta_visa_debitos_automaticos cpagomiscuentas mpagomiscuentas mtarjeta_visa_descuentos ccomisiones_mantenimiento mcomisiones_mantenimiento ccomisiones_otras mcomisiones_otras ctransferencias_recibidas mtransferencias_recibidas ctransferencias_emitidas mtransferencias_emitidas cextraccion_autoservicio mextraccion_autoservicio mcheques_emitidos tcallcenter ccallcenter_transacciones thomebanking chomebanking_transacciones ccajas_transacciones ccajas_consultas ccajas_otras catm_trx matm ctrx_quarter cmobile_app_trx Master_status Master_mfinanciacion_limite Master_Fvencimiento Master_msaldototal Master_msaldopesos Master_mconsumospesos Master_fultimo_cierre Master_mpagospesos Master_mpagosdolares Master_fechaalta Master_cconsumos Master_mpagominimo Visa_status Visa_mfinanciacion_limite Visa_Fvencimiento Visa_msaldototal Visa_msaldopesos Visa_msaldodolares Visa_mconsumospesos Visa_mconsumosdolares Visa_mlimitecompra Visa_fultimo_cierre Visa_mpagado Visa_mpagospesos Visa_mpagosdolares Visa_fechaalta Visa_cconsumos Visa_mpagominimo active_quarter_lag1 internet_lag1 cliente_edad_lag1 cliente_antiguedad_lag1 mrentabilidad_lag1 mrentabilidad_annual_lag1 mcomisiones_lag1 mactivos_margen_lag1 mpasivos_margen_lag1 cproductos_lag1 tcuentas_lag1 mcuenta_corriente_lag1 ccaja_ahorro_lag1 mcaja_ahorro_lag1 mcaja_ahorro_dolares_lag1 mcuentas_saldo_lag1 ctarjeta_debito_transacciones_lag1 mautoservicio_lag1 ctarjeta_visa_transacciones_lag1 mtarjeta_visa_consumo_lag1 mprestamos_personales_lag1 mprestamos_prendarios_lag1 minversion2_lag1 cseguro_vivienda_lag1 ccaja_seguridad_lag1 cpayroll_trx_lag1 mpayroll_lag1 mcuenta_debitos_automaticos_lag1 mttarjeta_visa_debitos_automaticos_lag1 mttarjeta_master_debitos_automaticos_lag1 mpagomiscuentas_lag1 ccomisiones_mantenimiento_lag1 mcomisiones_mantenimiento_lag1 ccomisiones_otras_lag1 mcomisiones_otras_lag1 mforex_sell_lag1 ctransferencias_recibidas_lag1 mtransferencias_recibidas_lag1 ctransferencias_emitidas_lag1 mtransferencias_emitidas_lag1 cextraccion_autoservicio_lag1 mextraccion_autoservicio_lag1 ccallcenter_transacciones_lag1 chomebanking_transacciones_lag1 ccajas_depositos_lag1 catm_trx_lag1 matm_other_lag1 ctrx_quarter_lag1 cmobile_app_trx_lag1 Master_mfinanciacion_limite_lag1 Master_Fvencimiento_lag1 Master_msaldototal_lag1 Master_msaldopesos_lag1 Master_mconsumospesos_lag1 Master_fultimo_cierre_lag1 Master_mpagado_lag1 Master_mpagospesos_lag1 Master_fechaalta_lag1 Master_cconsumos_lag1 Master_mpagominimo_lag1 Visa_mfinanciacion_limite_lag1 Visa_Fvencimiento_lag1 Visa_msaldototal_lag1 Visa_msaldopesos_lag1 Visa_mconsumospesos_lag1 Visa_mconsumosdolares_lag1 Visa_mlimitecompra_lag1 Visa_fultimo_cierre_lag1 Visa_mpagado_lag1 Visa_mpagospesos_lag1 Visa_mpagosdolares_lag1 Visa_fechaalta_lag1 Visa_cconsumos_lag1 Visa_mpagominimo_lag1 cliente_edad_delta1 mrentabilidad_delta1 mrentabilidad_annual_delta1 mcomisiones_delta1 mactivos_margen_delta1 mpasivos_margen_delta1 cproductos_delta1 mcuenta_corriente_delta1 mcaja_ahorro_delta1 mcaja_ahorro_adicional_delta1 mcaja_ahorro_dolares_delta1 mcuentas_saldo_delta1 ctarjeta_debito_transacciones_delta1 mautoservicio_delta1 ctarjeta_visa_delta1 ctarjeta_visa_transacciones_delta1 mtarjeta_visa_consumo_delta1 ctarjeta_master_delta1 cprestamos_personales_delta1 mprestamos_personales_delta1 mplazo_fijo_dolares_delta1 minversion2_delta1 mpayroll_delta1 mcuenta_debitos_automaticos_delta1 mttarjeta_visa_debitos_automaticos_delta1 mttarjeta_master_debitos_automaticos_delta1 cpagomiscuentas_delta1 mpagomiscuentas_delta1 ccomisiones_mantenimiento_delta1 mcomisiones_mantenimiento_delta1 ccomisiones_otras_delta1 mcomisiones_otras_delta1 ctransferencias_recibidas_delta1 mtransferencias_recibidas_delta1 ctransferencias_emitidas_delta1 mtransferencias_emitidas_delta1 cextraccion_autoservicio_delta1 tcallcenter_delta1 ccallcenter_transacciones_delta1 thomebanking_delta1 chomebanking_transacciones_delta1 ccajas_transacciones_delta1 ccajas_consultas_delta1 catm_trx_delta1 matm_delta1 catm_trx_other_delta1 matm_other_delta1 ctrx_quarter_delta1 cmobile_app_trx_delta1 Master_mfinanciacion_limite_delta1 Master_Fvencimiento_delta1 Master_msaldototal_delta1 Master_msaldopesos_delta1 Master_mconsumospesos_delta1 Master_mlimitecompra_delta1 Master_fultimo_cierre_delta1 Master_mpagospesos_delta1 Master_cconsumos_delta1 Master_mpagominimo_delta1 Visa_mfinanciacion_limite_delta1 Visa_msaldototal_delta1 Visa_msaldopesos_delta1 Visa_mconsumospesos_delta1 Visa_mconsumosdolares_delta1 Visa_mlimitecompra_delta1 Visa_fultimo_cierre_delta1 Visa_mpagado_delta1 Visa_mpagospesos_delta1 Visa_cconsumos_delta1 Visa_mpagominimo_delta1 internet_lag2 cliente_edad_lag2 cliente_antiguedad_lag2 mrentabilidad_lag2 mrentabilidad_annual_lag2 mcomisiones_lag2 mactivos_margen_lag2 mpasivos_margen_lag2 cproductos_lag2 tcuentas_lag2 mcuenta_corriente_lag2 ccaja_ahorro_lag2 mcaja_ahorro_lag2 mcaja_ahorro_dolares_lag2 cdescubierto_preacordado_lag2 mcuentas_saldo_lag2 ctarjeta_debito_lag2 ctarjeta_debito_transacciones_lag2 mautoservicio_lag2 ctarjeta_visa_transacciones_lag2 mtarjeta_visa_consumo_lag2 cprestamos_personales_lag2 mprestamos_personales_lag2 mprestamos_prendarios_lag2 ccaja_seguridad_lag2 cpayroll_trx_lag2 mpayroll_lag2 ccuenta_debitos_automaticos_lag2 mcuenta_debitos_automaticos_lag2 ctarjeta_visa_debitos_automaticos_lag2 mttarjeta_visa_debitos_automaticos_lag2 cpagomiscuentas_lag2 mpagomiscuentas_lag2 ccajeros_propios_descuentos_lag2 mtarjeta_visa_descuentos_lag2 ccomisiones_mantenimiento_lag2 mcomisiones_mantenimiento_lag2 ccomisiones_otras_lag2 mcomisiones_otras_lag2 ctransferencias_recibidas_lag2 mtransferencias_recibidas_lag2 ctransferencias_emitidas_lag2 mtransferencias_emitidas_lag2 cextraccion_autoservicio_lag2 mextraccion_autoservicio_lag2 thomebanking_lag2 chomebanking_transacciones_lag2 ccajas_depositos_lag2 catm_trx_lag2 matm_lag2 ctrx_quarter_lag2 cmobile_app_trx_lag2 Master_mfinanciacion_limite_lag2 Master_Fvencimiento_lag2 Master_msaldototal_lag2 Master_msaldopesos_lag2 Master_mconsumospesos_lag2 Master_mlimitecompra_lag2 Master_fultimo_cierre_lag2 Master_mpagospesos_lag2 Master_fechaalta_lag2 Master_cconsumos_lag2 Master_mpagominimo_lag2 Visa_mfinanciacion_limite_lag2 Visa_Fvencimiento_lag2 Visa_msaldototal_lag2 Visa_msaldopesos_lag2 Visa_msaldodolares_lag2 Visa_mconsumospesos_lag2 Visa_mconsumosdolares_lag2 Visa_mlimitecompra_lag2 Visa_fultimo_cierre_lag2 Visa_mpagado_lag2 Visa_mpagospesos_lag2 Visa_fechaalta_lag2 Visa_cconsumos_lag2 Visa_mpagominimo_lag2 active_quarter_delta2 cliente_edad_delta2 mrentabilidad_delta2 mrentabilidad_annual_delta2 mcomisiones_delta2 mactivos_margen_delta2 mpasivos_margen_delta2 cproductos_delta2 mcuenta_corriente_delta2 ccaja_ahorro_delta2 mcaja_ahorro_delta2 mcaja_ahorro_dolares_delta2 cdescubierto_preacordado_delta2 mcuentas_saldo_delta2 ctarjeta_debito_delta2 ctarjeta_debito_transacciones_delta2 mautoservicio_delta2 ctarjeta_visa_delta2 ctarjeta_visa_transacciones_delta2 mtarjeta_visa_consumo_delta2 ctarjeta_master_delta2 ctarjeta_master_transacciones_delta2 cprestamos_personales_delta2 mprestamos_personales_delta2 cpayroll_trx_delta2 mpayroll_delta2 ccuenta_debitos_automaticos_delta2 mcuenta_debitos_automaticos_delta2 mttarjeta_visa_debitos_automaticos_delta2 mttarjeta_master_debitos_automaticos_delta2 cpagomiscuentas_delta2 mpagomiscuentas_delta2 mcomisiones_mantenimiento_delta2 ccomisiones_otras_delta2 mcomisiones_otras_delta2 ctransferencias_recibidas_delta2 mtransferencias_recibidas_delta2 ctransferencias_emitidas_delta2 mtransferencias_emitidas_delta2 mextraccion_autoservicio_delta2 tcallcenter_delta2 ccallcenter_transacciones_delta2 chomebanking_transacciones_delta2 ccajas_transacciones_delta2 ccajas_consultas_delta2 ccajas_depositos_delta2 ccajas_otras_delta2 catm_trx_other_delta2 ctrx_quarter_delta2 Master_mfinanciacion_limite_delta2 Master_Fvencimiento_delta2 Master_msaldototal_delta2 Master_msaldopesos_delta2 Master_mconsumospesos_delta2 Master_mlimitecompra_delta2 Master_fultimo_cierre_delta2 Master_mpagospesos_delta2 Master_mpagosdolares_delta2 Master_cconsumos_delta2 Master_mpagominimo_delta2 Visa_mfinanciacion_limite_delta2 Visa_Fvencimiento_delta2 Visa_Finiciomora_delta2 Visa_msaldototal_delta2 Visa_msaldopesos_delta2 Visa_mconsumospesos_delta2 Visa_mconsumosdolares_delta2 Visa_mlimitecompra_delta2 Visa_fultimo_cierre_delta2 Visa_mpagado_delta2 Visa_mpagospesos_delta2 Visa_cconsumos_delta2 Visa_mpagominimo_delta2 active_quarter_tend6 internet_tend6 cliente_edad_tend6 mrentabilidad_tend6 mrentabilidad_annual_tend6 mcomisiones_tend6 mactivos_margen_tend6 mpasivos_margen_tend6 cproductos_tend6 mcuenta_corriente_tend6 ccaja_ahorro_tend6 mcaja_ahorro_tend6 mcaja_ahorro_dolares_tend6 cdescubierto_preacordado_tend6 mcuentas_saldo_tend6 ctarjeta_debito_tend6 ctarjeta_debito_transacciones_tend6 mautoservicio_tend6 ctarjeta_visa_transacciones_tend6 mtarjeta_visa_consumo_tend6 ctarjeta_master_transacciones_tend6 mtarjeta_master_consumo_tend6 cprestamos_personales_tend6 mprestamos_personales_tend6 mplazo_fijo_dolares_tend6 minversion1_pesos_tend6 cseguro_vida_tend6 cseguro_accidentes_personales_tend6 cpayroll_trx_tend6 mpayroll_tend6 ccuenta_debitos_automaticos_tend6 mcuenta_debitos_automaticos_tend6 ctarjeta_visa_debitos_automaticos_tend6 mttarjeta_visa_debitos_automaticos_tend6 ctarjeta_master_debitos_automaticos_tend6 mttarjeta_master_debitos_automaticos_tend6 cpagomiscuentas_tend6 mpagomiscuentas_tend6 mtarjeta_visa_descuentos_tend6 ccomisiones_mantenimiento_tend6 mcomisiones_mantenimiento_tend6 ccomisiones_otras_tend6 mcomisiones_otras_tend6 cforex_tend6 cforex_buy_tend6 mforex_buy_tend6 cforex_sell_tend6 mforex_sell_tend6 ctransferencias_recibidas_tend6 mtransferencias_recibidas_tend6 ctransferencias_emitidas_tend6 mtransferencias_emitidas_tend6 cextraccion_autoservicio_tend6 mextraccion_autoservicio_tend6 mcheques_depositados_tend6 tcallcenter_tend6 ccallcenter_transacciones_tend6 thomebanking_tend6 chomebanking_transacciones_tend6 ccajas_transacciones_tend6 ccajas_consultas_tend6 ccajas_depositos_tend6 ccajas_extracciones_tend6 ccajas_otras_tend6 catm_trx_tend6 matm_tend6 catm_trx_other_tend6 matm_other_tend6 ctrx_quarter_tend6 cmobile_app_trx_tend6 Master_delinquency_tend6 Master_status_tend6 Master_mfinanciacion_limite_tend6 Master_Fvencimiento_tend6 Master_msaldototal_tend6 Master_msaldopesos_tend6 Master_msaldodolares_tend6 Master_mconsumospesos_tend6 Master_mlimitecompra_tend6 Master_fultimo_cierre_tend6 Master_mpagospesos_tend6 Master_fechaalta_tend6 Master_cconsumos_tend6 Master_mpagominimo_tend6 Visa_mfinanciacion_limite_tend6 Visa_Fvencimiento_tend6 Visa_Finiciomora_tend6 Visa_msaldototal_tend6 Visa_msaldopesos_tend6 Visa_msaldodolares_tend6 Visa_mconsumospesos_tend6 Visa_mconsumosdolares_tend6 Visa_mlimitecompra_tend6 Visa_fultimo_cierre_tend6 Visa_mpagado_tend6 Visa_mpagospesos_tend6 Visa_mpagosdolares_tend6 Visa_fechaalta_tend6 Visa_cconsumos_tend6 Visa_mpagominimo_tend6
feature_infos=[31116053:214033382] [202101:202107] [0:1] [18:99] [1:482] [-245888.218771154:919246.15789644199] [-1044919.34756506:9704898.6834034193] [-99224.436553530802:673734.010504512] [-215597.773467338:212860.48805977401] [-32752.580348694999:353664.512150775] [3:18] [1:2] [-1149059.4280262799:13936203.8980041] [2:9] [-7355.4307838517598:19634332.784605399] [-47182.898420940299:60082443.840512097] [0:1] [-1198133.93360051:87492314.994282603] [0:12] [0:151] [0:773400.91523663804] [0:3] [0:527] [0:2303698.2623586399] [0:209] [0:2051845.45167187] [0:422] [0:4952649.8157706801] [0:37] [0:8864140.9774067793] [0:94] [0:45421103.580119997] [0:39063823.038244903] [0:85845610.540474296] [0:3] [0:7] [0:8] [0:164] [0:27167463.513031598] [0:259] [0:13346371.2481612] [0:49] [0:332706.74623097898] [0:111] [0:127583226.997664] [0:94623.862189797597] [0:17] [-12785.8592922724:5848.9022805545701] [0:256] [-99224.436553530802:673734.010504512] [0:1418] [0:142999350.495125] [0:365] [0:137254678.84605899] [0:172] [0:3551388.65947593] [0:31586597.190245699] [0:1] [0:104] [0:1] [0:4073] [0:1] [0:19] [0:191] [0:172] [0:3551388.65947593] [0:3180] [0:1] [0:9] [0:249078163.36839601] [-2914178:6546] [-834478.88469192397:3294566.1969061401] [-834478.88469192397:2834263.9890775401] [-33066.3951117201:2026735.8838436201] [-3:3381] [-2325321.2650605799:15511.377642986101] [0:10543.934706300601] [1:7724] [0:186] [0:1757470.0799902501] [0:9] [0:108265238.49943601] [-2914237:3043] [-875963.93622816296:5200634.8660783404] [-805403.60277799401:6100344.6933713602] [-1033965.24474934:1315211.1767861799] [-36063.785090630801:2130023.6212826101] [0:13624.654607741601] [785.40132045344899:22355913.546643101] [-3:2812] [0:2084386.76035405] [-1723175.4732265901:719405.07184894604] [0:7977.1871856527496] [1:12706] [0:205] [0:5339874.8895404898] [0:1] [0:4] [18:99] [1:481] [-250548.09:919246.15789644199] [-976959.88370077696:10429387.845677501] [-82121.276545402594:783107.82221397304] [-224582.92999999999:274875.62047125801] [-37886.669999999998:341614.62284488301] [3:18] [1:2] [-1246600.5256559199:12027300.15] [2:9] [-13314.1879524947:12935396.388054701] [-48116.2019054298:60494035.002602004] [-1146782.4706776701:83742578.128556907] [0:144] [0:700810.65000000002] [0:376] [0:1605428.2511413901] [0:5121039.90936164] [-457939.75823100901:8999104.4700000007] [0:103621588.624153] [0:7] [0:8] [0:209] [0:52494324.729999997] [0:13760108.757216999] [0:525263.30000000005] [0:273682.77890766802] [0:25744220.902758699] [0:30] [-13220.5785078347:10213.5336809948] [0:249] [-82121.276545402594:783107.82221397304] [0:6779.1027825839501] [0:1484] [0:178492539.05847201] [0:408] [0:137254678.84605899] [0:172] [0:3016273.8117332198] [0:68] [0:3936] [0:26] [0:172] [0:238460.79379562999] [0:3215] [0:92] [0:469958798.80829298] [-2914209:6515] [-723701.67670112604:2749970.54200861] [-686473.36264589301:2681872.79] [-39120.955520746298:2829546.3212893102] [-3:187] [0:2269709.5642916299] [-1831137.5382253199:83139.720000000001] [1:7693] [0:253] [0:1604954.69500354] [0:108265238.49943601] [-2914268:2131] [-892416.81385207502:4285581.1594913099] [-686160.81298389903:4921179.5309804296] [-33773.384900716301:1455542.6116668] [0:9001.8296221257897] [809.74876140885306:22947436.078985099] [-3:156] [0:2722561.71] [-2699883.1200000001:33930.288016999999] [0:11579.625660059301] [1:12676] [0:258] [0:2500250.0676712901] [-2:2] [-778401.84472209797:705423.84817544604] [-1206910.66742095:414413.7042023] [-781998.78071863705:661911.59238754399] [-282965.38371581899:182911.19474045601] [-135448.575380002:165414.468467211] [-5:4] [-6618608.17913114:7326031.3876964301] [-8915679.5052191205:10796902.7555985] [-1106524.8437453499:1056181.95123117] [-16533485.6694942:19238203.981692299] [-30872988.8985781:56874944.179691397] [-81:80] [-331584.83069652499:436998.16664339002] [-2:1] [-294:405] [-1421338.5950990999:1452102.0995359099] [-1:1] [-114:44] [-1104404.2281303001:4003422.790488] [-44470013.958926603:42547253.580119997] [-33883308.796793804:9801274.9543933906] [-52494324.729999997:26563259.2530316] [-2778535.30808332:6679782.63878706] [-436868.76950956299:269723.33139509999] [-273682.77890766802:135246.242366363] [-78:83] [-18421343.8160748:127486914.41843501] [-28:16] [-15337.4665532567:12861.9623067632] [-187:79] [-781998.78071863705:661911.59238754399] [-293:334] [-142802193.78777:142999350.495125] [-113:99] [-131758032.46786:137254678.84605899] [-90:103] [-1:1] [-60:95] [-1:1] [-1772:1321] [-1:1] [-25:15] [-90:103] [-1323144:2143126.4640850802] [-39:45] [-188159.06961848101:329666.853960765] [-415:306] [-91:1] [-465017804.600034:245786691.98681301] [-2163:61] [-2103798.0316965501:1965300.7398424] [-2096470.3021223401:1751286.0282100199] [-2334124.2739574201:1731186.4491668199] [-3159263.5816583899:1036671.31448786] [-28:31] [-2019440.62535763:1704812.3773866999] [-74:57] [-1387881.8700000001:1268695.9083472199] [-107112511.71252:107047882.502195] [-1933644.57756808:1621565.4503703101] [-2268165.0843569501:1313403.2549741] [-1420167.05135846:1403608.65508049] [-9001.8296221257897:12289.0547877467] [-2626548.6449684598:8533156.0309872199] [-28:31] [-2722561.71:2084386.76035405] [-1537550.06668464:2699883.1200000001] [-137:114] [-2268156.48031114:1017256.26776173] [0:4] [18:99] [1:480] [-250548.09:515688.49596999999] [-903473.22929424106:10568997.0276825] [-89120.539999999994:450981.14776999998] [-224582.92999999999:204996.65664140601] [-39056.344340000003:441151.53883999999] [3:18] [1:2] [-1012879.70202209:17616047.56927] [2:9] [-3376.8344626049702:16248901.9111109] [-49158.397045988997:70135540.930368096] [0:1] [-1085101.9401322999:89416848.689999998] [0:11] [0:145] [0:728891.68192124995] [0:570] [0:2807408.59553] [0:386] [0:5331002.5458015101] [-526895.83938915003:9164894.6054599993] [0:8] [0:108] [0:24876493.879999999] [0:214] [0:14186672.1289778] [0:41] [0:394557.10274055297] [0:111] [0:34392952.026953503] [0:18] [0:82880.860320077802] [0:15] [-12785.8592922724:5284.4327590027597] [0:239] [-89120.539999999994:450981.14776999998] [0:1129] [0:106590163.85421699] [0:418] [0:37537786.39689] [0:172] [0:2903836.6469546999] [0:1] [0:4124] [0:27] [0:172] [0:2903836.6469546999] [0:2910] [0:56] [0:249078163.36839601] [-2914237:6485] [-707754.03690223896:3294566.1969061401] [-707754.03690223896:1969313.6885599999] [-30506.875180823601:2026735.8838436201] [813.07426114731595:23751379.009596098] [-3:4891] [-1871403.2482405801:18915.583056078998] [1:7663] [0:158] [0:1355635.3522143201] [0:96895453.222278401] [-2914299:4598] [-900437.93307804305:3901780.5032438198] [-572350.96803303401:4417195.1789265899] [-1082990.2904263099:1337478.3799999999] [-81420.344791745694:2797722.2999999998] [0:15842.540000000001] [699.42538999999999:23609328.4539955] [-3:4485] [0:2831539.9588500001] [-2965533.5127507602:87349.797290000002] [1:12645] [0:249] [0:2027307.6299999999] [-1:1] [-2:2] [-342022.93934525398:672217.47445930901] [-2095689.53197548:734602.56489970104] [-292166.45271295297:668557.11795872101] [-222199.295742652:193449.412766769] [-243833.19422000201:199813.58580528901] [-8:4] [-11314040.4446242:9108814.6137997899] [-4:4] [-15702144.029363699:11411619.071672199] [-48952176.541546397:31493214.3528849] [-1:1] [-33019000.504470401:58759708.149930499] [-4:5] [-82:99] [-491569.38274436397:414738.12377609202] [-2:1] [-565:430] [-1503326.00216425:1266321.7800199001] [-1:1] [-280:174] [-114:78] [-990723.56999999995:4003422.790488] [-50:56] [-24876493.879999999:26799266.0752616] [-55:45] [-8404573.9830966201:6676593.7620556904] [-364115.87661659397:269726.13271233998] [-113668.846785313:107834.415688308] [-86:84] [-34321475.701131299:120730838.19320901] [-15434.6341032567:15743.1299039653] [-190:86] [-292166.45271295297:668557.11795872101] [-248:450] [-40902099.6202868:142999350.495125] [-123:155] [-33737753.084094398:137254678.84605899] [-1216401:2878666.5029314202] [-1:1] [-72:101] [-3041:1892] [-1:1] [-14:17] [-27:25] [-43:191] [-49:44] [-773:623] [-246505126.39067101:245679341.04004699] [-2132:762] [-3163344.6079657702:3155316.4873275599] [-1737113.0882262699:1948177.7490775399] [-1882179.03367828:1889517.1907218799] [-3245440.9077918702:1023668.51754343] [-25:62] [-1981296.5418563101:1675092.79705162] [-10543.934706300601:10543.934706300601] [-106:68] [-1355635.3522143201:1561180.7559863899] [-95885200.712539196:107050710.842172] [-2913903:2913875] [-95:62] [-1594116.2416537299:1794183.5740449801] [-1869898.34459426:2099130.4197029602] [-1505326.5669917599:1235794.1429779499] [-11535.704700885401:13184.5084767797] [-2725947.6783905299:9676919.4251400009] [-25:61] [-2535877.60327252:2084386.76035405] [-1533781.75689427:2058275.3696952399] [-145:142] [-1368113.59784624:1489751.2849039901] [-0.5:1] [-2:2] [-0.68571428571428605:2] [-79583.814870551607:71012.674863167107] [-639652.15947528998:210409.22042408999] [-64303.422679385199:79015.289130664503] [-55120.796411191899:29408.2334071351] [-71534.793703234202:59972.959129919102] [-3:3] [-3168797.5358358501:2040737.16199128] [-2:2] [-3602017.1222039:2231818.7110715802] [-7551251.2687234702:9477594.1627649497] [-1:0.40000000000000002] [-8133143.7857128903:10484471.139771299] [-2:1.1428571428571399] [-47:46] [-240200.40295156499:167849.19901493] [-80.914285714285697:76] [-597964.58439766197:394312.47026534] [-39.914285714285697:34] [-363164.82586956298:326060.33836577099] [-25.8571428571429:36.257142857142902] [-213756.71156196401:1108412.08657711] [-5856304.7990564601:9872269.9442938399] [-7462757.7601439003:4024716.7283671098] [-1:1] [-1:1] [-8.8571428571428594:41.371428571428602] [-7510477.2550657103:5210643.1557970503] [-11.171428571428599:61.171428571428599] [-2824977.38256178:3491395.8468981399] [-5.6285714285714299:10.9142857142857] [-67931.547680141099:45204.228751692201] [-6:7] [-27131.185668964899:25417.461054480598] [-25.457142857142902:15.800000000000001] [-3275752.7841149098:17786298.557095598] [-10494.392139174601:13517.694598542501] [-8:9] [-5729.0437843825503:2912.4047556386199] [-73.900000000000006:25.342857142857099] [-64300.278669905798:79015.289130664503] [-5:4] [-2.05714285714286:2] [-8167.3899896404901:3662.77419399155] [-5:3] [-461.15106535148999:586.324198929413] [-90.342857142857099:84.771428571428601] [-7960042.5949056:71499675.247562498] [-17:37.714285714285701] [-8056771.1481858902:68627339.423029497] [-26:43] [-493363.66366187501:570252.68001374905] [-4009938.8755231402:2977723.3189218198] [-1:1] [-60:21] [-1:1] [-2174.9428571428598:303.28571428571399] [-1:1] [-12:5] [-6.28571428571429:5.3142857142857096] [-3:3] [-20.1428571428571:27.285714285714299] [-23.8857142857143:43] [-493016.12051901798:570252.68001374905] [-26:33] [-318850.92557910603:239480.15691259201] [-357.19999999999999:395.88571428571402] [-298.48571428571398:1] [-1:1] [-9:9] [-14593099.9480434:39518578.362025797] [-2163:445.19999999999999] [-476935.41866961401:704582.68243340997] [-476935.41866961401:1004144.84707407] [-815202.74924379704:325630.36874117597] [-825676.92316318594:429882.00623742299] [-771635.51940969296:335618.17387470999] [-302.57142857142901:184.40000000000001] [-709141.69378624903:419310.57723835501] [-1364.88571428571:310.10000000000002] [-61:43] [-187513.81256234:422167.13696696499] [-19277224.920446299:15294411.787336901] [-748891.54285714298:873618] [-34.285714285714299:31] [-658530.34631407296:819528.19202438998] [-772456.09318951005:899768.26865999796] [-599615.01248142996:201836.965024987] [-724944.68799205904:383624.18564987998] [-7859.9652280601404:2486.7159396554898] [-695762.22582419601:2241718.9975627498] [-316.07142857142901:602.142857142857] [-534695.970729411:295969.88818230102] [-707795.642882274:634280.03352569405] [-2161.6908638621198:2435.7416836287498] [-1848:867.42857142857099] [-48:54] [-277948.21500000003:708953.53721072699]
tree_sizes=10530 11338 11647 11419 11339 11473 12017 11710 11389 12331 11825 11961 11846 12645 12226 11612 11915 12105 11525 11870 12335 12083 11885 12205 12329 12559 11982 12238 12098 11771 12575 11972 12299 11973 11953 12096 12330 12355 12020 12230 12070 12118 11763 12140 12372 12913 12473 11984 12471 11766 11806 12212 12347 12281 12205 12569 12351 12024 11977 12904 11846 12392 11922 12731 12510 12304 11691 11980 11618 11899 12557 11754 11675 12246 12238 11881 11773 11925 12116 12341 12414 11993 11817 11664 12609 12232 11647 12237 12241 12240 12941 11788 12439 12039 12366 11779 12016 12499 12232 11952

Tree=0
num_leaves=96
num_cat=0
split_feature=66 143 17 111 17 84 116 38 84 9 14 224 315 17 349 399 6 9 278 6 102 277 7 201 104 245 9 235 107 398 232 172 116 71 128 101 78 92 124 172 207 53 101 260 76 53 260 306 44 278 394 135 290 258 57 292 210 313 20 152 22 468 484 193 17 27 485 266 78 122 1 75 468 328 260 294 393 154 423 408 219 462 247 70 219 246 418 162 462 441 353 286 86 145 73
split_gain=33831.8 15185.1 14886.9 4356.42 2273.36 1541.33 1387.98 1245.03 1110.95 788.469 751.904 550.436 285.879 254.531 273.952 229.789 201.384 199.452 107.464 104.456 70.1949 58.5104 57.0159 45.4811 45.3682 54.4476 44.3999 40.4509 34.1976 31.7737 25.2341 23.5794 18.9281 18.7411 15.7752 11.6396 10.0997 5.83262 5.70009 5.23287 4.5523 4.12797 5.39214 3.22622 3.10029 2.7507 2.71741 2.32297 2.26548 1.60278 1.65407 1.58603 1.51862 1.3678 1.33845 0.91137 0.829281 0.933879 0.772829 0.685913 0.657574 0.601741 0.563653 0.351533 0.337578 0.436197 0.444964 0.447075 0.364197 0.32772 0.268187 0.548494 0.238931 0.232135 0.227656 0.22242 0.244603 0.357736 0.172065 0.149516 0.14336 0.135548 0.104989 0.150555 0.0824038 0.0724914 0.0680851 0.146264 0.0439962 0.0410268 0.029995 0.0152178 0.0075692 1.13687e-13 5.68434e-14
threshold=39.500000000000007 13.500000000000002 1.0000000180025095e-35 -3400.0727903465245 29837.039218342154 4510.1116036817657 18406.091053716355 14288.889162116202 8911.7221949297418 126.19406043078051 5796.2874789344305 -10621.914985183497 33.500000000000007 23163.865044440205 678.09194918497712 -3.3277351744639998 12920.446759916302 769.43375595793509 610.33924974669515 8528.2229505879277 988.35695495029609 7.5000000000000009 709.38007550377563 637.24190678179912 598.48363090218413 607.20113728300009 691.84479025867506 22.500000000000004 -57.795548719592496 -1.0000000180025095e-35 -1291.2733292966548 1.0000000180025095e-35 22681.812536481055 643.21865680500912 840.57273442455164 10094.006579316103 20.500000000000004 159.02868410920101 1268.3778828034701 -743.44674647167983 1.0000000180025095e-35 10308.716891097902 13212.509643590953 2589.6024600000005 16.867141073011002 1.0000000180025095e-35 21885.960521524506 1292.9813413791803 3516.3423228612205 353.73384685720004 -116.25821354724998 12653.568228145903 75.500000000000014 7065.874396366341 1.0000000180025095e-35 62020.680703691753 -3.4999999999999996 -60396.11234643474 2990.1382697572353 -29896.772894951097 12.500000000000002 1.0000000180025095e-35 241.83207708624153 -1.9747492001895 77341.775841207666 34756.368976999605 -964.96828338147293 89102.283714055317 3.5000000000000004 117399.96308761001 202103.50000000003 -1738.2796075480098 -2890.9942230039496 -3.3295095923000093 21885.960521524506 10727.206224973552 -82.139163466389434 26.500000000000004 -7.9317167466940441 -0.27142857142857141 -8520.5817749610032 -4827.0040165957389 553.03463315617012 -1154.9999999999998 -5002.6002147470144 -1820.6244004083198 -0.12857142857142848 271325.18297863705 -6938.3861352095291 8818.816681346043 -1.0000000180025095e-35 22.500000000000004 478.67761602933155 783118.13421250053 505.58083250791509
decision_type=2 8 2 10 2 10 8 2 10 2 2 10 8 2 10 8 2 2 8 2 8 8 2 10 8 8 2 8 8 10 10 8 10 10 10 10 8 8 10 10 10 2 8 10 8 2 8 8 2 8 10 10 10 8 2 10 8 8 2 10 2 8 8 8 2 2 8 8 10 10 2 8 8 10 8 8 10 8 10 10 10 8 8 10 10 8 10 10 10 10 10 10 10 10 10
left_child=1 2 3 -1 5 6 11 8 9 16 -4 -3 -13 14 21 19 -2 20 -17 -7 -11 22 -10 -16 25 -15 -6 34 -29 -23 -19 -22 33 35 37 -31 -24 47 -35 -27 41 42 -26 -28 -41 -40 -44 52 53 50 -39 -32 -9 -43 58 -56 80 -58 61 -34 -57 70 -48 -59 65 66 67 72 82 -69 78 -72 84 -70 -73 76 85 -78 -49 -79 -50 -62 83 -66 -60 -68 87 -84 -67 92 -81 -87 -88 -94 -90
right_child=7 4 10 -5 26 15 -8 27 13 17 -12 12 -14 24 23 18 -18 30 -20 -21 31 29 36 -25 40 39 43 28 -30 32 51 -33 59 38 -36 -37 -38 49 45 44 -42 48 46 -45 -46 -47 62 54 56 -51 -52 -53 -54 -55 55 60 57 63 64 -61 81 -63 -64 -65 68 88 75 69 73 -71 71 74 -74 -75 -76 -77 77 79 -80 90 -82 -83 86 -85 -86 91 89 -89 94 -91 -92 -93 93 -95 -96
leaf_value=-2.0051208004985472 -3.9366191382184939 -3.4050171407696403 -3.774522077543236 -3.1132830101663957 -4.3696134560935755 -3.9699301792139394 -4.2266980144028015 -4.5229452573221618 -4.3454897262030547 -4.2368397280367676 -4.251712988748352 -3.6547522519743936 -3.9631494303855384 -4.3888125498288693 -4.348615932562387 -4.1623291285747923 -4.2154652510312456 -4.4151020772384379 -4.3487995721626858 -4.1787438901462828 -4.4068717836476479 -4.4176959163087401 -4.4937266857890545 -4.2080296629586282 -4.4991830414224037 -4.5285506098798809 -4.4548157672943232 -4.4179047548893058 -4.5267290438687677 -4.4169031771892122 -4.4802193319886676 -4.3076128186508997 -4.5403005060884123 -4.4718188788954532 -4.4958427531123668 -4.4772121209891438 -4.434240301589865 -4.5128054086059324 -4.4961616229167101 -4.5095002978795486 -4.499044353243157 -4.5169922471049553 -4.5132613008312292 -4.492051967990724 -4.4719789521031039 -4.5261597234214319 -4.5348330585178829 -4.5470326936644527 -4.5462262611163666 -4.5467026770618464 -4.5354315196435095 -4.5071228722390018 -4.544939464442729 -4.5367577161375259 -4.5323358250767685 -4.5393380851249976 -4.5500189929692008 -4.5397789658505525 -4.5480389608370615 -4.5230709656452861 -4.548215507846006 -4.5363702204421195 -4.5494720200999552 -4.5281095699236067 -4.5475180132035051 -4.5522330190881535 -4.5495927979264792 -4.5442825207449271 -4.5525721822823746 -4.5545207565495591 -4.5522427330548076 -4.5371939249618158 -4.536032295493273 -4.542895275120701 -4.5458925266476164 -4.5553969361003102 -4.5423004293721867 -4.5462230600643734 -4.5545964286146265 -4.5508642265783594 -4.5532050092340528 -4.5553969361003102 -4.5553969361003102 -4.5544287666178027 -4.5421280769988464 -4.5553969361003102 -4.5541023174752553 -4.5486267337165902 -4.5553969361003102 -4.552697078119059 -4.5543040921738474 -4.5531339547673211 -4.5553969361003102 -4.5553969361003102 -4.5553969361003102
leaf_weight=177.80944231338799 130.50519367493689 121.16631219908595 179.47154615819454 150.23522644862533 171.2566775996238 116.96919594146311 141.5061810426414 116.71808604337275 167.45416241511703 189.76703504659235 131.21069156937301 155.43677987530828 124.0720074865967 120.96303244493902 104.04303530417383 119.8748914655298 109.19675891846418 176.02775798365474 173.8036453705281 103.77996834740043 122.40990140102804 156.2379380390048 108.09665996953845 107.29550124518573 169.79785084351897 146.731649806723 108.45538785867393 100.27639281004667 195.54255312494934 130.18233823217452 100.76665417291224 99.666555520147085 100.36009589768946 108.7662853281945 134.8338426835835 168.59013376571238 166.31819072552025 138.73201868124306 127.88647992163897 102.3330991063267 102.16569278761744 145.96636373363435 122.25445259362459 105.23879473656416 99.893749736249447 155.46069425158203 147.3534447401762 108.68258209526539 132.16729892790318 104.55721177905798 159.35887025669217 100.43184148147702 188.34408082813025 178.8258351162076 137.96673257090151 169.82176598347723 112.68837646394968 106.7095789052546 102.95489403046668 112.48509736917913 126.58310199715197 111.48065936751664 102.2852686997503 133.25544010661542 134.6066483296454 143.65854783169925 104.41372063569725 122.68492599204183 107.27158586680889 172.91878310032189 192.13463847152889 133.17173692397773 101.71130414493382 121.19022660143673 143.46722632274032 221.64598323404789 173.52862047404051 115.60602967441082 189.26481563597918 100.27639272250235 138.2417572401464 115.2712170034647 161.17642468772829 156.48904740065336 114.18307586014271 139.04291611164808 117.02898348681629 134.27183566614985 222.05254146829247 168.35098176635802 138.6363578774035 133.90115020796657 802.54595439881086 105.33445545472205 116.80178917944431
leaf_count=14870 10914 10133 15009 12564 14322 9782 11834 9761 14004 15870 10973 12999 10376 10116 8701 10025 9132 14721 14535 8679 10237 13066 9040 8973 14200 12271 9070 8386 16353 10887 8427 8335 8393 9096 11276 14099 13909 11602 10695 8558 8544 12207 10224 8801 8354 13001 12323 9089 11053 8744 13327 8399 15751 14955 11538 14202 9424 8924 8610 9407 10586 9323 8554 11144 11257 12014 8732 10260 8971 14461 16068 11137 8506 10135 11998 18536 14512 9668 15828 8386 11561 9640 13479 13087 9549 11628 9787 11229 18570 14079 11594 11198 67116 8809 9768
internal_value=-4.40203 -3.8394 -3.22445 -2.51263 -4.11188 -3.99703 -3.81879 -4.50291 -4.44387 -4.3043 -3.97605 -3.67473 -3.79165 -4.48191 -4.43875 -4.18489 -4.06365 -4.37741 -4.27269 -4.0681 -4.3045 -4.46148 -4.41516 -4.27724 -4.51777 -4.47641 -4.42709 -4.54463 -4.48984 -4.48078 -4.457 -4.36232 -4.49169 -4.47952 -4.54713 -4.45093 -4.45767 -4.54821 -4.5013 -4.50677 -4.52998 -4.5321 -4.52155 -4.47315 -4.49097 -4.51262 -4.53177 -4.5494 -4.53813 -4.53056 -4.5249 -4.49365 -4.53652 -4.52787 -4.5501 -4.54299 -4.54348 -4.53864 -4.55086 -4.53119 -4.54656 -4.54677 -4.54083 -4.5333 -4.55171 -4.55042 -4.54931 -4.54603 -4.55313 -4.55027 -4.54828 -4.54602 -4.54209 -4.54744 -4.54171 -4.5511 -4.55004 -4.54794 -4.55184 -4.5507 -4.54979 -4.55164 -4.55386 -4.55123 -4.54493 -4.55299 -4.55438 -4.55232 -4.55445 -4.55489 -4.55286 -4.55429 -4.55525 -4.5554 -4.5554
internal_weight=0 2080.29 638.727 328.045 1441.56 1056.61 542.181 11602.1 4803.58 1028.77 310.682 400.675 279.509 3774.81 1713.18 514.428 239.702 789.07 293.679 220.749 411.843 1501.84 441.869 211.339 2061.63 469.922 384.951 6798.49 295.819 1059.97 377.226 222.076 903.731 690.886 6502.67 298.772 274.415 6367.84 392.113 348.958 1591.71 1489.55 541.691 213.694 202.227 283.347 371.893 5965.19 947.855 402.648 298.091 201.198 305.062 324.792 5660.13 549.643 623.062 352.653 5110.48 212.845 411.676 878.202 249.639 239.965 4232.28 2224.02 1741.5 614.453 2008.27 295.604 766.721 468.774 318.849 228.462 276.639 1127.05 905.405 528.047 297.947 354.519 270.409 241.854 1779.8 291.096 217.138 377.358 1488.71 295.448 482.513 1193.26 238.913 272.944 1024.91 907.88 338.854
internal_count=1144240 173972 53416 27434 120556 88363 45342 970268 401718 86035 25982 33508 23375 315683 143271 43021 20046 65989 24560 18461 34442 125597 36953 17674 172412 39299 32193 568550 24739 88644 31547 18572 75578 57778 543811 24986 22949 532535 32792 29183 133113 124569 45301 17871 16912 23696 31101 498862 79268 33673 24929 16826 25512 27162 473350 45966 52106 29492 427384 17800 34428 73443 20877 20068 353941 185992 145640 51386 167949 24721 64120 39203 26665 19106 23135 94254 75718 44160 24917 29648 22614 20226 148843 24344 18159 31558 124499 24708 40352 99791 19980 22826 85712 75925 28338
is_linear=0
shrinkage=1


Tree=1
num_leaves=101
num_cat=0
split_feature=290 38 27 104 321 430 461 80 23 121 245 38 59 9 412 365 316 8 238 310 14 22 167 388 71 109 12 245 14 365 217 57 244 75 158 410 189 40 91 101 488 280 76 359 388 91 388 40 49 20 387 44 84 181 485 278 17 404 245 55 145 217 75 380 320 158 398 282 300 169 293 69 60 244 20 116 8 23 69 375 40 401 57 78 286 380 366 421 370 394 380 51 175 285 266 252 17 244 192 178
split_gain=8143.06 2689.45 1664.05 1603.89 1025.39 765.369 686.662 550.759 450.023 444.36 272.793 254.666 199.666 188.694 162.66 140.78 139.579 131.773 122.962 107.101 95.8332 64.0803 63.1271 62.6142 54.5837 42.3496 37.8888 33.8782 32.9914 41.3531 25.5654 19.1049 18.0542 16.0268 15.205 14.1205 13.8938 9.74193 9.71949 8.10672 7.28738 6.9978 8.51128 3.77012 3.36191 3.10386 3.10309 2.56324 2.29661 1.96231 3.02908 1.92602 1.91118 1.78244 1.55417 1.37352 1.34221 1.29537 1.08245 1.07128 0.969005 0.855746 0.846239 0.801313 0.70545 0.566883 0.473178 0.530959 0.981716 0.531732 0.719053 0.450989 0.324854 0.248029 0.228905 0.2252 0.258509 0.422784 0.181822 0.152814 0.209633 0.140464 0.131772 0.129063 0.110637 0.108368 0.0875919 0.0810247 0.0887156 0.0706931 0.0737281 0.180185 0.110212 0.00761874 6.08329e-08 3.66322e-08 2.58871e-08 1.38082e-08 3.6047e-09 4.07482e-10
threshold=55.500000000000007 1.0000000180025095e-35 17615.617106294354 136.64498867458352 705.69243066437514 182.26692672897704 0.82142857142857162 1.0000000180025095e-35 7622.4276634205553 1.0000000180025095e-35 776.8662984626751 61742.080766046602 1.0000000180025095e-35 86.790757267071015 0.64285714285714313 -20.499999999999996 538.32692995491618 -533.00096803448992 10.500000000000002 1371564.0535103653 13166.768175700601 2.5000000000000004 946.50000000000011 -1.0000000180025095e-35 5220.9174587915613 4626.5643605252662 -742.61598474409493 1144.7025735490154 35326.83557748836 -16.499999999999996 -6.4999999999999991 1.0000000180025095e-35 10392.59931396815 -1738.2796075480098 20315.090788683705 1.0000000180025095e-35 -5485.3283513992037 396.54725138986959 -6755.8462477259445 14867.825024787702 -0.167109634551495 3488.5611379028505 2.8437077190525004 16.500000000000004 -7.4999999999999991 -18922.242463089096 -5.4999999999999991 2858.2758542561005 912.43810133886507 16227.830907036752 -2886.9732461082399 4097.0108872561259 28385.331460369154 -17244.543149462297 -1.0000000180025095e-35 249.19048098174403 77341.775841207666 3966.0435163435209 686.71331708188006 18512.465057452955 159882.84551739102 -3.4999999999999996 -589.82086947550886 -2581.0328652930898 -522.77619651534735 30223.759981317104 -0.15714285714285697 93571.630471036711 1408.5000000000002 1033.0278582005101 -1763.4999999999998 199741.02556132051 40.500000000000007 26583.088290401603 4814.5740559690057 1.0000000180025095e-35 -2140.7680632297197 29775.563058208452 163978.72655488702 -1.4999999999999998 56.451654710703501 -1824.1765663022597 1.0000000180025095e-35 28.500000000000004 18.500000000000004 -3523.0747625610443 -9836.4532082755031 4.7027725297598559 -226.49210455379497 -116.25821354724998 3107.3882927865402 53326.504435815754 -245.47421883845647 1.0000000180025095e-35 79716.595697333672 58897.107385095755 65501.084545540703 13570.688385641803 -1.0000000180025095e-35 6201.8616969956256
decision_type=8 2 2 8 10 10 8 8 2 8 10 2 2 2 10 10 8 2 8 8 2 2 10 10 8 10 2 8 2 8 8 2 10 8 8 10 10 2 10 10 10 8 8 10 10 10 10 2 2 2 8 2 10 8 10 8 2 8 8 2 10 8 8 8 10 8 10 10 10 8 8 8 2 10 2 10 2 2 10 10 2 10 2 8 10 8 10 10 8 10 10 2 10 10 10 10 2 10 10 10
left_child=1 2 3 4 6 7 12 11 -7 -9 17 13 22 15 19 -2 -14 -5 26 -4 24 30 -1 -19 -10 -3 -12 -22 29 35 -15 37 -28 -33 -17 39 -11 41 -34 -23 -32 42 -31 49 59 48 51 54 53 50 -43 52 57 -30 -39 -47 -57 -13 -52 -27 -58 63 -29 -50 -46 83 71 69 -69 70 -68 -48 -63 79 75 76 -71 -78 -53 80 -72 -70 87 -49 -82 -74 -66 88 -76 90 92 -92 -90 -91 -89 98 -96 -94 -95 -98
right_child=5 25 14 10 -6 8 -8 9 20 36 18 46 16 21 -16 34 -18 23 -20 -21 27 28 -24 -25 -26 44 32 62 45 31 40 33 38 -35 -36 -37 -38 47 -40 -41 -42 43 -44 -45 64 55 66 65 61 -51 58 78 -54 -55 -56 56 60 -59 -60 -61 -62 72 -64 -65 86 -67 67 68 81 74 73 -73 85 -75 82 -77 77 -79 -80 -81 84 -83 -84 -85 -86 -87 -88 94 89 93 91 -93 97 95 96 -97 99 -99 -100 -101
leaf_value=0.11153548072677257 0.12214146289587788 -0.053847697426635144 -0.033743751594058007 0.060834593258071598 0.55080017222142941 0.28873184053146383 0.38356476425295394 0.31999527744013767 0.122384203898821 -0.093440765200946227 0.064499961657094332 -0.11247791415411021 0.33029730658018486 0.0030960002379332944 -0.11207088376555162 -0.033374623439955654 0.1768666809955127 0.27784914856336623 0.15292226604580578 0.10029328790427126 -0.00046096660319102398 -0.015389408445715774 0.19212256963699645 0.15037246892073766 -0.021713138056473593 -0.10590032356429083 0.021370363784615813 -0.11781701066374793 -0.10822118001396802 -0.11203966300890976 -0.054523588759820711 -0.11046857341699889 -0.064146411505886555 -0.027632764058481432 -0.10422862524897322 -0.1042023282647179 -0.015008574657220731 -0.12906185181439578 -0.010497824583626572 -0.066840659012356196 -0.099774255741803333 -0.12962160509977821 -0.052445837020641449 -0.092304747097669199 -0.14276228110474845 -0.10356852147732928 -0.13574135976806351 -0.12923060790706792 -0.12278792862399655 -0.13444450483061446 -0.092151830377167371 -0.14177023946010908 -0.14467151982154675 -0.13380115042835641 -0.10356806525541602 -0.11044636870935026 -0.12074813633100358 -0.13454367894246039 -0.11140582862442282 -0.12527860395272036 -0.1397722262863593 -0.13860542061875952 -0.097401435063410785 -0.14082082974700103 -0.12666924019328538 -0.1454185050836419 -0.13361097943875899 -0.12984009997255891 -0.15174979266579053 -0.15138001885055791 -0.14809485707420295 -0.14826771839272226 -0.14310438123249489 -0.15224125437048341 -0.14733656211177404 -0.15201144476503539 -0.13437055269051726 -0.14847915377141829 -0.15000269055415047 -0.14982632597548662 -0.13678736780074213 -0.14455949748280983 -0.14690548674067769 -0.13672335583000308 -0.14404580152990759 -0.14959048721800972 -0.13294039209981884 -0.15311008497593678 -0.14732689574238542 -0.15158351282281468 -0.15194554696872381 -0.14366949493849476 -0.15310781317845804 -0.15310739245717889 -0.15310718674409224 -0.15310468756284129 -0.15310471884656876 -0.1531055908463137 -0.15310873252684243 -0.15310428741394777
leaf_weight=428.14667899999768 145.13961235899478 251.49806376826018 283.30801955331117 176.16987086646259 311.10486760176718 147.18556433543563 667.9250779626891 115.52499873749912 138.42910900805146 93.662393579259515 146.57096867635846 145.03743441402912 338.09867155645043 137.44114468619227 273.4379565063864 185.25543672032654 227.80568499676883 197.99869384150952 143.72704945504665 264.68674984294921 106.0682216193527 161.49083537515253 465.96743718162179 159.8541438030079 106.97207989450544 157.80816566664726 141.85009802319109 94.159719022922218 107.89172383304685 110.34921649284661 183.72228345088661 102.73361708968878 200.09468999598175 112.13498016446829 111.28691590111703 98.888524372130632 116.11911608837545 125.41237124428153 126.53837105724961 124.47910147812217 147.1075204545632 173.30559972953051 109.70353778917342 159.17221986688673 184.05801260098815 94.641446851193905 139.56643294729292 94.721297892741859 104.78851357195526 137.24885356985033 106.60898069292307 106.63992629293352 125.55551448557526 148.72308892291039 97.615382044576108 113.3724520644173 121.47906066663563 105.48548781778663 180.51256985682994 111.93382385093719 124.3934727916494 156.22615517955273 92.282489692792296 122.91040169354528 101.32915134262294 155.86988377105445 100.97962867841125 97.651347963139415 111.36347067169845 87.385800916701555 150.86516951024532 125.1259027030319 90.534239660017192 174.34924166556448 157.53198199812323 137.35214437823743 96.975417355075479 98.051431934349239 145.75163733493537 138.31611892953515 92.810898751020432 141.7432229751721 170.65898980293423 119.1498654615134 100.29522587452084 170.4590118099004 103.19095473270863 88.007276462391019 104.85754306335002 99.448436263948679 130.53593750670552 112.37056748196483 169.10813071765006 96.55984375346452 142.43984251003712 126.79383516125381 109.28334804996848 103.43179665692151 88.132841845974326 93.025037399493158
leaf_count=8898 9754 15071 16133 11439 10112 10808 14560 7641 11445 8320 9136 13574 13512 11498 4870 14668 11742 11653 7385 8105 9306 14222 15219 10485 8938 11639 10621 8610 10150 10003 15356 9359 16610 9967 10047 8987 10212 11412 8713 11162 12843 15739 9774 14487 15697 8748 13478 8625 9889 12587 9564 10170 12098 13993 8843 10397 11314 9763 15939 8883 11616 14727 8397 11618 8429 14367 9729 9422 10755 8421 14542 12083 8568 16838 15242 13231 9326 9444 14004 13344 8957 13686 16384 10689 9690 16128 8746 8500 10150 9623 12637 10870 16355 9341 13781 12286 10589 10017 8519 9016
internal_value=0 0.131078 0.178597 0.221568 0.293881 -0.100369 0.256319 -0.112154 0.0539851 0.081378 0.0851399 -0.119433 0.198108 -0.0940912 -0.0166271 -0.000123501 0.268534 0.168099 0.0267541 0.0309974 -0.0102473 -0.104485 0.153533 0.220905 0.0595712 -0.106733 -0.00272907 -0.0688213 -0.111481 -0.0998947 -0.0518273 -0.109609 -0.0237625 -0.0672385 -0.0599648 -0.0548511 -0.0500267 -0.115409 -0.0433628 -0.0377855 -0.0746449 -0.106111 -0.0823302 -0.113026 -0.126937 -0.130025 -0.146106 -0.130732 -0.135169 -0.118544 -0.113804 -0.136286 -0.129415 -0.123046 -0.117904 -0.119807 -0.124084 -0.121769 -0.104257 -0.113942 -0.130373 -0.139993 -0.107712 -0.132522 -0.135957 -0.138469 -0.147828 -0.148319 -0.142744 -0.148978 -0.145513 -0.141663 -0.14407 -0.147344 -0.150164 -0.146979 -0.144532 -0.141464 -0.146524 -0.145573 -0.143863 -0.147723 -0.15091 -0.133405 -0.140557 -0.147341 -0.129833 -0.151331 -0.150685 -0.151197 -0.150176 -0.148117 -0.151501 -0.152738 -0.153107 -0.153107 -0.153106 -0.153107 -0.153108 -0.153105
internal_weight=0 5463.1 4553.29 3731.85 2439.05 9658.66 2127.94 8973.56 685.097 325.307 1292.8 8648.26 1460.02 4434.77 821.433 441.682 565.904 534.023 758.781 547.995 537.912 3993.09 894.114 357.853 245.401 909.818 615.054 292.51 3524.82 2169.4 468.271 1784.54 468.483 214.869 296.542 384.858 209.782 1569.67 326.633 285.97 330.83 976.901 220.053 756.848 658.32 1355.42 4213.49 592.769 901.533 597.676 460.427 628.47 376.078 256.615 223.028 453.886 359.245 250.523 287.122 269.742 245.873 644.918 186.442 227.699 388.578 369.741 3585.02 3320.32 350.758 2969.57 757.616 264.692 417.219 656.637 2211.95 419.765 282.413 195.027 252.392 482.287 343.971 253.107 1792.19 213.871 193.106 260.993 204.52 1621.53 1188.77 1031.24 620.304 242.907 377.397 410.935 432.756 311.487 344.748 272.54 184.693 202.308
internal_count=1144240 257658 189193 160085 74043 886582 63931 829078 57504 26173 86042 802905 49371 397040 29108 34469 25254 33577 52465 24238 46696 362571 24117 22138 20383 68465 45080 26313 322874 195726 39697 161355 35944 19326 24715 34371 18532 142029 25323 25384 28199 88093 19777 68316 53394 127148 405865 53936 85073 53829 41242 59609 35435 24143 20255 42075 33327 23337 25503 20522 22930 60930 17007 21507 32872 33681 346256 320695 33863 286832 73100 25561 39423 63371 213732 40422 27191 18770 24174 46533 33189 24441 173310 19314 18647 24696 17175 156926 115040 99798 60029 23507 36522 39769 41886 30146 33386 26372 17860 19605
is_linear=0
shrinkage=0.151508


Tree=2
num_leaves=104
num_cat=0
split_feature=66 429 16 250 430 17 38 245 153 84 262 9 278 477 365 9 59 9 374 301 245 394 247 109 80 168 480 95 330 81 308 268 244 17 91 304 116 42 40 316 116 22 252 59 42 40 91 104 100 66 458 374 44 313 441 59 278 469 42 320 280 60 384 242 42 123 116 8 468 241 468 72 146 57 374 135 142 5 145 70 67 319 161 210 152 377 280 375 285 175 55 15 60 371 162 377 122 38 17 20 20 147 231
split_gain=6896.91 1577.44 765.562 726.735 520.45 440.67 403.952 340.493 282.228 225.923 195.847 192.149 149.032 137.215 118.685 102.012 87.4557 67.0821 54.0732 51.168 43.1263 41.7518 38.622 35.4775 35.0042 30.8294 28.0729 19.5632 21.6084 14.6589 13.6766 13.2293 12.7653 12.3801 11.617 8.68296 8.63102 8.46301 6.04994 6.59884 5.47966 5.26752 4.9641 4.80567 4.11054 4.01554 3.95582 4.16425 3.73179 3.1396 3.06395 2.8871 2.8177 2.31684 2.21569 2.05541 1.83281 1.56688 1.53953 1.26692 0.952063 0.940316 0.908217 0.744048 1.03081 1.05727 0.974074 0.867173 1.10639 0.547731 0.369762 0.368802 0.563849 0.35926 0.328494 0.319845 0.307608 0.772003 0.299598 0.284838 0.263043 0.236104 0.123754 0.211783 0.224011 0.122426 0.111716 0.0967298 0.073407 0.0631038 0.0814869 0.183047 0.0373806 0.0345028 0.0157159 0.0277651 3.8226e-06 1.07657e-06 6.85089e-07 3.32321e-07 1.10127e-07 4.21499e-08 7.97229e-11
threshold=47.500000000000007 0.042857142857142858 1.0000000180025095e-35 -3031.5299999999993 39.150638852917758 5371.6186839264356 35022.892371544811 1380.6243299544401 602.50000000000011 10427.741346034652 101404.10334915303 769.43375595793509 885.39342483641019 1.0000000180025095e-35 -12.499999999999998 622.31499951654303 1.0000000180025095e-35 443.80042747578506 134.78407212407504 24.500000000000004 776.8662984626751 112.12937945590251 380.84022857475503 7924.9072914596009 8.0000000000000018 3.5000000000000004 1.0000000180025095e-35 562.96295001702003 8274.8965741062821 83246.659766334764 16125.229925489002 92.902415000000019 8937.5377382139359 5371.6186839264356 -9440.4910782073475 -1261.9999999999998 60115.578775135305 2584.3648598365603 208.191323207571 2409.0131783146003 27098.037770394756 5.5000000000000009 21951.713408300853 1.0000000180025095e-35 4274.7258424429356 4054.2322849258258 -5419.8615798917444 93.702980737595013 2143.4898353514754 117.50000000000001 -1.0000000180025095e-35 -42.009141890904992 1545.6069017767952 -30263.458296023393 184.63123917188102 1.0000000180025095e-35 1270.3924050000003 1.0000000180025095e-35 3826.6182508346305 -250.99155886346597 93166.281828914012 27.500000000000004 -13584.089961598 125.50000000000001 541.88637222066916 4841.3635416628704 1.0000000180025095e-35 -533.00096803448992 -3854.6589640052248 64.500000000000014 -10167.379412931998 1433.5012431639102 -1445.9999999999998 1.0000000180025095e-35 -0.18026642808249996 35051.229382463505 17034.377752339602 794.84338593360815 60012.329170575955 -788.99999999999989 1.0000000180025095e-35 411.76004804543004 0.85482355655050013 35.500000000000007 -2622.5519830135595 -9362.2572527675093 93166.281828914012 14.500000000000002 1.0000000180025095e-35 119.12278669165501 20349.858144335256 7.1103774010140013 68.500000000000014 -19254.225913419494 198553.51500048002 -8267.4875626763533 88947.321094778614 113675.9755956095 65501.084545540703 19635.870522237656 21626.125452884105 8246.9014788372824 1.0000000180025095e-35
decision_type=2 10 2 10 10 2 2 8 8 10 8 2 10 10 8 2 2 2 8 8 8 10 8 8 8 8 8 10 10 10 8 10 8 2 10 8 8 2 2 8 8 2 10 2 2 2 8 8 10 2 10 10 2 10 10 2 10 10 2 8 8 2 8 8 2 10 10 2 8 10 10 8 8 2 10 10 10 2 10 8 2 10 8 10 10 10 10 8 10 10 2 2 2 10 8 8 10 2 2 2 2 8 8
left_child=1 2 -1 -3 6 10 9 11 -5 14 13 19 -10 16 -2 18 29 20 37 -6 31 -20 30 35 46 55 -18 28 43 -4 -16 61 38 -17 -24 -7 -26 -9 39 -19 49 -34 -29 -25 -35 50 63 -48 -36 58 52 -41 -43 54 59 -15 -40 62 -22 -49 -46 -11 -52 64 65 66 67 81 -69 73 -55 75 -73 76 -47 92 82 -78 -74 -75 -72 85 83 84 89 -8 -80 -82 -89 90 93 -92 96 -65 95 -84 -66 -96 -95 -91 -98 102 -99
right_child=4 3 5 8 7 23 24 15 12 17 -12 -13 -14 25 22 33 26 32 21 -21 40 -23 34 27 36 -27 -28 42 -30 -31 -32 -33 41 44 48 -37 -38 -39 56 51 -42 45 -44 -45 60 74 47 53 -50 -51 57 -53 -54 70 -56 -57 -58 -59 -60 -61 -62 -63 -64 69 71 -67 -68 68 -70 -71 80 72 78 79 -76 -77 77 -79 86 -81 87 -83 94 -85 -86 -87 -88 88 -90 99 91 -93 -94 98 97 -97 100 101 -100 -101 -102 -103 -104
leaf_value=0.22346232855333506 0.095750177619000038 0.10819523927426759 0.10362199015032904 0.20450018964743108 0.088542441311636952 -0.023752417797993482 -0.14637558824909078 -0.036639781684553736 0.464813281677395 9.3099196240883377e-05 -0.046396029146107971 -0.047143047017382582 0.31746392302441662 0.0013881622610673898 -0.02080133021324931 -0.061527728821044521 0.19284134057606231 -0.044914036841372802 -0.019996546895395678 0.21386332619484402 -0.082031699884154069 0.1089861503271335 -0.040428166401552494 0.0041020968056888936 -0.045217857165474197 0.074174487611138942 0.12787713828604561 -0.066217457404424182 -0.086060430667621396 0.067541571702143602 0.044892578068919047 -0.059142028169980966 -0.088635303760102507 -0.10307474910262074 -0.07531859485430889 0.025009114590969741 -0.11073526121345226 -0.099418012792478 -0.10172796872856252 -0.075743635345300556 -0.12138468299339249 -0.090619389700515127 -0.10961691879361184 -0.033637644071633443 -0.12407263505117046 -0.14804550517516463 -0.10393935631583509 -0.12265709310751553 -0.11643983870210552 -0.1005432685875914 -0.12785105677404454 -0.11407201519456578 -0.1240358209966935 -0.1356685967920695 -0.10915257134389017 0.021385295361596827 -0.13186573464205875 -0.11497714751581128 -0.056153294350402484 -0.14758915360299543 -0.14254700149682079 0.021659171560794947 -0.14503261746232032 -0.14916371121872687 -0.15292534608009009 -0.15290113944889058 -0.14785978755770163 -0.13800864127635892 -0.11493487396453261 -0.13721180627282295 -0.13909968263784889 -0.13503733084865413 -0.14008248286120351 -0.14933708570327625 -0.1379285704536948 -0.14396872277812894 -0.13312530887591756 -0.15288926109496698 -0.15290181256104601 -0.13761544963602004 -0.15291787316851341 -0.13339835279803605 -0.14899589333965008 -0.14301290149478782 -0.14405906537670116 -0.13837427958675752 -0.14600653606119454 -0.14360428869428216 -0.14941252357977022 -0.15289808631711257 -0.1425124652942858 -0.15162671781768813 -0.14930717657230094 -0.15291030146664825 -0.15290502129349662 -0.15290151118799519 -0.15289569230370745 -0.15288477404142595 -0.15289200707942219 -0.15288769580652606 -0.15288783373224621 -0.15288924844572624 -0.15288498958189636
leaf_weight=621.72306187916547 200.42088244017214 516.34904295578599 537.76807915791869 271.78730284702033 127.53659227304161 167.74293779209256 92.755394123494625 95.927072766236961 306.9842566754669 93.839472498744726 275.10752749722451 149.7750769359991 323.71206655353308 233.12021158263087 205.24507715459913 97.472660880535841 288.79103752970695 84.000935702584684 125.9910572366789 180.8142116041854 106.44337587617338 106.13894408289343 175.58357417304069 132.1015476025641 95.417947063222528 291.50324852764606 323.99055799655616 98.823791300877929 161.27893063053489 497.70572150778025 112.68195763137192 93.424906267784536 82.338557724840939 169.38374742865562 114.54381071962416 167.56478960160166 89.398430821485817 101.39256480056792 100.37948548328131 84.198617747053504 95.579148310236633 111.65106158237904 155.99642585869879 187.21491913218051 125.56679394934326 154.04938367567956 89.57089486438781 79.965253792703152 90.829691215418279 112.45921689923853 150.58803543262184 97.177737857215106 120.36464515700936 79.066808721981943 96.838934306055307 238.89721648674458 86.007343416102231 115.53991127945483 104.64968912303448 112.75040539633483 130.66251677647233 91.818545661866665 132.98900518659502 81.116651221178472 145.46990776062012 117.56406468525529 149.8079996118322 91.461452114395797 99.70342633780092 96.530701697804034 76.749597236514091 118.6986642209813 94.460388585925102 84.486372699961066 141.19689839426428 152.7149567278102 84.301938885822892 98.229486523196101 139.39863765239716 108.95927915349603 98.863792397081852 100.94395462237298 77.73670922126621 107.32412726059556 120.0280702104792 83.332270360551775 87.976896432228386 81.262649895623326 129.61803143471479 134.31568455789238 87.51448446046561 119.85458967182785 84.211597158573568 97.796139669604599 100.83314554020762 90.336412790231407 78.757234019227326 83.163932309485972 90.441107308492064 149.0815438888967 85.232338617555797 74.455683846026659 74.876351843588054
leaf_count=16155 15313 8275 11380 7805 9307 9600 10225 7959 10234 8384 10223 12972 11464 7979 15879 8965 12024 8142 10529 12341 9911 8256 14670 8977 8829 11032 10503 7859 12832 13569 7442 8705 8403 16332 10028 9302 8714 9480 10185 8185 9449 11346 13990 12793 12871 16406 9361 8453 8752 11119 15651 9833 12627 8686 10320 10285 8928 12005 9967 11985 13767 8344 13790 9004 15869 13031 16443 10029 10881 10655 8411 13104 10382 9225 15144 16965 9385 10974 15443 11996 10838 11121 8658 11947 13358 9125 9789 8856 14194 14916 9709 13376 9308 10775 11148 10010 8760 9319 10085 16673 9531 8317 8389
internal_value=0 0.112711 0.06773 0.251548 -0.0983494 0.041963 -0.113717 -0.0136865 0.333566 -0.0708331 0.0747159 0.0936447 0.389185 0.088531 -0.00703037 -0.0653079 0.113127 -0.097413 -0.0105873 0.16203 -0.0587855 0.0389794 -0.036505 -0.0402276 -0.14154 0.035434 0.158493 -0.0588497 -0.0408562 0.0862798 0.00248237 -0.012641 -0.11588 -0.110233 -0.0690419 0.000615395 -0.0769096 -0.0688983 -0.0947141 -0.0800204 -0.0895113 -0.125359 -0.0927858 -0.0180247 -0.121388 -0.128623 -0.144178 -0.134827 -0.0935051 -0.0800958 -0.121801 -0.0962792 -0.107955 -0.13849 -0.127849 0.0115091 -0.115635 -0.129849 -0.0692024 -0.137244 -0.133494 0.0107588 -0.135909 -0.146322 -0.144025 -0.139731 -0.137226 -0.133824 -0.125974 -0.14834 -0.145109 -0.147224 -0.143963 -0.148916 -0.143207 -0.149854 -0.149632 -0.143761 -0.147254 -0.142735 -0.14704 -0.13924 -0.150351 -0.149367 -0.150142 -0.142589 -0.150234 -0.149008 -0.147174 -0.151102 -0.150038 -0.14778 -0.152137 -0.151776 -0.15229 -0.151095 -0.152907 -0.152892 -0.152902 -0.152893 -0.152892 -0.152886 -0.152885
internal_weight=0 5798.16 4379.33 1418.83 9182.04 3757.61 7771.38 1410.66 902.484 3058 2686.88 458.126 630.696 2411.78 899.305 952.535 1648.26 2158.7 429.45 308.351 698.214 232.13 698.884 1070.72 4713.37 763.521 612.782 735.416 480.595 1035.47 317.927 279.083 1460.48 523.086 380.957 335.308 184.816 197.32 451.764 265.377 419.131 1008.72 254.82 319.316 425.613 926.379 4528.56 844.686 205.374 323.552 631.133 181.376 232.016 755.115 289.555 472.017 186.387 399.117 211.093 192.716 256.229 185.658 283.577 3683.87 1722.49 735.569 618.004 468.196 191.165 1961.38 465.561 986.921 440.535 1864.85 295.246 546.386 1671.41 182.531 321.836 193.446 386.494 277.032 1488.87 987.472 880.148 176.088 227.376 309.744 210.881 760.12 476.723 207.369 393.671 269.354 501.402 168.073 309.459 333.329 188.237 283.397 163.99 232.496 158.04
internal_count=1144240 216281 178503 37778 927959 162348 805180 122779 29503 288608 86995 34620 21698 76772 72084 88159 47476 216524 36224 21648 65879 18785 56771 75353 516572 29296 22527 56451 34602 24949 23321 25433 150645 51935 33450 18902 17543 17439 45273 26160 40446 105372 21849 21770 42970 96969 499029 91104 18780 30997 65419 18018 23973 81743 30758 18264 19113 41446 19878 20438 26638 16728 29441 407925 190006 80855 67824 51381 20910 217919 50985 109151 48718 207264 31550 60433 186043 20359 35614 21221 42299 30471 165684 109843 97896 19350 25232 33888 23050 84538 52949 23085 43468 29864 55841 18668 34160 37173 20860 31589 18291 26025 17708
is_linear=0
shrinkage=0.151508


Tree=3
num_leaves=102
num_cat=0
split_feature=23 38 66 412 461 430 16 430 122 102 488 9 17 447 245 4 8 244 98 17 95 244 145 12 107 217 278 27 84 17 162 38 192 69 8 17 301 325 57 280 173 156 252 42 468 371 109 6 470 247 300 104 268 310 115 371 398 411 99 156 462 375 441 20 78 280 152 40 55 473 262 168 135 255 241 462 258 464 482 159 308 234 462 382 209 397 406 300 181 407 320 77 100 366 266 77 293 297 113 382 107
split_gain=4101.74 1354.03 1254.89 973.784 784.033 368.611 300.826 249.873 321.831 196.065 127.778 124.27 113.954 100.185 84.3498 83.3982 74.4592 70.7056 65.5784 59.4121 46.1465 39.8426 33.0452 36.2827 31.8298 30.238 24.9411 27.7172 42.238 21.6617 21.0734 16.4163 21.2329 15.9154 15.9079 14.1002 13.7669 8.75252 8.10398 6.12541 5.26467 5.21488 5.10259 4.80596 4.79537 4.00317 3.0508 3.27844 2.06573 1.91913 2.49291 1.98451 1.80593 1.79476 1.59122 1.47752 1.30769 2.3601 1.17945 0.797 0.760286 0.72268 0.685179 0.648565 1.01629 0.988203 0.62735 0.413213 0.403736 0.380136 0.62874 0.347337 0.330944 0.313133 0.28015 0.337032 0.535967 0.250018 0.219541 0.201972 0.194251 0.361531 0.175333 0.169105 0.136938 0.125862 0.0755549 0.139924 0.169345 0.0625942 0.0299557 0.0264821 0.0248061 0.0117044 5.34471e-06 8.08289e-07 3.23205e-07 6.1913e-08 5.50737e-08 3.32413e-08 2.37763e-08
threshold=1202.7565036496001 35022.892371544811 47.500000000000007 0.12857142857142853 0.77857142857142858 71.650114971943964 1.0000000180025095e-35 312.63145542712954 15014.491079884103 674.80500000000006 -0.28474903474903496 392.34702420047955 8638.6929467642531 0.042857142857142858 533.64386251475514 21.500000000000004 -901.04691360473589 13570.688385641803 42.500000000000007 17643.009098650506 3013.1283739893206 8937.5377382139359 205932.99735851001 -52.909457251094487 -1981.7460755718898 -5.4999999999999991 781.6243546484601 6939.3348726559861 10427.741346034652 17643.009098650506 188307.09022080255 42772.214635765158 -30359.862743635847 110308.30985935802 -428.66482650445192 149133.15365951753 26.500000000000004 -64.903159417813995 1.0000000180025095e-35 14004.469307932752 -15.961638293774499 91471.068101491212 7889.6324582673506 704.8144869921631 -3488.1343327140899 -7413.5371525595046 29052.721400604703 8528.2229505879277 935.67987929381309 693.2994823736301 1230.5000000000002 268.40363842508003 1173.0098987420254 207400.31777825303 16592.631786998052 -13575.769969238498 -0.107142857142857 -233.52804990776647 12.500000000000002 102966.498679255 -5577.0600128869837 -1.4999999999999998 2868.8787368119451 25885.203259856655 1.5000000000000002 7825.8969199806506 -25139.718011460696 112.86891530454851 3422.4111733252503 9.8697705675550562 22812.819251522651 2.5000000000000004 21935.105000000003 83866.246806423966 48.500000000000007 -3139.3208994426345 16785.534694135105 -703.91163237038541 -9633.5930619905466 23631.844071065854 3831.4114975635653 -3282.6060991943996 -1279.8355281724346 1.0000000180025095e-35 1.0000000180025095e-35 5.2547222892081953 0.6714285714285716 2531.5000000000005 -376.65259722670493 1350.8939000400603 1.0000000180025095e-35 2111.5000000000005 2416.2011475700256 -20194.933070199495 71135.737125000029 1417.5000000000002 -1155.4999999999998 184992.57725852155 33757.780925711508 -1.0000000180025095e-35 -1.0000000180025095e-35
decision_type=2 2 2 10 10 10 2 10 8 8 8 2 2 10 8 2 2 8 8 2 10 8 10 2 8 10 8 2 10 2 8 2 10 8 2 2 8 10 2 8 8 8 10 2 8 8 10 2 8 8 8 8 8 8 10 10 8 10 8 8 8 10 10 2 10 8 10 2 2 10 8 10 10 10 8 10 10 8 8 8 8 10 10 8 10 10 10 10 10 10 10 10 10 10 10 10 10 10 10 10 10
left_child=1 3 5 4 6 12 -1 8 9 11 -8 25 16 15 -7 -12 -2 20 30 26 -9 -18 23 -20 -3 -4 -11 28 -28 -13 -17 32 45 -25 55 53 42 -26 41 -38 -23 48 -30 -27 -36 -10 47 -43 -21 51 -51 -39 -49 -31 -48 -14 57 -33 -58 -34 66 -29 67 64 65 -64 72 69 -67 74 73 -59 -56 -71 80 76 -76 -69 -65 -61 81 -60 -62 85 86 -73 92 88 -88 93 -80 -91 94 -82 99 -95 100 -98 -89 -79 -96
right_child=2 24 7 -5 -6 14 10 17 31 19 13 29 34 -15 -16 18 21 -19 22 38 -22 40 -24 33 37 43 27 61 36 35 -32 56 59 -35 44 -37 39 49 -40 -41 -42 46 -44 -45 -46 -47 54 52 -50 50 -52 -53 -54 -55 60 -57 58 71 62 79 82 -63 63 78 -66 68 -68 77 -70 70 -72 83 -74 -75 75 -77 -78 84 90 -81 89 -83 -84 -85 -86 -87 87 98 -90 91 -92 -93 -94 95 96 -97 97 -99 -100 -101 -102
leaf_value=0.22448964957080111 -0.054435102021184803 -0.022291103399625544 0.12036807826669767 -0.06084547318841816 0.38419464176180779 0.19186604995330903 0.20833814368995351 0.11977539146155554 -0.048362921005188818 -0.0032032569663884847 0.032907904217640387 -0.0054813390885395837 -0.11692212185437041 0.17317500158518168 0.077452185256477929 0.17290000227323615 0.071980810398202172 -0.067662506662643701 0.11938781601213094 -0.11912629105483763 -0.0073777052814579247 0.021919584031014877 0.039854239822285024 0.023204726690627002 -0.074752432909818312 0.0018423016233214593 0.035110015222329628 -0.11787289283719261 -0.082467129645496309 -0.044922846950727395 0.11635907981491682 -0.11271361051966265 -0.13041953780811827 0.089967950556063783 -0.033878979563283784 -0.11921667654166029 -0.019774401388898757 -0.10003901612354946 -0.083187978352769212 -0.071448077329948859 -0.011921240220258344 -0.096249288863023266 -0.12345863463296228 0.045465289899876839 -0.072280420013215593 -0.09448544100006151 -0.12018944827033623 -0.11590863471977449 -0.08673157660517436 -0.10876855833162444 -0.14372055801310721 -0.12446304955786223 -0.14268394938434076 -0.073428808387614911 -0.14848205328760114 -0.091322556138556818 -0.12871823570070173 -0.13353670189285791 -0.15029460276360124 -0.14210894587531706 -0.14323311149961501 -0.13564015473518568 -0.11982188039602319 -0.14155007641765466 -0.15125785218731513 -0.13111784163557952 -0.12616349162626919 -0.14304116411525442 -0.14458069628621306 -0.13174260275729555 -0.15271611870095084 -0.13655047576942608 -0.13495027862066586 -0.14373127621673032 -0.14642984557263158 -0.15106605190995365 -0.13054535257585351 -0.15274380819154912 -0.15270944810707412 -0.15283933725147955 -0.15042773188477851 -0.13712026122988899 -0.15278878682399208 -0.14904936154371431 -0.14433090323403014 -0.14589727475509012 -0.1509286506488475 -0.15270291196023505 -0.14117360581410821 -0.14619674003952604 -0.14875802158448828 -0.15042337309874831 -0.15032474303004337 -0.15273213720701345 -0.15271330110006914 -0.1527132519617195 -0.15270495521547275 -0.15269930169744098 -0.15269699858255256 -0.15273906268456819 -0.15270929894295188
leaf_weight=642.49314497597516 270.42822233494371 116.04830054892227 114.99315676465631 576.41478258837014 302.92152229789644 254.08820261433721 276.23436633590609 128.38199821859598 82.558165603782982 113.93123324448243 489.3075784156099 112.77854067739099 107.48324279859662 371.98954074084759 353.95333165116608 297.38453939091414 393.55674345418811 183.85969004686922 605.28708259668201 80.60379689745605 133.79874215926975 210.67852598894387 303.57718560658395 162.84262060374022 138.75049381656572 107.1102753081359 87.467104895971715 116.05073912581429 152.45459927711636 120.41623975103721 308.0604166360572 75.747986700385809 107.73966467194259 165.02087624184787 175.47003815788776 139.26522828964517 88.567534195259213 180.80833203485236 121.62539196899161 129.87824319628999 211.42682040762156 112.11225353460759 128.42681441456079 126.366883312352 129.90614213608205 90.60166379949078 124.83166959183291 130.75129292625934 102.82970475312322 78.871804651804268 115.34460916789249 132.19738672813401 103.67030072584748 87.569892774801701 69.952354045119137 99.813385407440364 88.280935396905988 78.938050460536033 124.59395763929933 84.075650861021131 110.75645643472672 96.038878715131432 82.910834492649883 81.5101372692734 104.17613180540502 84.142906723544002 119.48295540641993 109.70598076237366 130.33338831970468 122.73923770198599 76.29316483065486 65.600313963368535 101.95428546890616 84.39785413723439 120.21772241266444 91.566494539380074 82.031454032752663 68.712586734443903 103.40980104077607 77.271983542945236 66.231302217114717 77.590643750037998 73.213251290842891 124.03810599399731 72.291100405156612 66.689838922116905 84.8381283339113 72.859753389377147 78.782915989868343 69.692713806871325 76.70670427987352 66.493476023897529 127.17882124474272 82.085036578588188 65.658914418425411 142.04685443360358 73.206988645717502 113.25183995254338 71.760230649262667 66.845503142569214 70.834061861038208
leaf_count=13532 13845 10991 9031 13861 4726 7315 10181 8971 9030 9761 13058 10574 9192 11005 14052 9656 15462 16573 12258 8816 11422 9719 10658 8808 13912 8279 6741 11696 15831 12072 7736 9660 12024 8231 13536 15381 8336 16000 13381 12921 10209 11963 13948 10440 9949 9660 13625 14093 10853 8857 13192 14043 11670 9302 8317 8467 11016 9972 15779 9387 13235 10297 10597 10508 13330 10674 14419 14081 16613 15528 9738 8364 12392 10839 15178 11647 10532 8592 13267 9041 8460 9719 8873 15855 9241 8529 10839 9392 10084 8883 9846 8577 16345 10352 8400 18171 9421 14637 9291 8391 9086
internal_value=0 0.0914227 -0.0752679 0.123039 0.150043 0.0248567 0.130461 -0.105512 -0.112657 -0.0751354 0.110186 -0.0114735 -0.01333 0.100158 0.125263 0.0885075 0.0144604 0.00437061 0.103276 -0.0989137 0.0548853 0.0373023 0.0832746 0.0974004 -0.0953471 0.0567743 -0.0695198 -0.0789774 -0.0620112 -0.0631709 0.144131 -0.141359 -0.113879 0.0568081 -0.0722036 -0.081907 -0.079024 -0.108472 -0.120348 -0.0504973 0.00496918 -0.124347 -0.10121 0.0254528 -0.0502148 -0.0724954 -0.128877 -0.117559 -0.100966 -0.117695 -0.129526 -0.110354 -0.12775 -0.0569249 -0.135413 -0.104596 -0.144887 -0.136867 -0.145974 -0.14051 -0.13941 -0.125918 -0.146491 -0.142204 -0.13838 -0.133869 -0.134596 -0.147737 -0.139299 -0.145811 -0.140958 -0.142324 -0.140457 -0.136627 -0.147302 -0.14344 -0.139987 -0.149895 -0.148074 -0.147248 -0.149107 -0.145239 -0.147036 -0.145031 -0.150674 -0.141262 -0.151186 -0.149266 -0.146232 -0.15094 -0.151027 -0.14826 -0.152197 -0.152197 -0.152716 -0.15272 -0.152706 -0.152702 -0.1527 -0.152741 -0.152711
internal_weight=0 5263.55 9512.58 4501.53 3925.12 2206.8 3622.2 7305.78 6859.74 2973.1 2979.7 808.5 1598.76 2703.47 608.042 2331.48 1086.09 446.04 1842.17 2164.6 262.181 815.662 1236.73 933.151 762.021 348.47 912.815 798.884 586.794 460.03 605.445 3886.64 442.247 327.863 512.673 347.251 499.327 645.973 1251.78 218.446 422.105 1130.16 280.881 233.477 305.376 173.16 946.725 346.534 183.434 507.222 194.216 313.006 234.422 207.986 600.191 207.297 3444.39 411.014 3033.38 269.087 475.359 212.09 2945.1 663.19 401.563 297.387 291.39 2281.91 214.476 1205.98 283.43 335.266 171.907 207.137 922.55 293.816 202.249 1075.93 261.627 161.348 628.734 202.185 183.97 256.328 966.221 132.29 893.93 308.241 163.621 426.549 180.117 136.186 585.689 290.363 458.51 224.132 322.952 186.459 144.62 135.558 136.493
internal_count=1144240 200705 943535 123710 109849 111746 105123 831789 794823 306247 91591 75079 90379 81410 21367 70405 49235 36966 57347 231168 20393 35390 39955 29297 76995 27750 89531 79770 57777 47329 17392 488576 49142 17039 41144 36755 51036 66004 141637 21257 19928 128256 29779 18719 23485 18690 108587 37726 19669 52092 22049 30043 25763 21374 70861 17659 439434 52380 387054 30452 57236 21993 376038 84835 51214 37884 35128 291203 27287 153403 36105 42720 20709 26367 117298 37357 25710 137800 33621 18428 79941 25498 22108 32748 123719 16893 114478 39606 20923 54443 23113 17460 74872 36983 58527 28523 41544 24058 18683 16983 17486
is_linear=0
shrinkage=0.151508


Tree=4
num_leaves=101
num_cat=0
split_feature=38 23 27 244 16 8 17 59 9 319 17 57 467 245 8 59 80 181 349 153 9 297 262 152 91 71 17 130 1 278 17 53 130 68 84 167 152 278 17 72 349 272 313 289 5 292 389 431 15 321 25 167 293 53 57 480 112 446 101 393 284 126 1 44 488 192 73 124 152 55 169 244 195 410 284 306 15 250 300 135 345 220 40 327 73 192 387 175 55 133 387 146 38 266 55 114 300 371 17 154
split_gain=3937.58 1670.41 832.762 477.997 293.648 210.466 196.932 247.148 139.757 110.34 95.8353 84.1264 84.0734 112.614 81.5973 81.1844 71.0743 51.8043 51.653 42.1207 40.0803 30.7821 24.7119 23.2278 23.1828 21.6995 20.8069 19.3856 15.5336 15.2961 14.0067 13.6687 11.5434 10.3926 9.98316 9.49425 8.86334 8.56826 6.48958 5.46182 4.89151 4.20099 4.45719 3.98262 4.69101 3.6776 3.41402 3.27532 3.18121 2.90395 2.05224 1.80204 1.7159 1.48582 1.33639 1.3122 1.10433 0.885397 0.873382 1.00982 0.777046 0.639825 0.63173 0.617097 0.609418 1.06427 1.13707 0.582731 0.522606 0.519588 0.429775 0.398726 0.516087 0.32026 0.399043 0.289721 0.217452 0.207434 0.354633 0.552927 0.178277 0.143803 0.136267 0.110485 0.107587 0.212834 0.129209 0.173141 0.0871002 0.077873 0.0363737 0.013495 1.78896e-05 6.78026e-06 3.12169e-06 5.76706e-07 2.47131e-07 1.46643e-07 4.38247e-08 3.91156e-08
threshold=1.0000000180025095e-35 2579.8202648036454 34756.368976999605 10392.59931396815 1.0000000180025095e-35 -428.66482650445192 55209.936725340158 1.0000000180025095e-35 166.70517120467505 -399.77460065718344 37443.127582357403 1.0000000180025095e-35 7260.4839059084961 248.05480974847603 -1392.1417032143747 1.0000000180025095e-35 6.5000000000000009 1373.8089449333602 174.59772212603502 602.50000000000011 498.60253547223653 207400.31777825303 10961.507174134453 -579.81489731925592 1.0000000180025095e-35 1.0000000180025095e-35 23163.865044440205 1369.1558067197552 202103.50000000003 885.39342483641019 125413.88189274601 4542.3356963529704 1618.7145766772703 1.0000000180025095e-35 5978.0635372652359 2560.5000000000005 -373.44861484372046 536.61816371807515 12609.223796770702 1433.5012431639102 -1.0000000180025095e-35 5144.5493970481757 -7934.5749999999989 7169.7814812441311 245.88257131396702 120506.22133342901 518.38022259145021 -0.107142857142857 9276.5078005711566 1.0000000180025095e-35 7829.2773660582416 633.50000000000011 -880.99999999999989 7182.1721799143806 1.0000000180025095e-35 -233.36524546138997 4.5000000000000009 0.12857142857142853 25912.931553247654 101.09404057920551 17031.263921272504 14221.904731604302 202102.50000000003 6255.2502767884007 0.57417582417582402 -3843.8167658763045 4205.8405524795753 3173.8977209834152 -1.0000000180025095e-35 1.0000000180025095e-35 2718.7931558402056 29903.864503096152 129.37820282887003 -1.0000000180025095e-35 13023.642164790601 31422.695564500402 7.1103774010140013 -662.09857499999987 770.50000000000011 31267.118487004405 -1.0000000180025095e-35 30.500000000000004 60.221990740120013 -3918.7619207900248 26578.472554618103 -3843.8167658763045 1128.9534360507703 -95.284415268497028 10932.567212496901 50227.143478464561 -2886.9732461082399 -425.49999999999994 87468.689218134925 89102.283714055317 2002.5294220895701 9.5000000000000018 2295.5000000000005 -10828.031654282498 17643.009098650506 41.500000000000007
decision_type=2 2 2 8 2 2 2 2 2 8 2 2 8 8 2 2 8 10 10 10 2 8 8 8 8 10 2 10 2 10 2 2 10 8 10 10 8 8 2 10 8 8 10 10 2 10 8 10 2 8 2 10 8 2 2 10 8 10 10 8 10 10 2 2 8 10 8 10 8 2 8 8 10 10 10 8 2 10 8 10 8 10 2 10 8 10 10 10 2 10 8 8 2 10 2 10 10 8 2 8
left_child=1 2 4 5 -1 10 7 19 23 -4 11 14 -9 -14 27 -7 18 35 24 33 25 -16 -18 -5 34 31 32 -3 -25 -12 -8 45 -22 -6 38 -17 -29 81 49 -34 -36 42 46 44 -26 -10 48 -27 -39 -2 -31 -45 -46 -43 56 68 62 71 59 60 -40 -55 80 64 65 76 -67 -63 -56 -68 -57 72 73 74 89 -65 -64 91 79 88 -42 -28 -76 -69 85 -80 94 -88 -79 -58 -82 92 -75 -73 -86 -96 -95 -97 -94 -98
right_child=16 3 9 8 6 15 30 12 20 -11 29 -13 13 -15 21 17 22 -19 -20 -21 26 -23 -24 28 43 47 37 36 -30 50 -32 -33 39 -35 40 -37 -38 41 58 -41 54 53 -44 51 52 -47 -48 -49 -50 -51 -52 -53 -54 61 55 70 57 -59 -60 -61 -62 67 63 75 -66 66 69 83 -70 -71 -72 93 -74 77 82 -77 -78 78 84 -81 90 -83 -84 -85 86 -87 87 -89 -90 -91 -92 -93 98 96 95 97 99 -99 -100 -101
leaf_value=0.21492415978851123 -0.084492908020470936 -0.010853994372187755 0.029003423582432516 -0.054147888559999843 0.054361130956509643 0.020560469160470052 0.038825318255537436 0.10435221525401596 -0.02992548897948822 -0.087563360901252218 -0.04289683232263182 0.13365964775624894 0.26881952695774841 0.15761222247431703 0.018316351795910079 0.1281266592569964 0.0070900059030365049 0.04756608138028369 -0.037862518334216215 0.11389239424006656 -0.036281905223443128 0.10629511908837527 -0.090548081869880878 -0.016393160222126318 -0.067703671907463653 -0.070897344917968952 -0.077992851457299728 -0.098409061655487587 0.044894065987712339 -0.095032805998120279 -0.023736381553382643 -0.078441530200010018 -0.069935218136514848 0.082532016907880368 -0.11086869056965738 0.17589827028506513 -0.04417500872123143 -0.091863371882033848 -0.12747639347099488 -0.11463397079727156 -0.14213111514632079 -0.11622087250740555 -0.075632935386103536 -0.13858974011210762 -0.095192750469037454 0.0073491898261444383 -0.1399315543286119 -0.10773277666298914 -0.12842273807570517 -0.11906639366461925 -0.12723679728644363 -0.10890440790503907 -0.12418475406781347 -0.12641330256436392 -0.13303188676065641 -0.13506697225114128 -0.14483447522959081 -0.13282995444029091 -0.14547479099674537 -0.11717991135796156 -0.14606139919692865 -0.1297103293401474 -0.13785349859133952 -0.13941328480103515 -0.14629906902274131 -0.1435428637923373 -0.13047408025147197 -0.15052016513299724 -0.11366130844060161 -0.11339766370567983 -0.14961625157700742 -0.15258570471945282 -0.1336403873285531 -0.15262525551521069 -0.14188864371605553 -0.15110618897369638 -0.15015832540688157 -0.15060723516332042 -0.14090911570220463 -0.12967539702635009 -0.14808844237729446 -0.087226114056049908 -0.13174711969459946 -0.14253691972823321 -0.15259272414922609 -0.15104174085891281 -0.14123085332789759 -0.15111035550776861 -0.14345501202535341 -0.1525783413857606 -0.15285727533374041 -0.15002581871008666 -0.1525443708015371 -0.15254489474113633 -0.15256584303687187 -0.15254379882430369 -0.15253723949935077 -0.15255470037770461 -0.15253880133194808 -0.15253275075515996
leaf_weight=709.52747665066272 112.98235370358452 244.84246462816373 300.69720088178292 142.37147817155346 551.35415416257456 281.18460391368717 132.57784638367593 299.87051876960322 135.08122300356627 490.41426265193149 153.73480829503387 117.45009250892326 322.6510953726247 593.53629288543016 264.04909184621647 199.30463546654209 103.79960708739236 156.58293430740014 127.3354841703549 838.08630541013554 126.34586704848334 139.52460508607328 139.43244188604876 171.65798977855593 104.15846225293353 93.714818621054292 76.65754092624411 128.92142159119248 212.38050877209753 125.56424129195511 215.95370331173763 105.1573430551216 124.67891748761758 660.96448755078018 104.41586940316483 183.35014012083411 149.24769963650033 131.81558462651446 119.03217585617676 126.3337442073971 86.524156919214875 107.83956199325621 70.457150637172163 82.091329236514866 108.90403636917472 110.42851107660681 106.57857761485502 135.56751482095569 93.308434412349015 110.12010848848149 71.168868684209883 109.62632855447009 82.252816283144057 97.946558787487447 61.942794010508806 86.246013051364571 58.642371664755046 92.098320252727717 105.54820115491748 102.19895551772788 91.211812909226865 72.423578605987132 71.134800276719034 91.744287100154907 94.813078882638365 65.772610183339566 67.393566442653537 71.377966906875372 66.075648789294064 104.04831667337567 101.39538391167298 93.844954263418913 64.072205954696983 104.3442047922872 56.750047836918384 103.53269369667396 61.442921247333288 73.935744090005755 91.034904377534986 59.52171692205593 65.172324745450169 78.235922861844301 65.531487490516156 89.930806519463658 74.411608182359487 99.697374930139631 66.846459516324103 104.18109822180122 82.917757226154208 60.62510252231732 84.079310173168778 59.540208003949374 57.959271339233965 89.724442165344954 83.594431101344526 56.605323480907828 95.893389037810266 56.690848254133016 73.631818121764809 83.249704930000007
leaf_count=10035 10792 17260 7264 11566 10390 11772 8543 9790 10808 15740 15249 8635 8323 16360 15717 9573 8469 9882 11602 17241 11698 8199 14071 9975 6837 9501 8334 12763 11909 14391 14548 9873 12523 7957 12672 9581 11130 16483 14659 14744 12113 13758 7600 8288 11145 8579 13820 13167 11730 11790 8865 12294 8681 12812 8822 12021 8465 13415 14621 13523 12379 9371 9351 12926 13055 8708 8045 9772 9189 14069 14443 13496 9411 14618 8274 15120 8659 10191 13362 8562 8949 8493 9645 12284 10712 14617 9797 15259 11889 8771 11092 8671 8608 13315 12217 8414 14317 8357 10982 12482
internal_value=0 0.0397718 0.0996641 -0.0254834 0.12581 0.0256721 0.108319 0.11987 -0.0711658 -0.043257 -0.0101504 0.0128616 0.173985 0.196776 -0.00245026 0.0865609 -0.128642 0.120977 -0.132976 0.0877752 -0.0898332 0.0487326 -0.0488809 -0.00187783 -0.135761 -0.0564337 -0.103931 -0.0419447 0.0174998 -0.0787027 6.14509e-05 -0.0327362 -0.073632 0.0697201 -0.139689 0.151017 -0.0693105 -0.115404 -0.122423 -0.0924319 -0.143125 -0.121431 -0.110241 -0.104611 -0.0935723 -0.0131596 -0.117592 -0.092677 -0.107016 -0.101558 -0.106683 -0.121615 -0.107668 -0.13167 -0.144206 -0.13486 -0.145259 -0.147322 -0.133559 -0.129534 -0.135539 -0.136693 -0.140871 -0.138466 -0.135462 -0.132684 -0.126608 -0.141 -0.123034 -0.12011 -0.142929 -0.148058 -0.146934 -0.147549 -0.142535 -0.145613 -0.143556 -0.148606 -0.147404 -0.142108 -0.147603 -0.0826565 -0.136454 -0.146069 -0.149213 -0.146206 -0.15051 -0.147249 -0.146826 -0.148771 -0.150775 -0.152064 -0.152578 -0.152551 -0.152566 -0.152556 -0.152538 -0.152549 -0.152541 -0.152535
internal_weight=0 9810.85 5115.63 4695.22 4324.52 2214.93 3614.99 3266.46 2480.29 791.111 1394.5 1044.04 1216.06 916.187 926.585 820.422 4719.77 539.238 4476.54 2050.4 1953.88 403.574 243.232 526.41 4349.21 579.949 1373.93 523.012 384.038 350.468 348.532 350.667 377.359 1212.32 3862.17 382.655 278.169 996.572 641.094 251.013 3221.08 841.678 402.16 487.033 295.315 245.51 331.703 229.282 225.124 223.102 196.733 191.718 191.157 439.518 3116.66 315.66 2801 1905.34 417.991 312.443 210.244 331.679 895.658 659.882 464.605 369.792 237.214 233.732 128.018 171.442 187.641 1813.25 1450.53 1386.46 241.549 195.277 132.578 1144.91 849.437 216.375 235.776 154.893 122.282 161.309 633.062 190.732 442.33 171.028 156.854 119.267 149.252 295.476 235.935 362.712 271.302 196.891 268.868 113.296 131.591 179.143
internal_count=1144240 528008 126191 401817 103187 153017 93152 70061 248800 23004 112209 73704 34473 24683 65069 40808 616232 29036 593692 35588 215350 23916 22540 33450 582090 51928 163422 41153 21884 38505 23091 29260 38965 18347 534845 19154 23893 124457 77764 27267 457081 107630 49633 47245 26663 19387 42033 22668 28213 22582 23256 20582 19826 57997 444409 44475 399934 277847 55182 40561 27038 44239 122087 89933 61887 48832 30822 31427 18011 22114 26464 264432 210822 201411 35155 28046 18010 166256 123377 30642 32154 16827 17919 22056 92735 27979 64756 25056 22080 17236 20041 42879 34208 53610 39700 28988 40114 16771 19590 26799
is_linear=0
shrinkage=0.151508


Tree=5
num_leaves=102
num_cat=0
split_feature=14 80 122 66 27 245 16 430 72 59 95 320 262 27 22 278 167 16 71 40 31 12 244 95 244 430 430 93 251 192 314 130 17 130 388 227 485 234 259 6 397 408 53 38 419 419 104 268 226 104 44 368 98 233 321 485 167 84 327 219 145 88 446 126 143 330 152 292 148 89 348 432 181 255 384 244 69 53 438 457 411 330 325 282 319 146 384 407 407 270 192 100 78 186 146 44 313 76 86 268 467
split_gain=2966.71 762.53 603.162 436.723 492.625 369.419 353.443 143.398 139.414 140.632 105.919 97.0885 91.1764 80.7996 66.4169 47.4758 42.2309 40.1957 38.9488 40.8118 35.8799 33.8823 43.4524 27.9977 24.0797 24.0591 20.7957 20.5209 18.2987 25.1338 17.6236 17.3013 14.7126 14.255 13.4783 10.6807 10.2496 9.97539 9.48109 8.2858 6.90618 6.50726 4.43346 4.18078 12.2052 5.02423 3.8698 3.84119 4.4083 3.73421 3.11811 2.91702 2.78194 2.62009 2.46817 1.8951 1.84273 2.73929 1.71473 2.12744 1.28221 1.24895 1.21943 1.22515 1.15768 0.980649 0.918219 0.827919 0.822077 0.691671 0.667915 0.604272 0.509251 0.436468 0.62208 0.524841 0.381452 0.477947 0.948037 0.378975 0.657686 0.298023 0.251886 0.218307 0.199775 0.190296 0.176704 0.143314 0.0729185 0.108374 0.219712 0.0372976 0.0367096 0.0131994 0.00774471 3.04948e-05 3.49495e-07 1.3301e-07 5.0032e-08 2.38198e-08 1.83375e-08
threshold=4285.0192957086902 1.0000000180025095e-35 1.0000000180025095e-35 75.500000000000014 1.0000000180025095e-35 467.83279651769806 1.0000000180025095e-35 40.24384200345601 375.70503601928607 1.0000000180025095e-35 719.9999794754566 496.87183305759504 7450.5896562644512 45255.508120268758 1.5000000000000002 353.73384685720004 946.50000000000011 1.0000000180025095e-35 396.73983896711405 650.58306716884215 10456.664528971802 -2663.2943105257445 10392.59931396815 719.9999794754566 7553.7170463731009 312.63145542712954 3.6261873768636357 1899.5000000000002 2.5000000000000004 -55845.807848494493 1693.5000000000002 678.04960301462006 65501.084545540703 872.19630560573012 -1.0000000180025095e-35 -11.499999999999998 820.56447923232702 -3469.7186360459946 4.5000000000000009 7221.2992094221963 1.0000000180025095e-35 -1.1571428571428546 29219.910741606753 87468.689218134925 -15073.946002654897 -7977.7658833423748 268.40363842508003 2177.2937884722801 1323.3678636241953 1174.4467142489102 1545.6069017767952 9.9357747544255677 58.500000000000007 -2.9045719721299998 -22.438446135410448 94.222550608749614 946.50000000000011 7442.4556038476412 13948.338931920653 -7020.9496879865192 60012.329170575955 526957.25188870204 0.21428571428571455 5021.8632696702607 88.500000000000014 -17702.774429717196 -36735.147712721242 151675.09074022304 2495.3890410387453 3.5000000000000004 712.48837485781507 -24.653609399846498 -2334.7505728285946 49397.002220378658 -4834.191347150404 1.0000000180025095e-35 44123.323943743206 118464.47954874152 1.0000000180025095e-35 445.57687649694054 -32.616284294003698 -33921.048139815393 -481.80316085960044 93571.630471036711 654.3316072987601 -1034.4999999999998 -13584.089961598 2503.8845324340805 242.94831026998202 4685.431803560281 21623.781350162502 1708.4437261654753 18.500000000000004 4012.8717916227001 -714.99999999999989 1.0000000180025095e-35 -12038.061835528348 55.125824362119012 3045.1562708698152 2177.2937884722801 -61.187795998895943
decision_type=2 10 8 2 2 8 2 8 10 2 10 10 8 2 2 8 8 2 10 2 2 2 10 10 8 10 10 10 8 10 10 10 2 10 10 10 8 8 8 2 10 10 2 2 10 10 10 8 8 10 2 8 10 10 10 10 8 10 10 10 10 8 10 10 8 8 10 8 8 8 10 10 10 10 8 8 10 2 8 10 10 8 10 10 10 10 8 10 8 10 10 10 8 10 10 2 8 8 10 10 8
left_child=1 3 5 4 6 7 -1 20 9 16 18 15 21 -6 28 -11 -8 -15 19 27 23 37 31 39 -18 32 43 -7 29 -4 -10 -23 33 -12 -29 -27 -17 66 -35 -2 -25 -40 46 44 -16 -46 60 48 -43 50 -34 -20 56 -14 -50 82 57 -47 70 -60 -31 -19 64 -64 65 -45 -5 73 -49 -48 81 -54 -59 74 75 -58 -66 79 -79 83 -81 -51 -55 88 -67 -75 -82 91 89 93 -91 94 -77 98 95 -69 97 100 -78 -99 -90
right_child=2 -3 14 12 13 10 8 -9 30 11 25 -13 53 17 26 36 24 61 51 -21 -22 22 -24 40 -26 35 -28 34 -30 42 -32 -33 49 38 -36 -37 -38 -39 41 -41 -42 47 -44 62 45 52 69 68 54 58 -52 -53 71 55 -56 -57 67 72 59 -61 -62 -63 63 -65 76 84 -68 87 -70 -71 -72 -73 -74 85 -76 92 77 78 -80 80 86 -83 -84 -85 -86 -87 -88 -89 96 90 -92 -93 -94 -95 -96 -97 -98 99 -100 -101 -102
leaf_value=0.19393573145133594 0.065035066142282993 0.30459747193540693 -0.015625131123110605 -0.072393063669390648 0.020653170671707726 0.050111689768313629 0.022117031030255131 0.12722681261201804 -0.033084802979878918 0.12365243401336172 -0.047466887272705066 0.16152687467666429 -0.092812674554895655 -0.011856456596313993 -0.063864598320459209 0.031533476364166153 0.088890108685827737 -0.097671200271727182 -0.068158649028646975 -0.063956868844146836 -0.07139461368054599 0.10982858181201081 -0.047110081352496613 0.00076457020591958402 0.050230562965657428 -0.013672636101875463 -0.062193696743317706 0.021553697241180478 -0.020097867808272125 -0.082422030277353855 0.021405606202434785 0.018122222434189421 -0.081950287696507806 -0.052611446088477586 -0.047585324518465602 -0.081316513036671326 0.075106885512567403 -0.017558671556902342 -0.062052467775982945 0.020832541336761625 -0.0492207964239939 -0.12372383087280708 -0.078895424490008664 -0.11704943177033862 -0.096491893059660411 -0.10224202685588132 -0.13238869812740384 -0.11782163501017866 -0.072931836022953958 -0.13353226850518987 -0.11874044141744033 -0.1044631788471426 -0.10513981789565063 -0.14350540461039596 -0.10383572929018406 -0.11006839353260885 -0.11913943209669514 -0.12984071111358811 -0.099356221753705454 -0.13474792501774355 -0.10829643276077956 -0.081473282275177417 -0.14183003648851117 -0.11115958564908297 -0.1368621405995285 -0.14469274324644391 -0.096082491565552083 -0.15265407680680371 -0.13961522713758898 -0.11659760977371186 -0.12233770466944638 -0.12588091554634523 -0.147139387494711 -0.15061568380737747 -0.14801790757544053 -0.1334016825845048 -0.15240486703067616 -0.12455182290744278 -0.15031588818444816 -0.12919759772701772 -0.14310119742583416 -0.1469416426899843 -0.13026411642762187 -0.14222104300035493 -0.1332853566713702 -0.14046728637142603 -0.15239961795143797 -0.14291711412277458 -0.15240181232556035 -0.15072821365299541 -0.13858479818458805 -0.14766106027148876 -0.13853506463029688 -0.14962366625041174 -0.1506836725158468 -0.15250836971564094 -0.15240733726013597 -0.15239443661557048 -0.15239906479055396 -0.15239029330425824 -0.15239814221296683
leaf_weight=574.53312796773389 191.28499155072495 272.54415398323908 82.417032369878143 78.670141219161451 454.71510495292023 211.07133701117709 676.87463321490213 291.6805593278259 256.11670028185472 362.04172641038895 173.01733859209344 593.73193515324965 79.613043199758977 238.30864817742258 58.011712909676135 269.37256724108011 676.07918628910556 208.23616799898446 105.7644334891811 220.50674771191552 126.10872667422518 91.952026844490319 146.92528616264462 139.50206655822694 816.46458811312914 116.76910669263452 85.001389090437442 127.53413847833872 88.728893544990569 89.332264740020037 291.10575228370726 97.077265105210245 100.49253050377592 98.944459078833461 131.41652631899342 99.016228622756898 229.48715331126004 80.232167543843389 76.742539314553142 198.21589456498623 116.38170800916851 124.95072723459452 114.48830051161349 55.617137294262648 72.902448273263872 65.892489930614829 125.45025601610541 77.882934910710901 117.27919156523421 71.702979797497392 111.61398970428854 97.761867359746248 57.388862759806216 64.999182955361903 120.04271204117686 113.22680396074429 58.917370983865112 73.360341552644968 91.196503589861095 68.101734536699951 86.564008072484285 229.9139934652485 71.449814582709223 51.405943662859499 87.727307079359889 97.11023228848353 71.870838725473732 59.863257197197527 81.104789601638913 129.29423930449411 65.277170634828508 73.587729705497622 83.558554715942591 81.557413608301431 66.761071209330112 55.517458875663579 58.921246363781393 59.836308991536498 72.516033112071455 58.759050075430423 97.791730544995517 81.051359713077545 66.938264551572502 74.390716384164989 55.312729367054999 88.370413599535823 90.171341207344085 63.320036376360804 50.40579443378374 90.866455695126206 54.844171944539994 62.61696414090693 75.416030993685126 54.579065464902669 79.414240082725883 73.395617565605789 84.625362008344382 77.780436861794442 81.023707344662398 53.936830521561205 82.23069811752066
leaf_count=7442 9111 3767 9095 8660 13933 10494 12995 13406 9706 10653 16549 14696 7616 7409 8295 10975 13636 12401 8848 16021 10281 8598 15513 13030 15444 9900 9705 7639 9900 9146 14908 9361 12728 8905 9270 10188 7484 8399 9427 12621 11369 15708 14332 9165 10971 8970 16290 9685 13257 10793 15323 8386 8355 8668 13308 14678 9065 11270 14030 10267 8226 5364 11946 8667 14997 15763 8655 8889 11043 16399 10108 10891 12673 13193 10335 8823 10079 10241 12399 10061 16870 12164 8603 12731 9102 14367 15511 10189 8649 15698 9457 9992 11458 9388 12176 11705 14444 13455 13945 9373 14166
internal_value=0 0.0561281 -0.0819719 0.0461231 0.0611122 -0.0383766 0.0825276 0.0367333 0.0671828 0.0779459 -0.0694578 0.114394 -0.0526885 -0.0287354 -0.125808 0.0818882 0.0535068 -0.0619343 -0.0273492 -0.0101812 0.00252024 -0.0160093 0.0146941 0.0169633 0.0677422 -0.0919313 -0.136025 0.0150471 -0.0844993 -0.0936051 -0.00409756 0.0627322 -0.0989131 -0.0863915 -0.0135341 -0.044712 0.0515783 -0.0607067 -0.0960545 0.0425405 -0.0219699 -0.103243 -0.105395 -0.138257 -0.131727 -0.13503 -0.11244 -0.109307 -0.100691 -0.117394 -0.10131 -0.0855972 -0.137541 -0.116693 -0.0885637 -0.124448 -0.140292 -0.128166 -0.126435 -0.114487 -0.0951556 -0.0891715 -0.143485 -0.128997 -0.144723 -0.13427 -0.0837028 -0.143823 -0.128939 -0.124374 -0.135166 -0.116793 -0.139052 -0.139382 -0.135438 -0.131015 -0.14649 -0.147229 -0.138668 -0.148351 -0.143188 -0.140647 -0.136787 -0.150018 -0.140553 -0.145338 -0.147562 -0.149416 -0.15086 -0.149282 -0.146158 -0.150911 -0.136358 -0.151622 -0.151868 -0.152574 -0.152399 -0.152396 -0.152402 -0.152393 -0.1524
internal_weight=0 7041.03 7244.85 6768.49 5876.98 3632.42 4745.81 1063.17 4171.27 3624.05 2569.24 1454.63 891.505 1131.17 3612.43 860.901 2169.42 676.459 894.055 690.529 771.493 566.728 335.955 645.385 1492.54 1675.19 2896.16 470.022 716.275 627.546 547.222 189.029 1459.4 869.965 258.951 215.785 498.86 230.773 696.947 389.501 255.884 598.003 545.129 2811.15 1249.85 1191.84 430.641 521.26 362.273 589.436 212.107 203.526 1118.94 324.777 237.322 245.164 987.961 222.811 377.33 159.298 175.896 438.15 1561.3 122.856 1438.45 208.04 150.541 765.15 158.988 254.744 218.032 130.977 156.919 426.54 256.612 189.851 1230.41 1142.68 132.352 1010.33 246.722 152.754 131.937 763.604 152.423 169.928 187.963 338.61 689.214 340.235 145.711 275.29 130.933 194.524 212.673 133.259 348.979 264.354 139.945 131.717 132.636
internal_count=1144240 259564 884676 255797 157046 333859 117939 69818 110497 85883 264041 43808 98751 39107 550817 29112 42075 25174 60658 43424 56412 59186 33472 46131 29080 203383 467429 27403 83388 73488 24614 17959 183295 97882 16909 20088 18459 25714 81333 21732 24399 72428 64393 457724 191617 183322 50061 63001 42273 85413 28051 17234 172351 39565 26565 31949 153105 32913 57362 24297 17372 17765 266107 20613 245494 34030 17315 120192 20728 32689 33065 19246 23943 67241 39681 29346 211464 196467 22640 173827 42442 22957 17271 131385 24865 27560 32381 52951 118654 58567 25155 42762 20281 33412 32770 20594 60087 45643 24024 22828 22815
is_linear=0
shrinkage=0.151508


Tree=6
num_leaves=107
num_cat=0
split_feature=122 9 27 357 61 465 351 16 387 238 413 95 59 38 322 6 83 59 146 192 252 349 38 72 20 230 95 153 16 107 172 177 245 478 82 123 278 14 393 365 280 351 245 51 458 322 322 59 229 51 344 51 430 51 84 77 325 99 99 239 57 285 368 366 327 135 432 20 316 5 44 153 395 299 17 101 15 153 467 382 100 401 336 111 404 135 322 464 224 219 259 17 15 468 382 224 137 232 404 20 15 153 255 15 133 280
split_gain=2040.81 1031.1 577.01 584.462 234.896 173.214 161.18 105.772 103.938 88.3779 78.1695 63.0531 62.0799 55.2656 50.9829 39.5157 45.34 62.6483 44.1583 39.2425 37.1811 70.0081 32.1949 30.0309 24.7599 33.2383 24.4397 24.167 23.7803 21.1781 18.1388 16.9281 16.7617 14.8765 13.0236 11.5703 11.1723 8.80286 8.71682 6.90144 6.61286 6.57941 10.432 6.45702 6.9496 6.42016 6.47869 5.38007 5.28713 4.86816 3.99195 3.71606 3.4204 2.63185 2.54485 2.41402 2.25174 2.14924 2.08181 2.04152 2.0126 1.97781 1.40567 1.38553 1.68128 1.33491 1.27006 1.15394 1.22948 1.01455 0.838992 0.707057 0.661257 0.609512 1.0756 0.620506 0.588626 0.524974 0.52351 0.455128 0.346169 0.313905 0.261365 0.592829 0.595919 0.355829 0.235112 0.228238 0.181099 0.152846 0.301079 0.447162 0.210228 0.15269 0.140232 0.0873126 0.146168 0.0646079 0.0163076 0.0141109 1.26073e-06 3.38222e-07 2.80222e-07 1.393e-07 1.12694e-07 8.08778e-08
threshold=37119.335119848904 443.80042747578506 17615.617106294354 1.0000000180025095e-35 1.0000000180025095e-35 5.9900514366007753 705.32590220722102 1.0000000180025095e-35 1.0000000180025095e-35 -9.4999999999999982 -5724.4208658247744 878.80414769640004 1.0000000180025095e-35 42772.214635765158 -108.57611101999449 16184.168431979802 3883.1138442870802 1.0000000180025095e-35 -714.99999999999989 -30359.862743635847 33105.302178606456 361.00614931127654 48924.510013081308 2511.2648511334551 2990.1382697572353 -3704.9954596142998 1215.8256119146301 340.50000000000006 1.0000000180025095e-35 -3740.8229229339845 -743.44674647167983 -166.50510451426996 467.83279651769806 -112.18777107374399 -957.49999999999989 3837.7212917250854 781.6243546484601 23624.293789715706 -1.0000000180025095e-35 2.5000000000000004 17738.781584876153 125.02200890910001 1786.1421562742 96944.85785587001 -4.3071428571428543 -172.13346332078547 648.36540180315058 1.0000000180025095e-35 -3122.7467724413946 25022.325017970354 -5.6777856419959987 59290.86095641346 30.794833339673854 25022.325017970354 2940.6969989231407 1417.5000000000002 -123.21453586754599 12.500000000000002 69.500000000000014 232.88342750799504 1.0000000180025095e-35 1.0000000180025095e-35 -1.0000000180025095e-35 -6090.8475040217945 1310.0953058815901 1206.1031378295902 20.694693875358002 4814.5740559690057 2675.2611000000002 -1.0000000180025095e-35 6255.2502767884007 2533.5000000000005 -61.457197270673838 -8382.0983860811029 12609.223796770702 8690.0989355925121 15.455177685122003 1746.5000000000002 7260.4839059084961 1.0000000180025095e-35 1514.1387380439303 1559.3723947136302 -210.29172886043946 49961.198546994412 -1045.5474803429149 7510.9945844370113 1.0000000180025095e-35 -32.906877066386947 -4839.3944605299939 -5002.6002147470144 12.500000000000002 23163.865044440205 5912.5080814398061 -9636.6474100130981 1.0000000180025095e-35 -5407.996289083484 17034.377752339602 9781.4300660787503 7307.5019351809015 38171.125464270357 1.3709387633570003 1924.5000000000002 49397.002220378658 23214.235244043255 31786.411402327503 26425.003368643902
decision_type=8 2 2 10 2 10 10 2 8 10 10 10 2 2 8 2 10 2 8 10 8 10 2 8 2 10 10 10 2 8 10 10 8 8 8 10 10 2 10 8 10 10 10 2 10 10 10 2 8 2 10 2 10 2 10 10 8 10 10 10 2 10 8 10 8 10 10 2 8 2 2 10 10 10 2 10 2 10 8 8 10 10 8 10 10 10 10 10 8 10 8 2 2 10 10 10 10 10 10 2 2 10 10 2 10 10
left_child=1 2 3 4 5 6 8 -3 26 22 14 24 -8 19 -4 16 17 34 -19 39 21 35 -2 -7 25 -9 47 -18 -12 -24 -27 -17 -26 -29 -10 41 -23 50 -25 -11 -28 42 -13 44 -22 -30 -47 -1 -33 -34 -31 -44 63 -52 58 61 -45 -56 -15 -43 67 -39 -62 64 -46 -64 -51 68 69 -59 79 -37 -72 82 77 81 -60 -75 -71 -58 94 -76 83 84 88 -86 -67 -85 -69 90 91 -84 -93 -77 -70 101 -97 99 102 100 -91 -89 -92 -102 -95 -103
right_child=9 7 10 -5 -6 23 12 11 15 13 28 20 -14 54 -16 31 27 18 -20 -21 43 36 29 38 32 30 40 33 45 37 -32 48 49 -35 -36 71 -38 55 -40 -41 -42 59 51 56 52 46 -48 -49 -50 66 53 -53 -54 -55 57 -57 70 60 76 -61 62 -63 65 -65 -66 86 -68 73 80 78 72 -73 -74 74 75 93 -78 -79 -80 -81 -82 -83 89 87 85 -87 -88 95 -90 97 98 92 -94 104 -96 96 -98 -99 -100 -101 103 105 -104 -105 -106 -107
leaf_value=-4.4935458542275306e-05 -0.014152967748896874 0.063390377276561799 0.049871005213752907 0.25548001325317077 0.17464608798426615 0.024233040214509095 0.075312653022496248 0.04895082619755442 0.043704266769354433 0.021490422366975907 -0.03743187918701766 -0.034552371050541555 0.15366858096689381 -0.099459388708462187 -0.05358694003675047 0.047368888954148383 -0.028618943318065027 0.07390750618732482 0.15048780380745719 -0.13928442181559214 -0.05286425014801599 0.050162000211813204 -0.0039118833749024985 -0.062266831786882484 -0.02840935792903812 -0.083949784104558292 -0.017577584230455211 0.070510114185312986 -0.076961554124514442 -0.10732066454707374 -0.01323686999259557 -0.0087489113348661121 -0.063320312618248539 0.0091104744798389883 0.072901327406350275 -0.13938781696272695 -0.021180544329902164 -0.12682431423033652 -0.023496972340513341 -0.044837508240845848 -0.060063452461016402 -0.11040324589887705 -0.072059716701639104 -0.10299914281976008 -0.099184928236058983 -0.0935133314881232 -0.13473239038887252 0.031233132942284782 0.02398750714181459 -0.12061190462667237 -0.043331710833044865 -0.11707402743413316 -0.084332982837309903 -0.084522724840843416 -0.11126781642224774 -0.14058230554034482 -0.11324286605632757 -0.1428864738469543 -0.12236242250319261 -0.083652906888456335 -0.14688256931129226 -0.091039413652355392 -0.13958517233002879 -0.13636924913874582 -0.13138435390969702 -0.11610613820810942 -0.092695547642286075 -0.13896943324440938 -0.15239027270067015 -0.13112335608875095 -0.15242421521677979 -0.11727891978225168 -0.13259122138009835 -0.13620673144393919 -0.1419411888619051 -0.14186193379702153 -0.14437546398295711 -0.11354337013324634 -0.11245351786891321 -0.13291569897705702 -0.13466600523799471 -0.12663925451739463 -0.12852672686843214 -0.13914919284426785 -0.12025497748136596 -0.1379330808585576 -0.10147168973672814 -0.15230064431037554 -0.15233231233922528 -0.15232725939851544 -0.15230118468169238 -0.13983877014301921 -0.1522921784465974 -0.15228689678028851 -0.14259569310986472 -0.14091883918690798 -0.15229174199364948 -0.1453291617611811 -0.14869645047755678 -0.14955513667499437 -0.1523067940016184 -0.15227972021060651 -0.15228443737065153 -0.15229550543239312 -0.15229607091601544 -0.15228876159395785
