tree
version=v4
num_class=1
num_tree_per_iteration=1
label_index=0
max_feature_idx=489
objective=binary sigmoid:1
feature_names=numero_de_cliente foto_mes active_quarter cliente_edad cliente_antiguedad mrentabilidad mrentabilidad_annual mcomisiones mactivos_margen mpasivos_margen cproductos tcuentas mcuenta_corriente ccaja_ahorro mcaja_ahorro mcaja_ahorro_dolares cdescubierto_preacordado mcuentas_saldo ctarjeta_debito ctarjeta_debito_transacciones mautoservicio ctarjeta_visa ctarjeta_visa_transacciones mtarjeta_visa_consumo ctarjeta_master_transacciones mtarjeta_master_consumo cprestamos_personales mprestamos_personales cprestamos_prendarios mprestamos_prendarios cplazo_fijo mplazo_fijo_dolares minversion1_pesos minversion2 cseguro_vida cseguro_vivienda ccaja_seguridad cpayroll_trx mpayroll ccuenta_debitos_automaticos mcuenta_debitos_automaticos ctarjeta_visa_debitos_automaticos mttarjeta_visa_debitos_automaticos cpagomiscuentas mpagomiscuentas mtarjeta_visa_descuentos ccomisiones_mantenimiento mcomisiones_mantenimiento ccomisiones_otras mcomisiones_otras ctransferencias_recibidas mtransferencias_recibidas ctransferencias_emitidas mtransferencias_emitidas cextraccion_autoservicio mextraccion_autoservicio mcheques_emitidos tcallcenter ccallcenter_transacciones thomebanking chomebanking_transacciones ccajas_transacciones ccajas_consultas ccajas_otras catm_trx matm ctrx_quarter cmobile_app_trx Master_status Master_mfinanciacion_limite Master_Fvencimiento Master_msaldototal Master_msaldopesos Master_mconsumospesos Master_fultimo_cierre Master_mpagospesos Master_mpagosdolares Master_fechaalta Master_cconsumos Master_mpagominimo Visa_status Visa_mfinanciacion_limite Visa_Fvencimiento Visa_msaldototal Visa_msaldopesos Visa_msaldodolares Visa_mconsumospesos Visa_mconsumosdolares Visa_mlimitecompra Visa_fultimo_cierre Visa_mpagado Visa_mpagospesos Visa_mpagosdolares Visa_fechaalta Visa_cconsumos Visa_mpagominimo active_quarter_lag1 internet_lag1 cliente_edad_lag1 cliente_antiguedad_lag1 mrentabilidad_lag1 mrentabilidad_annual_lag1 mcomisiones_lag1 mactivos_margen_lag1 mpasivos_margen_lag1 cproductos_lag1 tcuentas_lag1 mcuenta_corriente_lag1 ccaja_ahorro_lag1 mcaja_ahorro_lag1 mcaja_ahorro_dolares_lag1 mcuentas_saldo_lag1 ctarjeta_debito_transacciones_lag1 mautoservicio_lag1 ctarjeta_visa_transacciones_lag1 mtarjeta_visa_consumo_lag1 mprestamos_personales_lag1 mprestamos_prendarios_lag1 minversion2_lag1 cseguro_vivienda_lag1 ccaja_seguridad_lag1 cpayroll_trx_lag1 mpayroll_lag1 mcuenta_debitos_automaticos_lag1 mttarjeta_visa_debitos_automaticos_lag1 mttarjeta_master_debitos_automaticos_lag1 mpagomiscuentas_lag1 ccomisiones_mantenimiento_lag1 mcomisiones_mantenimiento_lag1 ccomisiones_otras_lag1 mcomisiones_otras_lag1 mforex_sell_lag1 ctransferencias_recibidas_lag1 mtransferencias_recibidas_lag1 ctransferencias_emitidas_lag1 mtransferencias_emitidas_lag1 cextraccion_autoservicio_lag1 mextraccion_autoservicio_lag1 ccallcenter_transacciones_lag1 chomebanking_transacciones_lag1 ccajas_depositos_lag1 catm_trx_lag1 matm_other_lag1 ctrx_quarter_lag1 cmobile_app_trx_lag1 Master_mfinanciacion_limite_lag1 Master_Fvencimiento_lag1 Master_msaldototal_lag1 Master_msaldopesos_lag1 Master_mconsumospesos_lag1 Master_fultimo_cierre_lag1 Master_mpagado_lag1 Master_mpagospesos_lag1 Master_fechaalta_lag1 Master_cconsumos_lag1 Master_mpagominimo_lag1 Visa_mfinanciacion_limite_lag1 Visa_Fvencimiento_lag1 Visa_msaldototal_lag1 Visa_msaldopesos_lag1 Visa_mconsumospesos_lag1 Visa_mconsumosdolares_lag1 Visa_mlimitecompra_lag1 Visa_fultimo_cierre_lag1 Visa_mpagado_lag1 Visa_mpagospesos_lag1 Visa_mpagosdolares_lag1 Visa_fechaalta_lag1 Visa_cconsumos_lag1 Visa_mpagominimo_lag1 cliente_edad_delta1 mrentabilidad_delta1 mrentabilidad_annual_delta1 mcomisiones_delta1 mactivos_margen_delta1 mpasivos_margen_delta1 cproductos_delta1 mcuenta_corriente_delta1 mcaja_ahorro_delta1 mcaja_ahorro_adicional_delta1 mcaja_ahorro_dolares_delta1 mcuentas_saldo_delta1 ctarjeta_debito_transacciones_delta1 mautoservicio_delta1 ctarjeta_visa_delta1 ctarjeta_visa_transacciones_delta1 mtarjeta_visa_consumo_delta1 ctarjeta_master_delta1 cprestamos_personales_delta1 mprestamos_personales_delta1 mplazo_fijo_dolares_delta1 minversion2_delta1 mpayroll_delta1 mcuenta_debitos_automaticos_delta1 mttarjeta_visa_debitos_automaticos_delta1 mttarjeta_master_debitos_automaticos_delta1 cpagomiscuentas_delta1 mpagomiscuentas_delta1 ccomisiones_mantenimiento_delta1 mcomisiones_mantenimiento_delta1 ccomisiones_otras_delta1 mcomisiones_otras_delta1 ctransferencias_recibidas_delta1 mtransferencias_recibidas_delta1 ctransferencias_emitidas_delta1 mtransferencias_emitidas_delta1 cextraccion_autoservicio_delta1 tcallcenter_delta1 ccallcenter_transacciones_delta1 thomebanking_delta1 chomebanking_transacciones_delta1 ccajas_transacciones_delta1 ccajas_consultas_delta1 catm_trx_delta1 matm_delta1 catm_trx_other_delta1 matm_other_delta1 ctrx_quarter_delta1 cmobile_app_trx_delta1 Master_mfinanciacion_limite_delta1 Master_Fvencimiento_delta1 Master_msaldototal_delta1 Master_msaldopesos_delta1 Master_mconsumospesos_delta1 Master_mlimitecompra_delta1 Master_fultimo_cierre_delta1 Master_mpagospesos_delta1 Master_cconsumos_delta1 Master_mpagominimo_delta1 Visa_mfinanciacion_limite_delta1 Visa_msaldototal_delta1 Visa_msaldopesos_delta1 Visa_mconsumospesos_delta1 Visa_mconsumosdolares_delta1 Visa_mlimitecompra_delta1 Visa_fultimo_cierre_delta1 Visa_mpagado_delta1 Visa_mpagospesos_delta1 Visa_cconsumos_delta1 Visa_mpagominimo_delta1 internet_lag2 cliente_edad_lag2 cliente_antiguedad_lag2 mrentabilidad_lag2 mrentabilidad_annual_lag2 mcomisiones_lag2 mactivos_margen_lag2 mpasivos_margen_lag2 cproductos_lag2 tcuentas_lag2 mcuenta_corriente_lag2 ccaja_ahorro_lag2 mcaja_ahorro_lag2 mcaja_ahorro_dolares_lag2 cdescubierto_preacordado_lag2 mcuentas_saldo_lag2 ctarjeta_debito_lag2 ctarjeta_debito_transacciones_lag2 mautoservicio_lag2 ctarjeta_visa_transacciones_lag2 mtarjeta_visa_consumo_lag2 cprestamos_personales_lag2 mprestamos_personales_lag2 mprestamos_prendarios_lag2 ccaja_seguridad_lag2 cpayroll_trx_lag2 mpayroll_lag2 ccuenta_debitos_automaticos_lag2 mcuenta_debitos_automaticos_lag2 ctarjeta_visa_debitos_automaticos_lag2 mttarjeta_visa_debitos_automaticos_lag2 cpagomiscuentas_lag2 mpagomiscuentas_lag2 ccajeros_propios_descuentos_lag2 mtarjeta_visa_descuentos_lag2 ccomisiones_mantenimiento_lag2 mcomisiones_mantenimiento_lag2 ccomisiones_otras_lag2 mcomisiones_otras_lag2 ctransferencias_recibidas_lag2 mtransferencias_recibidas_lag2 ctransferencias_emitidas_lag2 mtransferencias_emitidas_lag2 cextraccion_autoservicio_lag2 mextraccion_autoservicio_lag2 thomebanking_lag2 chomebanking_transacciones_lag2 ccajas_depositos_lag2 catm_trx_lag2 matm_lag2 ctrx_quarter_lag2 cmobile_app_trx_lag2 Master_mfinanciacion_limite_lag2 Master_Fvencimiento_lag2 Master_msaldototal_lag2 Master_msaldopesos_lag2 Master_mconsumospesos_lag2 Master_mlimitecompra_lag2 Master_fultimo_cierre_lag2 Master_mpagospesos_lag2 Master_fechaalta_lag2 Master_cconsumos_lag2 Master_mpagominimo_lag2 Visa_mfinanciacion_limite_lag2 Visa_Fvencimiento_lag2 Visa_msaldototal_lag2 Visa_msaldopesos_lag2 Visa_msaldodolares_lag2 Visa_mconsumospesos_lag2 Visa_mconsumosdolares_lag2 Visa_mlimitecompra_lag2 Visa_fultimo_cierre_lag2 Visa_mpagado_lag2 Visa_mpagospesos_lag2 Visa_fechaalta_lag2 Visa_cconsumos_lag2 Visa_mpagominimo_lag2 active_quarter_delta2 cliente_edad_delta2 mrentabilidad_delta2 mrentabilidad_annual_delta2 mcomisiones_delta2 mactivos_margen_delta2 mpasivos_margen_delta2 cproductos_delta2 mcuenta_corriente_delta2 ccaja_ahorro_delta2 mcaja_ahorro_delta2 mcaja_ahorro_dolares_delta2 cdescubierto_preacordado_delta2 mcuentas_saldo_delta2 ctarjeta_debito_delta2 ctarjeta_debito_transacciones_delta2 mautoservicio_delta2 ctarjeta_visa_delta2 ctarjeta_visa_transacciones_delta2 mtarjeta_visa_consumo_delta2 ctarjeta_master_delta2 ctarjeta_master_transacciones_delta2 cprestamos_personales_delta2 mprestamos_personales_delta2 cpayroll_trx_delta2 mpayroll_delta2 ccuenta_debitos_automaticos_delta2 mcuenta_debitos_automaticos_delta2 mttarjeta_visa_debitos_automaticos_delta2 mttarjeta_master_debitos_automaticos_delta2 cpagomiscuentas_delta2 mpagomiscuentas_delta2 mcomisiones_mantenimiento_delta2 ccomisiones_otras_delta2 mcomisiones_otras_delta2 ctransferencias_recibidas_delta2 mtransferencias_recibidas_delta2 ctransferencias_emitidas_delta2 mtransferencias_emitidas_delta2 mextraccion_autoservicio_delta2 tcallcenter_delta2 ccallcenter_transacciones_delta2 chomebanking_transacciones_delta2 ccajas_transacciones_delta2 ccajas_consultas_delta2 ccajas_depositos_delta2 ccajas_otras_delta2 catm_trx_other_delta2 ctrx_quarter_delta2 Master_mfinanciacion_limite_delta2 Master_Fvencimiento_delta2 Master_msaldototal_delta2 Master_msaldopesos_delta2 Master_mconsumospesos_delta2 Master_mlimitecompra_delta2 Master_fultimo_cierre_delta2 Master_mpagospesos_delta2 Master_mpagosdolares_delta2 Master_cconsumos_delta2 Master_mpagominimo_delta2 Visa_mfinanciacion_limite_delta2 Visa_Fvencimiento_delta2 Visa_Finiciomora_delta2 Visa_msaldototal_delta2 Visa_msaldopesos_delta2 Visa_mconsumospesos_delta2 Visa_mconsumosdolares_delta2 Visa_mlimitecompra_delta2 Visa_fultimo_cierre_delta2 Visa_mpagado_delta2 Visa_mpagospesos_delta2 Visa_cconsumos_delta2 Visa_mpagominimo_delta2 active_quarter_tend6 internet_tend6 cliente_edad_tend6 mrentabilidad_tend6 mrentabilidad_annual_tend6 mcomisiones_tend6 mactivos_margen_tend6 mpasivos_margen_tend6 cproductos_tend6 mcuenta_corriente_tend6 ccaja_ahorro_tend6 mcaja_ahorro_tend6 mcaja_ahorro_dolares_tend6 cdescubierto_preacordado_tend6 mcuentas_saldo_tend6 ctarjeta_debito_tend6 ctarjeta_debito_transacciones_tend6 mautoservicio_tend6 ctarjeta_visa_transacciones_tend6 mtarjeta_visa_consumo_tend6 ctarjeta_master_transacciones_tend6 mtarjeta_master_consumo_tend6 cprestamos_personales_tend6 mprestamos_personales_tend6 mplazo_fijo_dolares_tend6 minversion1_pesos_tend6 cseguro_vida_tend6 cseguro_accidentes_personales_tend6 cpayroll_trx_tend6 mpayroll_tend6 ccuenta_debitos_automaticos_tend6 mcuenta_debitos_automaticos_tend6 ctarjeta_visa_debitos_automaticos_tend6 mttarjeta_visa_debitos_automaticos_tend6 ctarjeta_master_debitos_automaticos_tend6 mttarjeta_master_debitos_automaticos_tend6 cpagomiscuentas_tend6 mpagomiscuentas_tend6 mtarjeta_visa_descuentos_tend6 ccomisiones_mantenimiento_tend6 mcomisiones_mantenimiento_tend6 ccomisiones_otras_tend6 mcomisiones_otras_tend6 cforex_tend6 cforex_buy_tend6 mforex_buy_tend6 cforex_sell_tend6 mforex_sell_tend6 ctransferencias_recibidas_tend6 mtransferencias_recibidas_tend6 ctransferencias_emitidas_tend6 mtransferencias_emitidas_tend6 cextraccion_autoservicio_tend6 mextraccion_autoservicio_tend6 mcheques_depositados_tend6 tcallcenter_tend6 ccallcenter_transacciones_tend6 thomebanking_tend6 chomebanking_transacciones_tend6 ccajas_transacciones_tend6 ccajas_consultas_tend6 ccajas_depositos_tend6 ccajas_extracciones_tend6 ccajas_otras_tend6 catm_trx_tend6 matm_tend6 catm_trx_other_tend6 matm_other_tend6 ctrx_quarter_tend6 cmobile_app_trx_tend6 Master_delinquency_tend6 Master_status_tend6 Master_mfinanciacion_limite_tend6 Master_Fvencimiento_tend6 Master_msaldototal_tend6 Master_msaldopesos_tend6 Master_msaldodolares_tend6 Master_mconsumospesos_tend6 Master_mlimitecompra_tend6 Master_fultimo_cierre_tend6 Master_mpagospesos_tend6 Master_fechaalta_tend6 Master_cconsumos_tend6 Master_mpagominimo_tend6 Visa_mfinanciacion_limite_tend6 Visa_Fvencimiento_tend6 Visa_Finiciomora_tend6 Visa_msaldototal_tend6 Visa_msaldopesos_tend6 Visa_msaldodolares_tend6 Visa_mconsumospesos_tend6 Visa_mconsumosdolares_tend6 Visa_mlimitecompra_tend6 Visa_fultimo_cierre_tend6 Visa_mpagado_tend6 Visa_mpagospesos_tend6 Visa_mpagosdolares_tend6 Visa_fechaalta_tend6 Visa_cconsumos_tend6 Visa_mpagominimo_tend6
feature_infos=[31116053:214033382] [202101:202107] [0:1] [18:99] [1:482] [-245888.218771154:919246.15789644199] [-1044919.34756506:9704898.6834034193] [-99224.436553530802:673734.010504512] [-215597.773467338:212860.48805977401] [-32752.580348694999:353664.512150775] [3:18] [1:2] [-1149059.4280262799:13936203.8980041] [2:9] [-7355.4307838517598:19634332.784605399] [-47182.898420940299:60082443.840512097] [0:1] [-1198133.93360051:87492314.994282603] [0:12] [0:151] [0:773400.91523663804] [0:3] [0:527] [0:2303698.2623586399] [0:209] [0:2051845.45167187] [0:422] [0:4952649.8157706801] [0:37] [0:8864140.9774067793] [0:94] [0:45421103.580119997] [0:39063823.038244903] [0:85845610.540474296] [0:3] [0:7] [0:8] [0:164] [0:27167463.513031598] [0:259] [0:13346371.2481612] [0:49] [0:332706.74623097898] [0:111] [0:127583226.997664] [0:94623.862189797597] [0:17] [-12785.8592922724:5848.9022805545701] [0:256] [-99224.436553530802:673734.010504512] [0:1418] [0:142999350.495125] [0:365] [0:137254678.84605899] [0:172] [0:3551388.65947593] [0:31586597.190245699] [0:1] [0:104] [0:1] [0:4073] [0:1] [0:19] [0:191] [0:172] [0:3551388.65947593] [0:3180] [0:1] [0:9] [0:249078163.36839601] [-2914178:6546] [-834478.88469192397:3294566.1969061401] [-834478.88469192397:2834263.9890775401] [-33066.3951117201:2026735.8838436201] [-3:3381] [-2325321.2650605799:15511.377642986101] [0:10543.934706300601] [1:7724] [0:186] [0:1757470.0799902501] [0:9] [0:108265238.49943601] [-2914237:3043] [-875963.93622816296:5200634.8660783404] [-805403.60277799401:6100344.6933713602] [-1033965.24474934:1315211.1767861799] [-36063.785090630801:2130023.6212826101] [0:13624.654607741601] [785.40132045344899:22355913.546643101] [-3:2812] [0:2084386.76035405] [-1723175.4732265901:719405.07184894604] [0:7977.1871856527496] [1:12706] [0:205] [0:5339874.8895404898] [0:1] [0:4] [18:99] [1:481] [-250548.09:919246.15789644199] [-976959.88370077696:10429387.845677501] [-82121.276545402594:783107.82221397304] [-224582.92999999999:274875.62047125801] [-37886.669999999998:341614.62284488301] [3:18] [1:2] [-1246600.5256559199:12027300.15] [2:9] [-13314.1879524947:12935396.388054701] [-48116.2019054298:60494035.002602004] [-1146782.4706776701:83742578.128556907] [0:144] [0:700810.65000000002] [0:376] [0:1605428.2511413901] [0:5121039.90936164] [-457939.75823100901:8999104.4700000007] [0:103621588.624153] [0:7] [0:8] [0:209] [0:52494324.729999997] [0:13760108.757216999] [0:525263.30000000005] [0:273682.77890766802] [0:25744220.902758699] [0:30] [-13220.5785078347:10213.5336809948] [0:249] [-82121.276545402594:783107.82221397304] [0:6779.1027825839501] [0:1484] [0:178492539.05847201] [0:408] [0:137254678.84605899] [0:172] [0:3016273.8117332198] [0:68] [0:3936] [0:26] [0:172] [0:238460.79379562999] [0:3215] [0:92] [0:469958798.80829298] [-2914209:6515] [-723701.67670112604:2749970.54200861] [-686473.36264589301:2681872.79] [-39120.955520746298:2829546.3212893102] [-3:187] [0:2269709.5642916299] [-1831137.5382253199:83139.720000000001] [1:7693] [0:253] [0:1604954.69500354] [0:108265238.49943601] [-2914268:2131] [-892416.81385207502:4285581.1594913099] [-686160.81298389903:4921179.5309804296] [-33773.384900716301:1455542.6116668] [0:9001.8296221257897] [809.74876140885306:22947436.078985099] [-3:156] [0:2722561.71] [-2699883.1200000001:33930.288016999999] [0:11579.625660059301] [1:12676] [0:258] [0:2500250.0676712901] [-2:2] [-778401.84472209797:705423.84817544604] [-1206910.66742095:414413.7042023] [-781998.78071863705:661911.59238754399] [-282965.38371581899:182911.19474045601] [-135448.575380002:165414.468467211] [-5:4] [-6618608.17913114:7326031.3876964301] [-8915679.5052191205:10796902.7555985] [-1106524.8437453499:1056181.95123117] [-16533485.6694942:19238203.981692299] [-30872988.8985781:56874944.179691397] [-81:80] [-331584.83069652499:436998.16664339002] [-2:1] [-294:405] [-1421338.5950990999:1452102.0995359099] [-1:1] [-114:44] [-1104404.2281303001:4003422.790488] [-44470013.958926603:42547253.580119997] [-33883308.796793804:9801274.9543933906] [-52494324.729999997:26563259.2530316] [-2778535.30808332:6679782.63878706] [-436868.76950956299:269723.33139509999] [-273682.77890766802:135246.242366363] [-78:83] [-18421343.8160748:127486914.41843501] [-28:16] [-15337.4665532567:12861.9623067632] [-187:79] [-781998.78071863705:661911.59238754399] [-293:334] [-142802193.78777:142999350.495125] [-113:99] [-131758032.46786:137254678.84605899] [-90:103] [-1:1] [-60:95] [-1:1] [-1772:1321] [-1:1] [-25:15] [-90:103] [-1323144:2143126.4640850802] [-39:45] [-188159.06961848101:329666.853960765] [-415:306] [-91:1] [-465017804.600034:245786691.98681301] [-2163:61] [-2103798.0316965501:1965300.7398424] [-2096470.3021223401:1751286.0282100199] [-2334124.2739574201:1731186.4491668199] [-3159263.5816583899:1036671.31448786] [-28:31] [-2019440.62535763:1704812.3773866999] [-74:57] [-1387881.8700000001:1268695.9083472199] [-107112511.71252:107047882.502195] [-1933644.57756808:1621565.4503703101] [-2268165.0843569501:1313403.2549741] [-1420167.05135846:1403608.65508049] [-9001.8296221257897:12289.0547877467] [-2626548.6449684598:8533156.0309872199] [-28:31] [-2722561.71:2084386.76035405] [-1537550.06668464:2699883.1200000001] [-137:114] [-2268156.48031114:1017256.26776173] [0:4] [18:99] [1:480] [-250548.09:515688.49596999999] [-903473.22929424106:10568997.0276825] [-89120.539999999994:450981.14776999998] [-224582.92999999999:204996.65664140601] [-39056.344340000003:441151.53883999999] [3:18] [1:2] [-1012879.70202209:17616047.56927] [2:9] [-3376.8344626049702:16248901.9111109] [-49158.397045988997:70135540.930368096] [0:1] [-1085101.9401322999:89416848.689999998] [0:11] [0:145] [0:728891.68192124995] [0:570] [0:2807408.59553] [0:386] [0:5331002.5458015101] [-526895.83938915003:9164894.6054599993] [0:8] [0:108] [0:24876493.879999999] [0:214] [0:14186672.1289778] [0:41] [0:394557.10274055297] [0:111] [0:34392952.026953503] [0:18] [0:82880.860320077802] [0:15] [-12785.8592922724:5284.4327590027597] [0:239] [-89120.539999999994:450981.14776999998] [0:1129] [0:106590163.85421699] [0:418] [0:37537786.39689] [0:172] [0:2903836.6469546999] [0:1] [0:4124] [0:27] [0:172] [0:2903836.6469546999] [0:2910] [0:56] [0:249078163.36839601] [-2914237:6485] [-707754.03690223896:3294566.1969061401] [-707754.03690223896:1969313.6885599999] [-30506.875180823601:2026735.8838436201] [813.07426114731595:23751379.009596098] [-3:4891] [-1871403.2482405801:18915.583056078998] [1:7663] [0:158] [0:1355635.3522143201] [0:96895453.222278401] [-2914299:4598] [-900437.93307804305:3901780.5032438198] [-572350.96803303401:4417195.1789265899] [-1082990.2904263099:1337478.3799999999] [-81420.344791745694:2797722.2999999998] [0:15842.540000000001] [699.42538999999999:23609328.4539955] [-3:4485] [0:2831539.9588500001] [-2965533.5127507602:87349.797290000002] [1:12645] [0:249] [0:2027307.6299999999] [-1:1] [-2:2] [-342022.93934525398:672217.47445930901] [-2095689.53197548:734602.56489970104] [-292166.45271295297:668557.11795872101] [-222199.295742652:193449.412766769] [-243833.19422000201:199813.58580528901] [-8:4] [-11314040.4446242:9108814.6137997899] [-4:4] [-15702144.029363699:11411619.071672199] [-48952176.541546397:31493214.3528849] [-1:1] [-33019000.504470401:58759708.149930499] [-4:5] [-82:99] [-491569.38274436397:414738.12377609202] [-2:1] [-565:430] [-1503326.00216425:1266321.7800199001] [-1:1] [-280:174] [-114:78] [-990723.56999999995:4003422.790488] [-50:56] [-24876493.879999999:26799266.0752616] [-55:45] [-8404573.9830966201:6676593.7620556904] [-364115.87661659397:269726.13271233998] [-113668.846785313:107834.415688308] [-86:84] [-34321475.701131299:120730838.19320901] [-15434.6341032567:15743.1299039653] [-190:86] [-292166.45271295297:668557.11795872101] [-248:450] [-40902099.6202868:142999350.495125] [-123:155] [-33737753.084094398:137254678.84605899] [-1216401:2878666.5029314202] [-1:1] [-72:101] [-3041:1892] [-1:1] [-14:17] [-27:25] [-43:191] [-49:44] [-773:623] [-246505126.39067101:245679341.04004699] [-2132:762] [-3163344.6079657702:3155316.4873275599] [-1737113.0882262699:1948177.7490775399] [-1882179.03367828:1889517.1907218799] [-3245440.9077918702:1023668.51754343] [-25:62] [-1981296.5418563101:1675092.79705162] [-10543.934706300601:10543.934706300601] [-106:68] [-1355635.3522143201:1561180.7559863899] [-95885200.712539196:107050710.842172] [-2913903:2913875] [-95:62] [-1594116.2416537299:1794183.5740449801] [-1869898.34459426:2099130.4197029602] [-1505326.5669917599:1235794.1429779499] [-11535.704700885401:13184.5084767797] [-2725947.6783905299:9676919.4251400009] [-25:61] [-2535877.60327252:2084386.76035405] [-1533781.75689427:2058275.3696952399] [-145:142] [-1368113.59784624:1489751.2849039901] [-0.5:1] [-2:2] [-0.68571428571428605:2] [-79583.814870551607:71012.674863167107] [-639652.15947528998:210409.22042408999] [-64303.422679385199:79015.289130664503] [-55120.796411191899:29408.2334071351] [-71534.793703234202:59972.959129919102] [-3:3] [-3168797.5358358501:2040737.16199128] [-2:2] [-3602017.1222039:2231818.7110715802] [-7551251.2687234702:9477594.1627649497] [-1:0.40000000000000002] [-8133143.7857128903:10484471.139771299] [-2:1.1428571428571399] [-47:46] [-240200.40295156499:167849.19901493] [-80.914285714285697:76] [-597964.58439766197:394312.47026534] [-39.914285714285697:34] [-363164.82586956298:326060.33836577099] [-25.8571428571429:36.257142857142902] [-213756.71156196401:1108412.08657711] [-5856304.7990564601:9872269.9442938399] [-7462757.7601439003:4024716.7283671098] [-1:1] [-1:1] [-8.8571428571428594:41.371428571428602] [-7510477.2550657103:5210643.1557970503] [-11.171428571428599:61.171428571428599] [-2824977.38256178:3491395.8468981399] [-5.6285714285714299:10.9142857142857] [-67931.547680141099:45204.228751692201] [-6:7] [-27131.185668964899:25417.461054480598] [-25.457142857142902:15.800000000000001] [-3275752.7841149098:17786298.557095598] [-10494.392139174601:13517.694598542501] [-8:9] [-5729.0437843825503:2912.4047556386199] [-73.900000000000006:25.342857142857099] [-64300.278669905798:79015.289130664503] [-5:4] [-2.05714285714286:2] [-8167.3899896404901:3662.77419399155] [-5:3] [-461.15106535148999:586.324198929413] [-90.342857142857099:84.771428571428601] [-7960042.5949056:71499675.247562498] [-17:37.714285714285701] [-8056771.1481858902:68627339.423029497] [-26:43] [-493363.66366187501:570252.68001374905] [-4009938.8755231402:2977723.3189218198] [-1:1] [-60:21] [-1:1] [-2174.9428571428598:303.28571428571399] [-1:1] [-12:5] [-6.28571428571429:5.3142857142857096] [-3:3] [-20.1428571428571:27.285714285714299] [-23.8857142857143:43] [-493016.12051901798:570252.68001374905] [-26:33] [-318850.92557910603:239480.15691259201] [-357.19999999999999:395.88571428571402] [-298.48571428571398:1] [-1:1] [-9:9] [-14593099.9480434:39518578.362025797] [-2163:445.19999999999999] [-476935.41866961401:704582.68243340997] [-476935.41866961401:1004144.84707407] [-815202.74924379704:325630.36874117597] [-825676.92316318594:429882.00623742299] [-771635.51940969296:335618.17387470999] [-302.57142857142901:184.40000000000001] [-709141.69378624903:419310.57723835501] [-1364.88571428571:310.10000000000002] [-61:43] [-187513.81256234:422167.13696696499] [-19277224.920446299:15294411.787336901] [-748891.54285714298:873618] [-34.285714285714299:31] [-658530.34631407296:819528.19202438998] [-772456.09318951005:899768.26865999796] [-599615.01248142996:201836.965024987] [-724944.68799205904:383624.18564987998] [-7859.9652280601404:2486.7159396554898] [-695762.22582419601:2241718.9975627498] [-316.07142857142901:602.142857142857] [-534695.970729411:295969.88818230102] [-707795.642882274:634280.03352569405] [-2161.6908638621198:2435.7416836287498] [-1848:867.42857142857099] [-48:54] [-277948.21500000003:708953.53721072699]
tree_sizes=14506 14787 14837 14840 14831 14861 14889 14873 14873 14877 14883 14917 14874 14888 14965 14921 14966 14955 14924 14982 14954 14966 14950 14968 14991 14941 15026 14965 15035 14970 14989 14941 14956 14965 14971 14951 14963 14942 14961 14962 14913 14967 14948 15012 14934 14905 14967 14984 14939 14955 15006 14948 14990 14947 14966 14970 14947 14981 14942 14940 14976 14947 14939 14916 15004 14953 14978 14985 14944 14967 14979 14991 14926 14946 14970 14909 14947 14983 14964 14998 15016 14957 14984 14979 14967 14949 15032 15005 14976 15002 14977 14988 14965 15074 14987 14975 15017 15037 14939 14952 14968 14993 15015 15004 14959 14989 14988 14988 14960 14951 14985 14982

Tree=0
num_leaves=133
num_cat=0
split_feature=2 114 14 12 38 116 68 38 247 23 227 20 9 7 93 244 155 320 483 23 245 237 94 112 244 201 38 38 19 14 145 268 483 79 76 14 262 300 323 20 199 23 278 461 135 276 111 285 9 244 262 432 94 375 320 378 270 173 19 93 79 44 278 357 246 181 124 181 320 20 244 155 371 278 330 175 135 44 252 255 244 286 446 268 78 278 229 148 255 400 40 473 319 146 19 145 304 145 20 87 489 111 76 323 300 69 5 114 174 345 465 270 336 321 124 300 466 158 194 123 173 336 173 377 247 27 114 207 301 53 432 20
split_gain=23424.1 9336.95 15095.6 7410.75 5129.07 4771.75 6247.49 1398.28 1823.86 1484.5 885.072 655.058 457.742 395.107 382.879 355.685 285.945 322.573 272.721 266.751 266.709 218.144 190.721 190.542 187.208 160.362 143.168 198.503 137.337 111.68 107.344 104.557 102.465 78.4473 78.294 65.4028 76.4214 85.3195 63.6348 56.8761 56.0155 57.1472 54.8742 50.6731 44.3442 40.7115 35.3315 33.989 26.6873 26.2069 25.4904 24.8794 23.5635 22.7263 21.837 21.4318 18.537 15.2316 15.1295 12.0773 11.637 11.0042 10.2711 9.95142 9.82936 9.74289 9.46161 7.47037 6.22342 5.97892 5.51432 5.42018 7.29499 5.3329 5.14021 4.02965 3.89684 3.72413 3.47815 3.42833 3.08628 3.68172 2.99253 2.70214 2.36117 2.3549 2.09723 1.88487 2.73263 1.85278 1.75977 1.21339 1.16674 1.59255 1.66516 1.55279 1.12734 1.07395 1.01212 1.00671 1.0898 0.994411 0.969486 1.13665 0.931028 0.883991 0.823938 0.898886 0.856348 0.78586 0.761113 0.760932 0.724407 0.690087 0.64911 0.62491 0.597087 0.540595 0.537291 0.534344 1.02028 0.522176 0.622984 0.481876 0.439827 0.439409 0.695134 0.648099 0.425718 0.509039 0.401112 0.368199
threshold=1.0000000180025095e-35 1.5000000000000002 2966.2715611262156 -742.61598474409493 25689.472409504506 18406.091053716355 6.5000000000000009 65782.395431167213 233.20855419642501 6387.2628825752008 22.500000000000004 5852.3838632768811 296.11971998247708 1306.8793231361153 1368.5000000000002 21172.930113162754 85.805415566046022 1.0000000180025095e-35 0.86974789915966411 3927.4361139546504 686.71331708188006 -17336.524609504599 17.500000000000004 6.5000000000000009 11939.351251517202 894.40850315755313 87468.689218134925 57821.158738036152 1.0000000180025095e-35 908.13604558583916 73379.435651526452 167.40265914171303 2.0428571428571454 90.951727419555013 319.84291959425155 30858.956900013505 27326.406242285204 489.50000000000006 16.774690859094953 1426.4721299912053 1514.2112573280601 10139.761840703552 690.27386500000011 1.0000000180025095e-35 6005.483402840996 1279.9480091107553 60080.92500000001 1.0000000180025095e-35 952.08362123517907 11939.351251517202 31943.846638250852 198.40660139027554 9.5000000000000018 -13.499999999999998 -1116.8663136897096 2912611.5000000005 1694.2631636483902 244.64554895134003 1.0000000180025095e-35 1715.5000000000002 301.32522195211055 1545.6069017767952 1787.6575890839802 1.0000000180025095e-35 -1157.4194818627248 1.0000000180025095e-35 569.34054209982514 1373.8089449333602 -1116.8663136897096 10495.935410298853 4992.4283846600511 129.57062034543003 -7413.5371525595046 885.39342483641019 1.0000000180025095e-35 -12.430019038414999 24754.852370257056 1.0000000180025095e-35 28825.768649922753 49397.002220378658 11939.351251517202 9.5000000000000018 0.29285714285714304 304.28172500000005 1.0000000180025095e-35 610.33924974669515 -753.97403012680138 6096.3348837318563 5911.4682589651011 0.15714285714285703 4537.8182994203407 -17.705978638619047 -556.2326758184289 -1154.9999999999998 1.5000000000000002 302708.76334506558 -1490.4999999999998 159882.84551739102 727.09107872946754 2.2582907449960001 78.315743660538971 211293.0158666865 1.8204486428555002 -1.0000000180025095e-35 1230.5000000000002 163978.72655488702 -1.0000000180025095e-35 15.500000000000002 -14.261912002159798 -504.21848593714043 1.0000000180025095e-35 3285.1437630941855 5319.7686281250617 51.95093551371501 751.73494748357018 2295.5000000000005 -56.475543388769992 1160.2737083663103 -6831.4885337186088 695.83975855113511 -55.800015198345491 -210.29172886043946 -277.06220223474992 -9362.2572527675093 1078.9666556633103 25806.484886219954 2.5000000000000004 1.0000000180025095e-35 4.5000000000000009 46441.407402181459 12.814720961685703 9247.0559290890815
decision_type=2 8 2 2 2 10 8 2 8 2 8 2 2 2 8 8 10 10 8 2 10 10 8 10 10 10 2 2 2 2 10 10 8 10 8 2 8 8 10 2 10 2 8 8 10 8 10 8 2 8 8 10 8 10 10 8 10 10 2 8 10 2 8 10 10 10 8 10 10 2 10 10 8 8 8 10 10 2 8 8 10 10 8 10 10 10 8 8 8 8 2 10 10 8 2 10 10 10 2 10 10 10 8 8 10 8 2 10 10 10 10 10 10 10 10 10 8 8 10 10 10 8 10 8 8 2 10 10 8 2 8 2
left_child=3 2 4 -1 5 6 10 8 9 11 -2 16 19 26 -12 22 17 54 -7 66 -20 -16 -15 24 25 31 27 35 34 44 -19 33 -8 38 62 36 37 -4 -11 -39 41 43 -36 58 45 -14 -42 -17 51 -44 57 63 -37 67 -3 -6 -40 68 65 -54 77 -49 -21 69 -35 -31 -10 75 85 73 -70 72 -25 80 76 -26 97 -53 83 96 81 -43 90 117 -84 -30 113 88 -75 98 92 -55 110 94 -94 99 -76 -60 106 100 -95 104 130 105 -80 -104 -9 108 -108 -89 121 -83 -97 -29 -92 -111 -100 -28 -118 120 -90 131 -123 -81 125 126 -120 128 129 -128 -71 -50
right_child=1 7 13 -5 55 18 32 89 12 23 14 -13 29 15 21 47 -18 30 20 28 -22 -23 -24 71 53 -27 78 86 50 40 -32 -33 -34 64 42 52 -38 39 56 -41 46 48 49 -45 -46 -47 -48 61 82 -51 -52 60 59 91 -56 -57 -58 -59 74 -61 -62 -63 -64 -65 -66 -67 -68 -69 70 102 -72 -73 -74 87 79 -77 -78 -79 101 123 -82 111 84 -85 -86 -87 -88 109 119 -91 114 -93 93 95 -96 112 -98 -99 116 -101 -102 -103 103 -105 -106 -107 107 -109 -110 115 -112 -113 -114 -115 -116 -117 118 -119 124 -121 -122 122 -124 -125 -126 -127 127 -129 -130 -131 -132 -133
leaf_value=-0.66910136595175684 -3.8429266621353495 -3.9875092088393083 -4.4004379943880485 -3.2762733081116071 -4.5162242153371084 -4.1746597183933645 -1.7194786284495835 -4.6011300203714978 -4.1428088628460022 -4.0749703664482384 -3.316643287785177 -4.4050035825839764 -4.2641768788209031 -4.232273179712517 -2.5852313460918808 -4.2648295638351552 -4.1436398520084312 -3.6616253311489637 -3.9700652090174464 -4.3844282259239851 -3.3842411983619956 -3.0992740543494626 -3.7515952686992113 -4.4727939668158934 -4.4279826005214158 -3.9651947018951339 -4.5127764934011712 -4.5904760033187051 -4.4857017160533239 -4.4105422815437532 -3.2750292193729207 -4.4819956378408685 -1.3533304920523901 -4.4570031674954631 -4.0801162328501226 -4.5192876542471172 -4.4864492336848594 -4.0535262596809485 -4.3349032068102398 -4.2813502815226094 -4.3281800351489874 -4.5537336458576663 -4.2079466625663446 -4.3228967164356114 -4.5336263845436626 -4.4530715339116869 -4.5195990112398432 -4.3994728518924608 -4.560040993840647 -4.3892504833990635 -4.5858573741751663 -4.3955655924721739 -4.4430650884563674 -4.5475433383891746 -3.8261249498272041 -4.3608681844957449 -4.196233310582171 -4.3811087049309831 -4.5417324372425467 -4.3314707739870704 -4.5431818628909397 -4.5134584953794947 -4.487677822226436 -4.4864792107977287 -4.3379529438017892 -4.5159330382534888 -4.0231213008964346 -4.473116471795934 -4.4250982964372882 -4.5804919738311671 -4.501520822209474 -4.5762640447566243 -4.5587196274120831 -4.5167082402183309 -4.5481579348580592 -4.3548751718538607 -4.477026393049182 -4.4693916404136944 -4.5613317091314984 -4.5644782286180847 -4.5619588235976369 -4.5082708516762651 -4.5199742188142888 -4.5787521686753001 -4.5789003190071877 -4.5358427602834341 -4.537362299282969 -4.5949536568640212 -4.5735621246280305 -4.5628149932161008 -4.5766866965261572 -4.508361435902847 -4.5292718156908212 -4.5491479459987278 -4.5700977239145733 -4.6020399417841009 -4.5080700795353366 -4.5085683729986812 -4.5811893938507637 -4.5903455679503926 -4.5791957891340358 -4.5985485205149708 -4.5405986055451759 -4.5856299710547699 -4.5922097362879564 -4.5729135062406101 -4.5891155920310087 -4.5955777835560188 -4.5602720070890079 -4.5816343538706041 -4.5992659046906237 -4.478497204127172 -4.5783135632782912 -4.5661298059800757 -4.5960287238850022 -4.5532025514124097 -4.5831676885766601 -4.5407733637938312 -4.5779284175576072 -4.576132271114278 -4.5366698390970468 -4.5713998408417194 -4.5987025646481881 -4.5896208892377519 -4.602053346258387 -4.6028872006454211 -4.596788177975359 -4.5815339957367254 -4.6006208161919666 -4.5811719454660143 -4.5996821461840351 -4.5827656133125947
leaf_weight=79.374517871066928 69.79648301191628 73.455507077276707 110.76320377923548 98.506669269874692 74.400156898424029 84.863052822649479 58.376980058848858 144.97388329729438 53.402619929984212 104.88006713427603 106.26714847609401 95.242245268076658 93.00617504119873 61.904470069333911 76.935167731717229 53.079764842987061 77.855902031064034 54.897319454699755 70.490023512393236 87.278486935421824 56.403976649045944 58.663962092250586 71.972765309736133 81.837781084701419 54.359227489680052 63.052399253472686 58.604173740372062 135.58717113733292 63.805727627128363 77.329767750576138 61.282675366848707 105.86058971844614 65.264555145055056 55.519114220514894 60.027127705514431 98.064237659797072 77.724368358030915 82.244339490309358 92.085440186783671 95.457482039928436 73.909895548596978 58.424809804186225 56.093078831210732 59.728187711909413 84.061893763020635 91.02121414989233 82.017145000398159 71.219436634331942 62.131664283573627 75.285018991678953 93.018132481724024 55.531071819365025 89.119956539943814 55.638690132647753 62.621925935149193 69.007281562313437 67.24951514787972 66.280949838459492 113.74064486473799 69.664949294179678 58.19761548191309 65.599366888403893 69.999761898070574 84.504324788227677 56.33223070949316 65.168893469497561 53.115637680515647 60.76849845610559 86.919759035110474 113.38191699422896 67.727818824350834 89.945030545815825 77.616749975830317 74.80671514198184 59.752102857455611 68.959451174363494 81.407307665795088 54.670124942436814 109.63918972015381 59.046604743227363 64.881911160424352 70.370447348803282 56.487679393962026 60.541304122656584 53.271086283028126 92.527871115133166 53.211298326030374 58.305233832448721 56.965983184054494 61.462038952857256 84.253215266391635 74.579520827159286 58.113912332803011 114.45810057036579 131.24656411446631 123.74915194697678 53.701559741050005 60.206491481512785 74.998036632314324 67.201684607192874 84.659773493185639 89.418896347284317 68.289825784042478 91.941948927938938 61.426166161894798 68.230037797242403 74.507775234058499 124.10787980630994 93.675800235942006 59.429247776046395 133.43480400368571 68.098504291847348 89.335193190723658 71.793401146307588 412.15438878536224 65.539578897878528 81.706247495487332 52.912358440458775 80.737682294100523 68.875747935846448 64.379692176356912 53.3308742698282 91.511475494131446 64.092709876596928 1677.5429776925594 502.42227436602116 378.09915786609054 101.4482370596379 947.07740670256317 108.2521086782217 71.673825182020664 53.498280595988035
leaf_count=6638 5837 6143 9263 8238 6222 7097 4882 12124 4466 8771 8887 7965 7778 5177 6434 4439 6511 4591 5895 7299 4717 4906 6019 6844 4546 5273 4901 11339 5336 6467 5125 8853 5458 4643 5020 8201 6500 6878 7701 7983 6181 4886 4691 4995 7030 7612 6859 5956 5196 6296 7779 4644 7453 4653 5237 5771 5624 5543 9512 5826 4867 5486 5854 7067 4711 5450 4442 5082 7269 9482 5664 7522 6491 6256 4997 5767 6808 4572 9169 4938 5426 5885 4724 5063 4455 7738 4450 4876 4764 5140 7046 6237 4860 9572 10976 10349 4491 5035 6272 5620 7080 7478 5711 7689 5137 5706 6231 10379 7834 4970 11159 5695 7471 6004 34468 5481 6833 4425 6752 5760 5384 4460 7653 5360 140291 42017 31620 8484 79203 9053 5994 4474
internal_value=-4.40203 -4.43219 -4.0758 -2.1129 -3.35502 -3.11423 -2.73392 -4.5104 -4.45191 -4.25999 -3.21304 -3.9411 -4.50976 -4.42322 -3.03127 -4.22451 -3.80726 -3.70344 -3.89602 -4.38203 -3.70967 -2.80762 -3.97386 -4.38234 -4.3375 -4.26632 -4.4721 -4.42577 -4.42091 -4.53815 -3.4577 -4.30572 -1.52621 -4.2561 -4.32542 -4.36422 -4.30974 -4.26212 -4.19643 -4.17591 -4.54678 -4.5517 -4.23917 -4.49971 -4.4128 -4.35761 -4.42887 -4.40121 -4.56355 -4.31184 -4.49171 -4.54285 -4.4419 -4.46091 -3.91324 -4.44147 -4.27638 -4.4685 -4.51635 -4.3941 -4.47055 -4.45412 -4.43038 -4.55293 -4.39705 -4.45874 -4.08313 -4.4155 -4.48713 -4.55793 -4.45857 -4.53685 -4.51462 -4.54675 -4.53304 -4.3871 -4.51328 -4.43219 -4.56676 -4.55436 -4.52398 -4.51146 -4.58062 -4.5446 -4.54857 -4.51538 -4.57292 -4.56005 -4.54922 -4.59744 -4.58288 -4.5251 -4.57827 -4.57316 -4.55757 -4.57932 -4.52918 -4.53025 -4.59792 -4.5691 -4.56192 -4.58139 -4.57712 -4.56837 -4.57242 -4.55675 -4.58875 -4.58262 -4.57305 -4.5757 -4.58693 -4.49363 -4.59209 -4.58205 -4.59275 -4.56672 -4.59893 -4.52606 -4.59928 -4.56201 -4.55399 -4.58062 -4.58865 -4.57756 -4.59962 -4.5977 -4.59609 -4.59704 -4.59814 -4.59331 -4.58792 -4.57055
internal_weight=0 13504.5 2430.42 177.881 790.469 647.061 435.304 11074.1 6623.05 1534.04 311.663 425.356 5089.01 1639.95 241.866 323.776 330.113 252.257 211.757 925.482 126.894 135.599 133.877 1108.68 859.285 544.979 1316.17 883.63 818.964 4163.53 116.18 481.927 123.642 376.066 348.683 623.039 366.189 288.465 264.215 177.702 3895.44 3739.51 191.405 694.174 268.089 184.027 155.927 189.899 3045.34 131.378 470.28 1376.5 256.849 314.305 136.077 143.407 159.335 377.262 634.446 158.785 168.399 136.819 157.278 1208.1 111.851 142.499 106.518 184.087 310.981 1123.6 154.648 249.4 159.455 710.078 491.947 123.319 255.354 110.201 432.542 236.593 261.776 196.894 1668.84 172.058 109.759 156.334 260.592 448.302 265.028 4451.01 1559.08 130.218 1062.67 668.764 189.36 479.404 113.454 173.947 4389.55 266.32 199.118 260.484 413.518 228.462 171.065 136.52 437.265 292.291 168.184 183.274 393.907 138.469 213.084 207.381 496.408 124.969 3952.28 111.517 3877.29 190.221 121.346 260.472 144.842 123.139 3795.58 2118.04 1615.61 1534.88 1433.43 486.351 185.056 115.63
internal_count=1144240 1129364 203253 14876 66106 54113 36404 926111 553878 128290 26064 35572 425588 137147 20227 27077 27607 21096 17709 77397 10612 11340 11196 92718 71861 45576 110070 73897 68489 348191 9716 40303 10340 31450 29160 52104 30624 24124 22096 14861 325771 312731 16007 58053 22420 15390 13040 15881 254678 10987 39329 115115 21480 26285 11380 11993 13325 31550 53058 13279 14083 11442 13153 101032 9354 11917 8908 15395 26007 93965 12933 20857 13335 59383 41141 10313 21355 9216 36173 19786 21892 16466 139563 14389 9179 13074 21793 37491 22164 372233 130384 10890 88870 55928 15836 40092 9488 14547 367093 22272 16652 21784 34582 19106 14306 11417 36568 24444 14065 15327 32942 11580 17820 17343 41514 10451 330525 9326 324253 15908 10148 21783 12113 10298 317420 177129 135112 128360 119876 40673 15476 9670
is_linear=0
shrinkage=1


Tree=1
num_leaves=133
num_cat=0
split_feature=66 2 430 430 6 155 17 102 74 66 278 399 17 66 365 278 74 17 485 335 316 14 325 17 17 309 384 95 116 342 27 83 478 74 130 370 389 59 77 176 8 59 389 266 380 83 266 38 278 477 81 155 104 66 38 84 71 104 384 162 49 259 485 74 77 226 146 80 232 303 55 300 159 246 9 93 314 158 38 217 93 95 289 104 423 95 217 77 238 340 366 76 130 407 380 485 304 193 49 384 15 314 485 124 280 384 159 133 418 366 466 192 330 472 300 217 226 407 284 116 268 232 377 389 369 124 477 147 319 152 244 388
split_gain=4905.49 1200.13 1344.6 1093.57 853.684 682.576 400.135 310.831 308.291 304.993 250.594 190.171 179.671 175.994 173.468 168.646 165.086 130.651 132.808 86.5316 83.7104 63.8894 60.9125 58.4959 57.9926 44.9958 40.7163 39.7782 37.668 36.2423 35.8697 39.163 35.4103 35.0024 34.1264 33.9566 33.369 29.7547 29.6783 29.1184 28.7288 28.776 26.3205 24.4674 23.2496 21.9854 18.7282 34.7577 40.3267 17.4142 24.2954 16.3071 16.2619 14.9554 14.0142 19.5396 10.9899 10.2205 9.9748 9.69005 8.17923 8.20794 7.34459 6.87583 6.82863 6.68083 6.11155 5.99713 5.97652 5.90078 5.84187 5.35331 5.11145 4.77996 4.91176 4.38583 4.20886 4.10672 3.62837 3.38486 3.07917 3.02824 3.99253 3.73768 2.9051 2.5134 2.44243 2.41854 2.29111 2.38424 2.21951 2.2059 2.16222 2.30607 2.13441 2.0736 1.87466 1.5133 2.37899 1.41462 1.38243 1.27704 1.27136 1.21214 1.222 1.10456 1.06185 1.0478 2.20136 1.62653 0.856417 1.22553 0.820155 0.9784 0.805951 0.791279 1.12299 0.745498 1.54955 0.70983 0.993419 0.661912 0.630577 0.625212 0.619274 0.618624 0.583898 0.515581 0.482753 0.447492 0.368553 0.360697
threshold=39.500000000000007 1.0000000180025095e-35 40.24384200345601 182.26692672897704 9890.3626373652769 1458.2094996132703 1.0000000180025095e-35 197.54541141938503 1768.5000000000002 93.500000000000014 152.64542566460003 -131.38981051829498 55209.936725340158 105.50000000000001 -20.499999999999996 1007.0367367056001 140.00000000000003 1242.6675043590251 -3074.5783245875396 -3.4999999999999996 2167.6654273682902 908.13604558583916 -123.21453586754599 65501.084545540703 23163.865044440205 1.0000000180025095e-35 -12393.130312985999 2711.2832388566708 1.0000000180025095e-35 3454.8319621297005 10137.975175644702 11697.414344755403 -274.05777122385592 140.00000000000003 346.67978702166005 -32819.843842311697 1.0000000180025095e-35 1.0000000180025095e-35 1233.5000000000002 -1.0000000180025095e-35 -335.00795692882593 1.0000000180025095e-35 1.0000000180025095e-35 58593.87628224666 1.0000000180025095e-35 6388.2527919668109 66941.038581916262 14288.889162116202 536.61816371807515 607.4743047421066 196455.73122623851 294.24358663539005 744.8617796280796 111.50000000000001 1.0000000180025095e-35 1307.8572982172252 3155.0193949246905 475.10349718200007 -16528.198037539496 114407.22075472801 1415.4710261184002 17.500000000000004 -1.0000000180025095e-35 1.5000000000000002 3892.5000000000005 6663.8262285203209 -1217.4999999999998 6.5000000000000009 1.0000000180025095e-35 225132.20437554002 9388.7432305462662 1230.5000000000002 13816.280312727553 -840.62565374659789 443.80042747578506 1189.5000000000002 1175.5000000000002 47181.831265712906 48924.510013081308 -25.499999999999996 3324.5000000000005 1392.6224244224252 9090.7971307177213 268.40363842508003 39.912156443771558 1215.8256119146301 -8.4999999999999982 520.50000000000011 -7.4999999999999991 -4018.8940147853946 -46381.191167607998 10.360871906413502 462.45885767892008 242.94831026998202 -4722.2694300505091 -964.96828338147293 -1414.9999999999998 71.043283241401511 912.43810133886507 -13584.089961598 28.885382295545003 4018.5000000000005 2998.9535859666903 1.0000000180025095e-35 26425.003368643902 -18187.655965534996 17375.648541745304 77826.031749067261 -0.071428571428571383 -12225.680059325497 -56.475543388769992 1796.7110084236904 -12394.503289308448 -0.14119601328903647 770.50000000000011 -3.4999999999999996 -1.0000000180025095e-35 1350.8939000400603 15013.617732165001 14479.191693801902 3328.3078561849302 -717.14973531405337 -5474.1446898236545 -79.117616175259982 1645.3921744497852 7860.0098415816656 -1.0000000180025095e-35 8246.9014788372824 -399.77460065718344 -6537.0373745489787 19029.203978055102 27.500000000000004
decision_type=2 2 10 10 2 8 2 8 8 2 8 8 2 2 8 8 8 2 10 8 8 2 8 2 2 8 8 10 10 8 2 10 8 8 10 10 8 2 10 8 2 2 8 8 8 8 8 2 10 8 8 8 10 2 2 10 10 10 8 10 2 10 8 10 8 8 10 8 8 8 2 8 10 10 2 10 10 10 2 10 8 10 8 10 10 8 8 10 10 10 10 8 10 10 10 10 8 10 2 10 2 8 8 10 10 10 8 10 10 10 10 10 10 10 10 10 10 10 10 10 10 10 10 10 8 10 10 8 10 8 10 8
left_child=1 7 6 12 5 10 8 -1 11 15 -4 25 13 14 19 20 26 18 33 -2 -5 28 -10 32 27 -3 121 -11 44 30 31 40 34 -8 -19 42 37 -13 -20 62 71 70 -17 53 -16 -21 47 48 51 50 63 -41 -26 54 55 -14 -29 -57 -25 122 61 96 -15 -34 -47 -63 -60 86 -12 -51 -42 -23 -30 84 91 88 -62 -54 -77 -55 -73 82 83 -31 103 -78 94 -46 89 -45 -49 -75 93 -81 -48 -76 -50 98 128 -86 -100 106 115 -33 -105 -104 -32 -88 109 -109 111 -80 113 -87 -56 116 130 118 -90 120 129 -6 -43 -96 -83 -102 -84 -103 -59 -114 -94 -112
right_child=3 2 4 9 16 -7 17 -9 22 24 68 36 43 39 21 35 -18 23 38 45 -22 29 -24 58 52 -27 -28 56 72 81 101 73 49 -35 -36 -37 -38 -39 -40 46 41 59 -44 75 87 64 67 90 60 69 -52 -53 77 79 114 57 -58 97 66 -61 76 65 -64 -65 -66 -67 -68 -69 -70 -71 -72 80 -74 74 95 78 85 -79 110 92 -82 124 126 -85 99 112 107 -89 117 -91 -92 -93 102 -95 123 -97 -98 -99 100 -101 125 127 105 104 -106 -107 -108 108 -110 -111 131 -113 119 -115 -116 -117 -118 -119 -120 -121 -122 -123 -124 -125 -126 -127 -128 -129 -130 -131 -132 -133
leaf_value=0.087912979479292344 0.25325139285881543 0.31420870317598515 0.94856648971194657 0.46012253305759482 0.22802509509297503 0.24960640155403391 0.094264401647386045 -0.094304768624911606 0.12660739942525151 0.15034544939314959 0.5447156581340783 0.14995628637670153 -0.040120667006507724 -0.10946360777690502 0.057647999464277837 0.22607264614917807 0.0656223779687959 0.18798573086306619 0.15479420927467341 0.092627333204198373 0.18726546863202781 -0.15747745434982771 0.0082752445054532116 -0.15606762536167879 -0.02658368324104186 0.47954673064190129 0.36309541135653106 0.035686774921033053 -0.087658467064911469 -0.092694918766084475 -0.19547892611419551 -0.18064977571050925 -0.057296470234186804 -0.043233682485340062 0.006578264738119741 -0.014076189258484769 0.094309895534246874 0.29642963493155161 0.31132495339509875 0.015972737766361666 -0.054569696734839572 -0.038686060854267235 0.06215552088560742 -0.18648921503283816 -0.073251716307563122 -0.081881285098044668 -0.14138798698206578 -0.15440898619615459 -0.17259385433350011 -0.10374642120450329 0.091681268570057567 -0.10847700283371682 -0.10993045501360757 -0.13387131018036799 -0.16733181403006495 -0.083976295762119499 -0.083180439919054092 -0.11518066904064458 -0.10408614588769485 0.050568461441758521 -0.11486313880498622 -0.12323107533182767 -0.0020194487499878553 0.0086701030611152346 0.0012650261923468106 -0.017573622938649884 -0.035009742649479828 -0.11738079365362089 0.61134266063077514 -0.036042593345027692 -0.12976025563907015 -0.057656769851713661 -0.15850707683999141 -0.11776145569278361 -0.1708032890490459 -0.15601220178640207 -0.1314917023951265 -0.17708279181653286 -0.19722332070713203 -0.18190823623145419 -0.12173809961904102 -0.19714723386265945 -0.16546205569523528 -0.16382010853630793 -0.14220378598430097 -0.14462245762583284 -0.19651059296996029 -0.02723526528221324 -0.15654490215414305 -0.13040821733566593 -0.19632575191682844 -0.065926422672611923 -0.17286662738560152 -0.13652924085686663 -0.16260618001452221 -0.1176846393838602 -0.12485924923921464 -0.18544478804679906 -0.13820559301514163 -0.094742530560051455 -0.16297978935278243 -0.14019106662419289 -0.18334510101184817 -0.13137540228702255 -0.16745758085296142 -0.15130705748319481 -0.16410053195366936 -0.1811962721816314 -0.19360239684822098 -0.13051320457339249 -0.19891343997306299 -0.15530741943126952 -0.15049669006219971 -0.17848514173632521 -0.19202272345255153 -0.19295430405530187 -0.15416023495916631 -0.19575362432322116 -0.19381661685886156 -0.19726303131842318 -0.19588247313300558 0.2038855766713997 -0.01194737496526071 -0.18938256417500429 -0.17115807005403658 -0.1895852285294041 -0.18899785742527159 -0.16795889909961292 -0.14004688035475787 -0.17443831116295747 -0.19471023135735802 -0.18501434569810965
leaf_weight=544.23013089597225 68.955138484016061 129.07069171965122 113.0185237955302 112.20636921469122 94.166416407562792 219.99565698113292 135.67542270198464 1231.4641356654465 425.96953810192645 87.410806140862405 102.11003020405769 114.02785544190556 93.084288841113448 51.206087335944176 145.46606408152729 83.193336762487888 282.31669897492975 75.790632985532284 100.18688052892685 67.58372532390058 76.060396582819521 87.273361524567008 298.14008093625307 85.552931932732463 82.372925595380366 136.59035213664174 130.29684732016176 60.383050252683461 90.769783111289144 57.844528995454311 99.712974432855844 70.703378866426647 120.83957479242235 165.93978703673929 93.250130607746542 77.313325893133879 131.43095376156271 109.71693294774741 95.277468626387417 96.795717640779912 78.120395229198039 70.377724741585553 75.189781033433974 48.406367246061563 90.092420036904514 87.170264899730682 78.383974891155958 57.429726552218199 61.322784965857863 80.0163349295035 106.36370690632612 75.610011203214526 89.841702613979578 68.687944311648607 84.007351513020694 102.43379901535809 65.241187809966505 59.421709328889847 121.85335544869304 130.62447196897119 72.378167117014527 47.822596374899149 51.396186180412769 134.73417314514518 73.319788239896297 48.697827531956136 89.619663457386196 53.101394620724022 115.88058086484671 147.71130876429379 89.260821458883584 55.894604372791946 74.961526879109442 51.705462792888284 49.897187864407897 89.723667061887681 68.49758664611727 62.093761805444956 71.231923841871321 93.696669233962893 65.846318307332695 138.09750281274319 84.882498660124838 61.416401916183531 49.480246724560857 72.244182651862502 568.06804081983864 94.19484787248075 91.029218248091638 82.921363992616534 450.00836390443146 91.98925469443202 46.660048057325184 87.140532800927758 49.885487324558198 72.945506865158677 72.253041325137019 57.086482104845345 61.945543016307056 51.853387330658734 84.775379414670169 53.93105835467577 97.653757629916072 78.312434582039714 73.228325761854649 78.072493459098041 77.100722427479923 55.632724312134087 217.20422122068703 47.177487091161311 1797.6062983162701 46.469283852726221 57.275641288608313 65.67178597021848 145.81584400124848 455.6602026829496 57.662452958524227 113.26155300345272 88.883831586688757 69.578369423747063 55.3437216617167 89.158149853348732 71.874756643548608 119.08204121422023 50.476241008378565 60.29666381701827 85.111326708458364 53.905739949084818 66.934656132012606 69.874358612112701 93.637276287190616 78.567205972038209
leaf_count=8171 5122 5903 4150 7478 4156 3987 5857 6705 6205 6288 5209 4352 6604 4830 8877 5609 5116 4578 4659 4304 5181 7380 5208 6485 6914 4099 5821 5170 5342 4922 8305 6381 6204 4201 5879 6288 6505 4737 4662 7942 5121 4093 4973 4495 3529 7405 7808 5261 4935 5519 5893 5368 8199 6353 7739 8572 5834 5603 8467 9727 4376 4491 4514 8037 3928 4521 6477 4712 4344 7196 6823 4523 5898 4553 4709 8508 5589 5945 7084 8642 5463 13296 7590 5758 4548 6891 56392 6974 9060 7969 42356 7743 4465 8083 4978 6895 5640 5460 5883 4728 7930 4575 8696 7083 6776 6663 6925 5564 21746 4691 181515 4660 5400 6321 13772 43877 5622 11341 8880 6506 5253 5190 5369 11832 4834 5879 7908 4293 6293 6426 8981 7717
internal_value=0 0.0991509 0.159563 -0.129524 0.343582 0.523737 0.0867281 -0.0384571 0.166901 0.0861616 0.70593 0.270722 -0.148451 -0.124342 -0.0889119 0.20819 0.17701 0.0172878 0.102168 0.0561502 0.349887 -0.106165 0.0778861 -0.0226773 -0.0294895 0.399218 0.277279 0.0463299 -0.0416112 -0.122143 -0.107015 -0.0922527 0.00689557 0.018617 0.0879136 0.0950075 0.174612 0.221782 0.231094 -0.160582 -0.0582247 -0.0291224 0.148256 -0.178712 -0.00236243 -0.00344082 -0.164677 -0.149285 -0.12629 -0.0163301 0.0110407 -0.0386058 -0.0984252 -0.16149 -0.140975 -0.124493 -0.0260452 -0.140427 -0.0982165 0.0110824 -0.146156 -0.114537 -0.055642 -0.02252 -0.0438959 -0.0699233 -0.0748124 -0.183335 0.580134 -0.0598316 -0.0946672 -0.119524 -0.119704 -0.129692 -0.10978 -0.191722 -0.159861 -0.137375 -0.195512 -0.177003 -0.0923166 -0.170393 -0.157487 -0.129323 -0.146093 -0.166965 -0.186419 -0.0497313 -0.173119 -0.151079 -0.191582 -0.0845781 -0.179935 -0.160041 -0.168773 -0.139261 -0.146774 -0.155237 -0.150064 -0.117917 -0.163316 -0.171293 -0.184273 -0.15894 -0.148811 -0.169111 -0.181796 -0.191334 -0.182145 -0.157939 -0.197289 -0.180675 -0.173196 -0.160747 -0.182997 -0.188349 -0.17775 -0.182992 -0.174959 -0.180007 -0.173427 0.216285 -0.025176 -0.181477 -0.190191 -0.174038 -0.177246 -0.154072 -0.128353 -0.163654 -0.187445 -0.198331
internal_weight=0 5820.39 4044.7 10800.4 1146.94 551.005 2897.76 1775.69 1344.95 871.307 331.009 620.837 9929.1 5526.32 2794.38 423.963 595.938 1552.81 497.08 297.029 188.267 2497.35 724.11 1055.73 447.343 265.661 313.621 213.035 495.485 2001.87 1524.04 1239.39 758.706 301.615 169.041 235.696 355.176 223.745 195.464 2731.94 649.272 440.258 158.383 4402.77 329.753 228.074 2629.34 1440.8 933.366 589.665 361.937 172.406 234.308 1894.67 815.802 585.979 125.624 492.894 297.026 272.877 760.96 230.096 102.602 255.574 160.49 96.5204 211.473 1188.54 217.991 227.728 167.381 209.014 165.731 590.115 266.537 2508.1 530.864 151.935 2083.6 1078.87 121.741 477.829 289.255 119.261 323.578 458.486 1135.43 184.287 424.502 131.328 507.438 143.695 1010.18 180.837 247.352 122.843 133.576 390.46 333.374 101.334 207.018 284.65 829.346 222.244 151.541 175.726 176.814 888.082 320.014 102.81 1993.87 117.701 389.988 137.916 229.823 653.62 197.96 293.175 179.913 252.072 182.494 183.325 142.252 168.968 188.574 145.072 169.994 107.837 126.356 127.15 140.297 1876.17
internal_count=1144240 173972 159096 970268 37973 17690 121123 14876 37009 67879 13703 25596 902389 476043 221700 29529 20283 84114 19379 20759 12659 200941 11413 64735 38350 10002 15167 17292 30620 170321 126013 101915 43306 10058 10457 16870 15594 9089 9321 254343 48499 31133 10582 426346 19380 15637 244999 127276 79659 32849 20134 13310 21058 175117 73735 52224 11004 45620 21429 19189 66349 19587 9344 14241 11333 9012 14944 117723 9553 12715 11944 17366 11240 53416 23900 251229 46762 14144 209484 101382 9986 44308 26178 10680 29516 42386 113011 10503 41745 12464 47617 12296 95029 16725 24618 11604 10575 37048 31588 9276 19692 24098 78304 20240 13859 15359 15230 88393 32001 10255 200976 11744 36797 13212 21511 62945 19068 29281 17940 23585 17079 9346 9462 16810 18130 13809 15498 8868 11896 11826 13446 189232
is_linear=0
shrinkage=0.200792


Tree=2
num_leaves=133
num_cat=0
split_feature=122 80 17 276 430 2 95 278 59 294 71 147 8 21 59 16 8 430 9 22 51 485 430 38 95 27 430 95 320 478 394 430 72 488 38 485 473 489 477 44 169 8 95 380 148 107 107 123 430 0 169 59 91 123 71 148 70 67 461 153 481 268 70 0 377 241 86 316 309 232 446 461 252 229 67 71 359 380 408 51 345 91 72 284 20 472 336 316 349 69 373 408 217 401 3 20 242 388 358 303 294 116 95 205 314 154 1 23 241 277 152 111 82 401 173 268 351 67 153 51 308 122 373 139 406 172 345 302 3 336 145 472
split_gain=3088.11 1716.16 1054.71 426.219 438.463 262.541 310.91 254.615 234.82 211.098 136.183 131.025 113.546 102.752 97.3618 95.7157 77.6173 74.0201 89.7769 73.9527 60.1554 50.5409 50.1733 173.428 43.8266 38.2976 36.8751 36.7785 58.5944 36.0157 35.7894 30.0653 26.8476 26.7902 21.7481 18.7783 18.4146 17.9461 17.5835 17.5394 16.715 12.2258 12.1716 12.1603 11.8807 17.6922 11.793 10.8604 10.9597 10.5541 10.3876 10.101 8.12359 8.0757 7.8384 7.75418 10.052 7.23269 6.82999 6.79591 6.19358 6.12548 6.10813 5.78377 5.77686 5.47686 5.02065 4.92331 4.91459 5.15305 4.20545 4.03201 3.45233 3.38749 3.35442 3.17928 5.62606 3.13515 2.76011 2.72822 2.70698 2.68617 2.34797 1.72609 2.19115 1.65847 1.4914 1.88863 1.43377 1.5037 1.47553 1.41855 1.11255 1.09959 0.847555 1.1512 1.06957 1.33682 1.00203 0.805685 0.728654 0.652544 1.02024 1.2227 0.605235 0.508215 0.506646 0.469162 0.61899 0.784911 0.479255 0.959736 0.83204 0.677108 0.445571 0.445466 0.435436 0.432896 0.774253 0.42252 0.390013 0.358808 0.330557 0.326559 0.273739 0.247747 0.243404 0.232281 0.212907 0.193153 0.190663 0.293287
threshold=27279.597906353902 1.0000000180025095e-35 12609.223796770702 1.0000000180025095e-35 55.362191848836609 1.0000000180025095e-35 2440.7146215689304 690.27386500000011 1.0000000180025095e-35 3055.6369229341503 1474.9322298379252 4520.373648825921 -335.00795692882593 1.0000000180025095e-35 1.0000000180025095e-35 1.0000000180025095e-35 -1049.0867025035498 312.63145542712954 691.84479025867506 4.5000000000000009 1703.3891852346253 -1.0000000180025095e-35 11.623446204230351 1.0000000180025095e-35 719.9999794754566 30158.956134264805 338.8793064393181 119.24115284858551 1485.9898097453352 1.0000000180025095e-35 1.0000000180025095e-35 312.63145542712954 375.70503601928607 -0.11119691119691098 35022.892371544811 9087.0887780821013 1.0000000180025095e-35 1.0000000180025095e-35 607.4743047421066 3516.3423228612205 406.43726763155405 -1049.0867025035498 1.0000000180025095e-35 -1108.9944870467998 5231.1891353550263 -215.66171829223495 -390.99331531339391 62.620575946575009 71.650114971943964 81452578.000000015 1390.3373929067752 1.0000000180025095e-35 -124893.61706901899 1007.7837240489051 3777.9837662924651 992.63502047296004 -912.49999999999989 1.0000000180025095e-35 2.6071428571428554 1746.5000000000002 -0.11756838965078499 1483.6848392684853 -1307.9999999999998 115618625.50000001 -8267.4875626763533 54.500000000000007 10637.137812627252 111.82344284436002 3.1206850000000004 -1.0000000180025095e-35 0.38571428571428557 0.32857142857142857 33105.302178606456 -4867.1966601749837 1.0000000180025095e-35 396.73983896711405 13.500000000000002 13943.480914512951 0.092857142857142874 88182.600056776515 -22.915468513194948 -6755.8462477259445 1.0000000180025095e-35 18939.084073589202 10495.935410298853 1.4928571428571453 -1169.3725783478496 1543.1579389907404 189.15781500246501 142001.69244801954 -8891.4865415360491 -0.27142857142857141 -5.4999999999999991 -1824.1765663022597 63.500000000000007 2990.1382697572353 40.500000000000007 -9.4999999999999982 4.5000000000000009 175152.73227454102 8069.7056566751808 1.0000000180025095e-35 411.72054000316808 -25432.090162096149 2559.5000000000005 32.500000000000007 202103.50000000003 35707.529512252557 56.500000000000007 7.5000000000000009 -15991.832400361898 3354.7942390496751 -1611.4999999999998 -559.60534408591889 72.936553796581521 4227.6997701332511 705.32590220722102 1.0000000180025095e-35 2772.5000000000005 59290.86095641346 16125.229925489002 105090.42415754101 -609.79456613166985 74.500000000000014 0.44285714285714306 124.32374911979952 7190.0637956024557 48.526658724622507 41.500000000000007 981.77305054759006 407058.24409790902 -0.14119601328903647
decision_type=8 10 2 8 10 2 10 8 2 8 8 8 2 2 2 2 2 10 2 2 2 10 8 2 8 2 10 8 10 10 10 10 8 8 2 8 10 8 8 2 10 2 10 10 8 10 8 10 10 2 8 2 10 8 10 10 8 2 8 8 10 10 8 2 8 8 8 8 8 10 10 8 10 8 2 8 8 10 10 2 10 10 8 10 2 8 10 8 10 8 10 10 10 10 2 2 8 10 10 10 10 10 10 10 10 8 2 2 10 10 10 10 10 10 10 8 10 2 10 2 8 10 10 10 10 10 10 8 2 10 8 8
left_child=1 2 3 4 10 -5 9 17 67 12 14 24 43 25 30 -12 -16 18 29 31 37 57 23 50 -10 63 36 28 35 32 64 39 51 -29 -24 -14 41 -11 58 61 52 59 65 -7 -17 60 -27 48 75 -35 -15 -4 -20 -36 120 56 -43 -18 -22 -8 -46 68 -31 -2 -1 82 -53 -6 69 -9 81 -47 -67 -41 -58 76 86 99 -61 80 -42 88 83 84 -25 -81 -21 -88 89 91 116 -49 -77 -94 96 -96 97 -44 107 -38 -92 102 -99 -104 -82 -93 -105 108 110 -110 125 112 -112 -114 128 122 -90 -95 -119 -108 -50 -97 129 -113 -125 130 -109 -111 -85 -91 131 -98
right_child=13 -3 7 5 8 6 26 19 11 20 15 -13 27 22 16 44 21 -19 40 47 38 -23 34 42 -26 46 -28 33 -30 62 -32 -33 -34 49 53 -37 77 -39 -40 73 79 55 94 -45 45 71 -48 70 54 -51 -52 66 -54 -55 -56 -57 74 -59 -60 78 -62 -63 -64 -65 -66 72 -68 -69 -70 -71 -72 -73 -74 -75 -76 92 -78 -79 -80 85 104 -83 -84 114 -86 -87 87 -89 90 115 100 105 93 117 95 121 98 101 -100 -101 -102 -103 103 106 -106 -107 119 126 109 127 111 123 113 -115 -116 -117 -118 118 -120 -121 -122 -123 -124 124 -126 -127 -128 -129 -130 -131 -132 -133
leaf_value=0.10649752256272693 -0.0019880115171294135 0.55094388328020605 0.0467445449810025 -0.086847530832022735 0.10318712654203011 0.054376362731299664 -0.053943814979350399 -0.00089650134602249631 0.47192366158263638 0.091144192795426821 0.085358903609876233 0.17223575693206339 0.19474708448802372 0.13730903404574224 0.0078367027670216052 0.016353372628144229 0.11547308793419127 0.13514108043663053 0.00064010081904276634 -0.12953393218846943 -0.045130635768141969 0.29058118902253094 -0.0073037002213835155 -0.12343718858722091 0.31656094372581617 -0.041307576585678699 0.04567009561574864 0.18782201950355726 0.28487358824896525 -0.088374933462346927 -0.020133666686691087 0.035903412867704029 -0.010684094365692681 0.032935832116050376 -0.071941933028387764 0.10231253782214712 -0.17861608123856124 0.024546883501196999 -0.079807826105241814 -0.16767778658570018 -0.079811741462280567 0.036969449103962222 -0.15157027827249397 -0.042134886163743265 -0.10707125459865731 -0.043921411976281972 -0.16894054999816752 -0.13498962841265041 -0.045945303622936744 0.1092507028602666 0.0087543854871287175 0.17271706712074616 -0.087903160440184855 -0.17306720189662828 -0.15284209418294536 -0.10364832884236826 -0.024284474039213012 0.18087802473858652 0.026701390717625589 -0.10695952260634847 -0.053870805713393956 -0.11055622793721649 -0.015611090280119535 0.089173796553303999 0.055969767436390726 -0.096257223455346777 0.09791440138534864 0.14213400975769439 -0.08008691405913744 -0.071255338193504977 -0.10830045891094564 0.012597827581639895 -0.16092315748347524 -0.11586231102387706 -0.08688515898749341 -0.14319348320925682 -0.082581730312476648 -0.10734605234244471 -0.16088141414471474 -0.1257573825109608 -0.14765779337281557 -0.12695515377833891 -0.19654986843568154 -0.17635808770920347 -0.16953145250771762 -0.17715350962287632 -0.13318069180837558 -0.18734694491157905 -0.16822750900245328 -0.19516522972019801 -0.12438375124932964 -0.19138836833755055 -0.14981983060280038 -0.19801636817234236 -0.15727969617582938 -0.17949045531487007 -0.17646148020891644 -0.1594347436373767 -0.16946123533792604 -0.14721339790232474 -0.16034401482455427 -0.20276156493491182 -0.1576544876533057 -0.20270156349020022 -0.117093775130718 -0.1624214934200954 -0.19494626893026423 -0.20002097086083478 -0.16664566995640187 -0.18580783080738392 -0.19370233614109869 -0.19785416512719153 -0.14570365426960119 -0.18087641804466487 -0.16220142762989076 -0.19499428408040126 -0.19334764468347232 -0.15646930365726108 -0.19107970193466836 -0.17560086122969817 -0.070308172989631046 -0.20248190583844256 -0.16599537330304592 -0.17950216888112766 -0.19654169207924743 -0.20068718313145797 -0.18505914398087503 -0.20263840015507556 -0.19314057322288677 -0.17763018769806393 -0.20065269296805846 -0.19453058881371599
leaf_weight=190.64265799056739 58.876136647537351 236.38832056615502 74.010143667459488 967.73630227893591 255.48628585506231 87.404655534774065 60.098850768990815 98.773113624192774 157.56999812554568 231.26509072165936 343.14035009965301 156.24282084591687 162.42792581953108 53.279906235635281 105.44441082887352 107.60037783905864 138.13921291287988 124.38306213915348 77.794296758249402 79.450908645056188 91.628540095873177 157.60052201058716 86.741999152116477 72.914639106020331 136.72439770866185 47.104757730849087 83.931907014921308 136.90354469045997 179.71449546236545 72.633326478302479 220.31143147870898 85.814030284062028 120.99263433273882 114.90388493333012 50.40487311873585 194.97532630339265 77.293235125951469 553.76626906171441 270.18785452190787 91.500151809304953 65.284357726573944 66.39189413189888 43.108886373229325 132.32050917018205 199.97119227796793 85.565433979034424 76.732049267739058 44.490681760944426 54.667566020973027 200.64628137275577 48.32751505356282 77.65427384339273 90.231889023445547 86.437812334857881 52.125528132542968 72.589438151568174 64.045113555155694 134.57424524053931 127.80636114999652 77.402992522343993 157.88833627756685 101.99663330148906 129.33677834458649 53.60831505432725 174.94145530182868 71.195066681131721 67.727146569639444 268.2641604533419 155.24458080809563 72.974866162054241 42.524377787485719 125.56946935504675 62.510760333389044 114.55482297111303 74.835735639557242 80.987349045462906 66.821433715522289 52.394202421419322 75.706876546144485 46.971498564817011 50.732178651727736 47.520534106530249 121.85679450538009 60.495585245080292 96.749190593138337 54.89617549162358 43.151477723382413 65.11547383107245 81.402098851278424 53.416701752692461 43.57786466088146 53.600188472308218 68.407710737548769 41.519358188845217 61.71958568226546 52.143036373890936 38.466254539787769 55.257652875036001 60.621450413018465 57.404107490554452 47.459451143629849 102.01723865419626 44.686810332350433 130.8234471231699 53.846262775361538 44.854800626635551 102.60822559334338 895.06950200162828 72.362523128278553 83.729346632957458 66.9872259888798 385.57218241598457 42.339763317257166 46.08598199672997 49.362595171667635 211.6426193350926 42.266739684157073 52.127036941237748 52.110346904955804 81.810150362551212 51.401244041509926 57.594769200310111 43.873525368981063 87.188986090943217 67.392272051423788 513.38646035920829 46.095861632376909 54.632014906965196 61.418835027143359 48.162500891834497 192.91082674451172 619.40377504657954
leaf_count=7077 5317 3511 4151 4942 3223 5561 4827 6806 3589 6986 8687 6556 5395 4269 8213 7296 5707 6677 5820 8382 6823 8541 5593 6905 6683 4283 5902 5962 4417 5927 7569 4207 7711 4832 4631 4586 6741 8889 7157 7932 6855 4553 4649 8294 5390 7481 7785 4892 4276 7354 5024 5535 8539 8500 5247 6795 4074 7686 3803 6116 8572 7501 10270 4218 5877 6883 4245 6315 6859 5170 4586 3624 6932 7996 5549 8881 7174 5215 7209 5188 5163 4820 13398 6371 10504 5963 4344 6998 8889 5906 4769 6033 7644 4449 6783 6006 4519 5648 7046 5639 5310 11445 5183 14576 5641 4892 11208 108159 8072 9783 7469 45584 4852 5209 5247 24397 4428 5732 5857 9441 4835 6990 4986 10336 8093 59124 5583 6409 6348 5411 22332 71021
internal_value=0 0.0158203 0.00396436 0.0465811 0.102891 0.00494525 0.0323112 -0.089555 0.214562 0.0667319 0.0520832 0.320846 0.126828 -0.172689 0.100364 -0.00102309 0.162228 -0.0107897 -0.0292716 -0.128575 0.00971711 0.20006 -0.178894 -0.183313 0.399745 -0.0433542 -0.0798787 0.15582 0.191349 0.0253939 0.043794 -0.0756486 0.0652514 0.113644 -0.0859599 0.144321 -0.0954171 0.044166 -0.0455162 -0.0907227 -0.0966909 -0.0749943 -0.189044 -0.0037436 -0.0448324 -0.056403 -0.120392 -0.153797 -0.135657 0.0814615 0.0761646 0.107129 -0.0469086 -0.135819 -0.0890842 -0.0472418 -0.0272951 0.147748 -0.00329322 -0.111162 -0.0835991 -0.0675957 -0.0417787 0.0414583 0.0823187 -0.162285 0.13787 0.123136 -0.0541953 -0.0307916 -0.169754 -0.0103074 -0.12649 -0.138871 -0.0580168 -0.149059 -0.132616 -0.149022 -0.133622 -0.127474 -0.111893 -0.173182 -0.172627 -0.164077 -0.149722 -0.153455 -0.150426 -0.165758 -0.176256 -0.182148 -0.162531 -0.164745 -0.16324 -0.170821 -0.19303 -0.179218 -0.193648 -0.185542 -0.195036 -0.165233 -0.143131 -0.188373 -0.184838 -0.188738 -0.131921 -0.178191 -0.193144 -0.195519 -0.193956 -0.183591 -0.195017 -0.190727 -0.176822 -0.164035 -0.178296 -0.189115 -0.176813 -0.180678 -0.173772 -0.186364 -0.0577516 -0.191557 -0.18056 -0.194728 -0.186931 -0.197204 -0.199288 -0.192453 -0.184813 -0.186851 -0.195102 -0.193474
internal_weight=0 10905.9 10669.5 7329.46 3115.68 4213.78 3246.05 3340.03 974.288 2483.95 2141.39 450.537 1209.3 5162.03 1121.65 1019.74 535.758 1106.49 982.111 2233.54 1274.65 430.314 4925.71 4702.13 294.294 236.321 762.094 989.571 537.118 542.354 585.896 720.858 340.384 452.454 223.585 357.403 678.162 785.031 489.623 635.044 439.757 491.071 4600.52 219.725 676.595 568.994 123.837 1512.68 707.885 315.55 101.607 219.392 168.026 136.843 158.194 277.862 205.273 272.713 219.435 213.209 357.86 428.989 201.97 112.484 365.584 596.503 145.381 523.75 326.993 171.748 804.792 211.135 133.706 206.055 138.881 549.691 254.539 187.092 153.11 271.73 169.863 762.268 462.798 340.941 169.664 101.868 187.718 108.267 714.747 500.041 214.706 142.946 295.152 214.164 4004.01 171.457 3832.56 560.312 3272.24 134.697 91.0373 517.204 415.186 359.929 104.578 98.455 315.242 3211.62 2270.46 210.724 2059.73 695.566 155.413 88.4257 171.277 357.095 123.669 145.757 104.237 184.418 106.069 109.738 145.453 540.153 154.581 1364.17 941.165 138.361 121.914 101.579 850.781 657.87
internal_count=1144240 566512 563001 265707 118086 147621 142679 297294 26366 80059 91720 16828 46401 577728 50670 41050 30147 87685 81008 209609 33658 21934 556125 537401 10272 21603 62620 32546 14398 37839 20523 46471 21642 18148 18724 9981 56718 15875 17783 42264 43169 39123 528108 13855 32363 25067 12068 163138 73819 12186 9293 13931 14359 13131 14358 20971 14176 13393 10626 18152 13962 26336 16197 9535 12954 62588 9780 9538 18835 11976 89319 11105 13815 15928 9623 59461 26898 17595 13325 28810 17659 84733 48773 35375 17409 11151 19724 11342 79913 56517 23396 15817 32563 23682 465520 19779 445741 62150 383591 12380 10079 57501 46056 40408 10804 10925 35225 376545 262803 24264 238539 81543 17530 10061 17966 40700 13317 16038 11589 20649 9111 12996 16303 64013 18429 156996 113742 16192 12719 11317 97872 75540
is_linear=0
shrinkage=0.200792


Tree=3
num_leaves=133
num_cat=0
split_feature=143 429 2 450 38 337 122 245 16 95 2 9 16 95 17 325 229 246 217 325 79 488 429 59 381 14 23 473 2 325 458 17 84 47 9 430 91 173 325 388 38 38 311 295 20 336 285 322 172 95 488 300 320 95 0 458 389 255 27 123 220 259 481 488 12 247 128 14 159 193 285 95 303 189 77 484 292 70 9 53 242 381 100 308 486 292 169 397 70 133 253 348 285 233 23 149 126 194 316 69 366 316 111 423 210 398 53 69 470 79 242 65 254 252 446 244 124 384 230 89 78 373 480 123 205 79 112 285 375 285 242 297
split_gain=2349.79 694.51 422.481 409.301 502.419 396.028 314.977 191.491 159.381 154.167 140.027 140.353 119.44 149.868 76.1564 66.4616 64.5904 61.8401 59.6918 56.2656 49.6675 74.2707 47.9017 44.9412 44.7514 35.1235 51.6141 36.5623 40.4815 34.6639 30.3463 38.3227 29.4681 29.1332 24.1407 26.2302 23.5722 23.3789 23.2934 19.4854 19.4189 47.7402 18.4903 17.9225 17.8622 16.9684 14.6723 13.3134 12.452 12.711 12.6339 11.7196 11.6188 10.9141 9.36895 8.39289 7.93522 7.21235 8.33702 8.13179 11.6774 6.50315 6.43259 6.08031 5.7938 5.41133 8.91383 5.2393 5.17815 5.04679 4.96096 4.93675 4.85181 4.00063 6.61012 3.93174 3.68256 3.49114 3.43964 3.15828 2.92221 2.64889 2.54954 2.47367 2.37369 2.31083 2.23701 2.10151 2.03426 2.00498 1.90243 1.89047 1.83094 1.74015 1.9491 1.64963 1.85002 2.57253 2.16953 1.40743 1.272 1.24905 2.08806 1.17076 2.61323 1.06254 1.36578 1.48867 0.988921 0.91595 0.833595 0.68404 0.673081 0.668877 0.608409 0.58484 0.803933 0.529536 0.515476 0.481203 0.437236 0.433546 0.398302 0.388049 0.466161 0.601851 0.584599 0.375914 0.369824 0.286846 0.486429 0.629823
threshold=76.500000000000014 0.042857142857142858 1.0000000180025095e-35 0.12857142857142853 25689.472409504506 -1.0000000180025095e-35 15014.491079884103 686.71331708188006 1.0000000180025095e-35 878.80414769640004 1.0000000180025095e-35 498.60253547223653 1.0000000180025095e-35 1042.0024029221152 23163.865044440205 -64.903159417813995 -753.97403012680138 35.537906199324006 -13.499999999999998 1.0000000180025095e-35 448.70068385046903 -0.11119691119691098 0.12857142857142853 1.0000000180025095e-35 -662.51011878751945 5796.2874789344305 5170.9310941049853 89.886241359175969 1.0000000180025095e-35 -1443.9876705325448 -1.0000000180025095e-35 90968.246069078872 25712.691574189805 1321.4327201834401 1788.6715343771853 1.0000000180025095e-35 1.0000000180025095e-35 1342.6403210050503 97.518307738149517 -16.499999999999996 35022.892371544811 1.0000000180025095e-35 41.500000000000007 373.72867453763803 13234.704330649201 -1169.3725783478496 1.0000000180025095e-35 51.005646776323957 595.97921457871519 3013.1283739893206 -0.027799227799227794 3858.5000000000005 1.0000000180025095e-35 3350.4301518081352 111583260.00000001 -3.3071428571428547 -221.36561200349499 70859.330955271304 10137.975175644702 120.39631878651501 29.000000000000004 1.0000000180025095e-35 -1.8519086175362147 -0.22475083056478448 -52.909457251094487 963.79338403262511 640.41084369017619 5796.2874789344305 28739.964094300303 -180.07106296455399 1.0000000180025095e-35 719.9999794754566 151675.09074022304 -1469.6952251966597 1233.5000000000002 -2302.3041428571396 151675.09074022304 -699.99999999999989 691.84479025867506 23160.278464645202 151.50000000000003 -236.89834246106997 387.75168929349508 6346.3675136465108 0.61641459700645707 133200.17662532403 1977.7052450598601 -4.4178500111112298 -1154.9999999999998 62956.017599901308 20.143288518729502 -3602.3981403295243 1.0000000180025095e-35 -96.665520447015993 1202.7565036496001 505.48158706330008 5021.8632696702607 -1.0000000180025095e-35 1943.6613657548903 142001.69244801954 -7980.7338833346994 690.55698276448209 25463.715178744056 19.287040024175603 -3.4999999999999996 -0.107142857142857 96779.738699330672 62020.680703691753 -2284.4901199903893 29.532018699103503 116.50000000000001 15014.491079884103 1.0000000180025095e-35 3220.8884938436008 0.29285714285714304 -1.0000000180025095e-35 6331.3498555529459 -13584.089961598 -101.32248399728549 6.0000000000000009 1.5000000000000002 606.65075355812507 -41.041921350425291 4320.4585035263253 30152.047271121904 187.65431667234003 10.500000000000002 1.0000000180025095e-35 -1.4999999999999998 1.0000000180025095e-35 61.500000000000007 339131.27341719106
decision_type=8 10 2 10 2 8 10 8 2 8 2 2 2 8 2 8 8 10 8 8 8 8 8 2 8 2 2 8 2 8 10 2 8 2 2 10 8 10 8 10 2 2 8 8 2 8 8 10 10 10 8 8 10 8 2 10 10 8 2 10 10 8 10 10 2 8 10 2 8 10 10 8 8 10 10 10 8 10 2 2 10 10 10 8 8 8 10 10 10 10 10 8 10 10 2 8 10 10 10 8 8 10 10 10 10 10 2 10 10 8 8 2 10 10 10 10 10 10 8 8 10 10 10 10 10 8 10 8 10 10 10 8
left_child=1 3 -3 4 8 -2 7 14 29 10 -10 19 -4 15 17 39 -5 24 30 20 21 -12 57 -17 -7 27 -27 28 -11 -1 31 32 -9 36 35 55 40 43 47 -14 41 -8 61 56 45 -24 -31 -29 49 50 -30 62 63 -26 -45 -16 -15 58 59 60 -20 80 -21 -13 -32 66 85 -47 -50 -46 84 -57 -72 112 75 -75 -54 78 -62 109 92 -66 -44 -25 -23 -28 -81 -51 -68 -79 -90 -59 -6 -42 110 -93 97 122 -99 -67 -36 102 -63 104 -98 106 107 111 -73 -61 -95 -96 -38 -60 123 -116 128 -115 -88 -52 -111 -109 -97 124 129 126 -126 -104 -117 -107 131 -131
right_child=5 2 12 16 42 6 33 18 9 25 11 52 13 37 34 23 -18 -19 22 51 -22 70 44 83 53 26 65 38 48 46 64 -33 -34 -35 100 -37 73 -39 -40 -41 93 -43 82 54 69 67 -48 -49 68 87 119 -53 76 -55 -56 71 -58 91 113 79 77 101 -64 -65 81 99 88 -69 -70 -71 72 108 -74 74 -76 -77 -78 89 -80 86 -82 -83 -84 -85 -86 -87 118 -89 90 -91 -92 95 -94 94 105 96 103 98 -100 -101 -102 -103 127 -105 -106 114 -108 121 -110 120 -112 -113 -114 117 115 116 -118 -119 -120 -121 -122 -123 -124 -125 125 -127 -128 -129 -130 130 -132 -133
leaf_value=0.15216627440377065 0.48004992071388519 -0.030130938131608453 0.30510306480401733 0.14151029970157747 -0.1693408877176239 0.21535901138110697 0.0092037685497754415 0.17526375517398143 -0.064370107582478478 -0.12886782825523996 0.21411914978972466 -0.071470082408650923 0.20704500382518165 0.13243767584713215 0.0057308883511925602 0.055700642791330385 0.34499272542843495 -0.071729228529527941 -0.041361269637718627 0.0052109593093053143 0.012791433968267523 0.11775522717350825 0.034207684013836288 0.17182554382107257 0.093921835967318665 0.066713477834487028 -0.10308362289571396 -0.017887213080124007 0.064932479897457415 0.084209255906987482 -0.067971684099886909 -0.14433446877388942 -0.01086571831904534 -0.014795027690069695 -0.13066587557203579 0.0806432400107127 -0.17555885459895715 0.14882735635820313 -0.12744906920537441 0.28680650981642791 -0.15104383271701613 -0.19025139435178437 -0.10580104888295605 0.0594052131863574 -0.18423543507701085 -0.046757012198778987 0.016715755936058958 -0.078730835648679776 0.080418433155664132 -0.032709075652160156 -0.006369355382168612 -0.019244056779669907 0.0019579061472726846 -0.0039795098307262881 -0.013143693157371652 -0.040544819342101399 0.062484070378596955 -0.1938638603665134 -0.16389466500738084 -0.15633737603900566 -0.075014896769266148 -0.14522798070552498 0.061435992190922953 -0.14580651345151535 -0.11098381430584722 -0.12779966663237682 -0.17109468339941578 -0.11430523440245162 0.018729400331268027 -0.10430716999149235 0.044630789584217165 -0.13185307789033832 0.089288684874851448 -0.035405231456770908 -0.16914391891242522 -0.10924016807437641 -0.061879748938423164 -0.13264796381998092 -0.14670082466671239 -0.092191926728607418 -0.09168612907638618 -0.17656538697911681 -0.03829920802360047 0.20941218553990762 0.08493434424474236 -0.04660537752490345 -0.1349388048881324 -0.078304594379691311 -0.10047985966457587 -0.18380357253210275 -0.15367143773996078 -0.19874571049610726 -0.13021716440975714 -0.13880760867786224 -0.17894238045848729 -0.15791596646081985 -0.19934055401987322 -0.087314909212597325 -0.15039661946307573 -0.17441934463324213 -0.17531852513907459 -0.18732671872500012 -0.16954621404822295 -0.19893076614045177 -0.13824401913262452 -0.19955368004533117 -0.1473076476914596 -0.19896842074335605 -0.09271071592325518 -0.19880410863429726 -0.18103016570565597 -0.14030091692479327 -0.14082894940118076 -0.17597448018431705 -0.20227639302130435 -0.17521173913694607 -0.2022163842028849 -0.20276387326614925 -0.16849269563642086 -0.026047413326222377 -0.17185011611847203 -0.17520307008703082 -0.18714652234934115 -0.19980705663369261 -0.16090499324094126 -0.19743788081843497 -0.18902092419073066 -0.19274677263754281 -0.14812747466037307 -0.19019228578870312 -0.19534729695609188 -0.16482562347367863
leaf_weight=234.56841064943001 42.043289177585393 593.94042022898793 215.46793863316998 125.80188408354297 99.346928484737873 100.41198841063306 69.066789583768696 54.194909076206386 592.58010676689446 96.056560156866908 224.13355406420305 85.682768122758716 235.74626791570336 119.74974243203178 46.001018879469484 157.63537275837734 125.77314397040755 106.70129824522883 77.17306776996702 135.01426270278171 252.72715722210705 159.35785301588476 76.891351866535842 150.65502013498917 99.671097772661597 65.68616035906598 48.115688257385045 299.29372390732169 126.24375763069838 368.77072179550305 80.859569735825062 51.057575566228479 93.388963755685836 42.712396858260036 64.132125312462449 60.4200355168432 44.582760457415134 138.11961578531191 195.81346879107878 259.31809002021328 43.10064682783559 161.552993520163 45.198406842071563 138.32877558469772 51.815807290375233 100.39735403517261 200.43972976412624 281.24483508989215 110.45047263661399 90.497950382065028 100.67578180413693 229.03260169131681 65.105325524229556 85.113980588037521 149.14479167480022 51.643439570907503 143.99088505282998 134.35403470648453 64.490676390938461 72.387614478357136 64.11850580945611 93.668322733137757 209.08675182424486 91.991045549977571 55.800473062787205 37.577615713700652 56.621319187339395 85.911149310879409 108.99759649671614 82.657561400905252 197.39870027126744 64.332804993260652 194.95503375632688 46.885614106897265 47.79574667243287 76.554853912442923 82.725149429868907 74.151681892573833 46.598021072801203 40.279243069700897 41.615193732082844 44.740086848847568 45.038966265972704 132.84112231340259 200.771846243646 74.326583213638514 38.563823716249317 74.146327859722078 60.712218199856579 52.946054079569876 48.979723261203617 54.320849303156137 93.723267345223576 37.827348269987851 42.979044764768332 36.102846082765609 48.649129203986377 39.137025042902678 50.145132738165557 85.542530209757388 42.94417911535129 342.28692669328302 42.682683188002557 57.54411722579971 67.23197149252519 369.52543530613184 40.239913969766349 185.02642766013741 43.700478774029762 51.711817752104253 37.581867995206267 32.38909620931372 45.419074076227844 59.863056248985231 42.296649485826492 51.957006155047566 31.346875314135104 59.13496889360249 35.408149967901409 99.737947905436158 45.71376589871943 37.164950347039849 39.203004929237068 504.27050345670432 58.324780128430575 84.339960426557809 60.998487604781985 82.736435186117887 33.387744759209454 215.83613812364638 905.78517175652087 48.292157671414316
leaf_count=1912 1897 3467 3443 6839 10751 7408 6885 4212 6324 658 8990 6121 3375 4046 4618 4948 2014 6625 6835 3781 7665 6201 7065 5431 6701 4730 4494 5809 6134 7742 7423 6263 8278 4837 7596 4657 5290 5303 5756 6470 5977 19518 4537 4738 5804 5973 5768 6243 5548 6083 6008 6969 5337 5301 4580 4760 6888 17414 6353 7596 6222 9796 8048 8274 6271 4425 5760 8658 4594 8036 7790 6913 7793 4286 5796 8890 6367 7877 5467 3804 4887 5099 4697 4582 5463 6881 4861 5122 6164 6225 5278 7091 10319 4835 5938 4698 6062 4062 6582 10215 4841 42949 5520 7741 8202 52050 5862 26620 4911 4813 5047 4505 5132 7070 5920 7310 4511 6920 4515 3111 5483 5349 5065 73558 8421 12266 8930 10779 4718 30030 130702 6872
internal_value=0 0.0252406 0.117121 -0.00803708 -0.0178055 -0.134144 -0.138276 -0.0890769 0.00448181 -0.00942563 0.0219542 0.045993 0.164628 0.146007 -0.00314604 0.198323 0.24324 0.0586724 -0.120579 0.0679068 0.0921296 0.112661 -0.136603 0.141648 0.10746 -0.0508533 -0.0985825 -0.0364558 -0.00652303 0.0872103 -0.0486114 0.00560959 0.0574837 -0.17958 -0.0680662 -0.0356702 -0.181678 0.0749559 -0.0675627 0.248825 -0.186569 -0.130518 -0.158251 0.0564457 -0.07557 -0.0451524 0.0604423 -0.0473632 0.0100116 -0.00775071 0.0151785 0.01595 -0.0753544 0.0488274 0.021766 -0.0698385 0.0942461 -0.155141 -0.142915 -0.131444 -0.109228 -0.168015 0.0393751 -0.109958 -0.107986 -0.124944 -0.109915 -0.0779051 0.0497781 -0.135105 0.0824403 -0.0916092 0.0668207 -0.123759 -0.105744 -0.0811959 -0.0337653 -0.131252 -0.105186 -0.156079 -0.139947 -0.140167 -0.0721098 0.189438 0.0994576 -0.0687994 -0.130267 -0.0532427 -0.140186 -0.153958 -0.124231 -0.173307 -0.150349 -0.191085 -0.191697 -0.166267 -0.161048 -0.145799 -0.122745 -0.160191 -0.148574 -0.179749 -0.167911 -0.175519 -0.163894 -0.192572 -0.182027 -0.186722 -0.11602 -0.173445 -0.15985 -0.162336 -0.158033 -0.180363 -0.194052 -0.182049 -0.174717 -0.189287 -0.151 -0.0161623 -0.186157 -0.194993 -0.173133 -0.194902 -0.193482 -0.184455 -0.175278 -0.184851 -0.164616 -0.194677 -0.193136 -0.185554
internal_weight=0 9157.87 2434.94 6722.93 6471.36 6291.3 6249.26 2852.02 5585.06 4781.28 2720.56 2127.98 1841 1625.53 765.072 936.196 251.575 391.898 2086.94 1802.48 1229.34 976.617 1706.9 441.132 285.197 2060.72 477.562 1583.16 806.806 803.779 380.042 198.641 147.584 3397.24 373.174 266.098 3354.53 689.334 776.352 495.064 3093.29 230.62 886.297 551.214 397.673 263.2 569.21 580.539 710.75 491.302 326.657 573.134 325.504 184.785 287.474 205.678 263.741 1309.23 782.54 599.052 314.987 796.06 344.101 177.674 181.4 411.876 288.756 186.309 219.448 134.473 752.483 159.677 392.354 261.238 171.236 123.44 147.83 237.814 110.717 284.064 234.685 100.541 90.2374 283.496 360.13 122.442 114.251 164.644 166.313 127.098 109.692 526.688 193.07 2862.67 2819.57 392.334 338.013 164.588 89.2822 123.12 107.076 561.374 219.087 173.425 115.881 2744.16 337.799 297.56 108.033 169.813 75.4092 75.3681 90.0018 183.489 2406.36 158.988 116.692 118.998 73.972 200.414 97.4256 222.191 75.3059 2247.37 1743.1 203.663 119.323 125.419 85.3448 1539.44 1169.91 264.128
internal_count=1144240 383917 57271 326646 317793 760323 758426 288371 213558 198136 95123 88799 53804 50361 64331 24806 8853 26035 224040 62700 43902 36237 186494 14961 19410 103013 47947 55066 37258 15422 37546 18753 12490 470055 38296 25859 465218 25555 17808 9845 435824 26403 104235 20252 35536 21696 13510 12052 36600 26458 15253 18798 26099 12002 9318 21202 10934 150958 84041 63698 32626 95001 11829 14395 18793 43217 28577 14631 10142 13840 27247 16584 15583 29394 18972 13176 11704 25791 11689 31072 25957 11370 9234 10013 11664 11375 13180 11205 17202 14102 11442 66917 21070 409421 403444 49503 42412 20407 10644 14640 12437 69044 26095 22005 14264 393562 48274 42412 11824 17892 9882 10443 10422 20343 345288 22459 16539 13990 9376 9119 10296 31969 9763 322829 249271 29617 17351 16299 12028 219654 167604 36902
is_linear=0
shrinkage=0.200792


Tree=4
num_leaves=133
num_cat=0
split_feature=38 80 329 9 57 278 101 262 123 2 66 378 2 489 13 23 399 325 23 79 458 155 316 16 160 123 93 314 322 262 72 262 320 23 80 381 70 148 231 277 275 114 70 158 25 295 1 147 94 325 107 109 278 297 153 94 17 171 161 207 73 114 485 124 282 147 278 20 19 51 280 23 44 299 1 458 384 399 303 25 423 423 366 374 368 145 67 192 123 255 487 217 67 57 266 133 246 351 55 482 23 489 123 259 307 79 342 178 298 217 314 485 301 70 4 223 423 69 101 255 323 295 314 123 370 316 101 171 462 408 133 158
split_gain=2569.76 780.58 561.258 580.128 398.85 402.456 163.218 124.59 102.974 101.07 115.129 81.3873 99.1455 77.6579 71.554 82.5128 67.4891 85.5797 66.767 58.2976 48.4836 44.4321 41.9464 41.5702 36.1255 33.7167 30.9275 29.2972 29.1883 35.6142 27.8221 27.2337 27.5366 26.6395 19.5225 19.4951 19.1199 18.6321 18.1634 16.9109 16.603 13.913 13.4685 13.4648 13.4187 18.0618 18.3172 12.8376 12.5448 11.8779 11.3622 13.3871 11.0127 9.80634 8.92423 8.7698 8.61093 12.3143 6.79681 5.99888 5.95802 5.64292 5.32082 5.06996 4.60038 4.55737 4.82751 3.6551 3.52545 3.46385 8.73943 3.46149 3.35367 3.149 2.90953 2.54747 2.51546 2.50293 2.30466 2.29676 2.26844 2.36736 2.25135 2.21476 2.11634 2.20635 2.06542 2.02576 1.96362 1.92544 1.76399 1.67754 1.6447 1.51486 1.7069 1.37971 1.27691 3.09526 1.9093 1.37834 1.25326 1.42002 1.19589 1.15845 0.937059 1.39026 0.897409 0.811832 0.808237 0.762511 0.783909 0.75609 0.659069 1.16195 0.653015 0.545991 0.795908 0.967224 0.553332 0.61846 0.898569 0.543869 0.541644 0.531858 0.849586 0.634779 0.582531 0.510029 0.503944 1.0548 0.450815 0.383225
threshold=1.0000000180025095e-35 8.0000000000000018 -1.0000000180025095e-35 952.08362123517907 1.0000000180025095e-35 781.6243546484601 7358.0854570131714 4157.5344332396808 221.87425288941702 1.0000000180025095e-35 39.500000000000007 61.500000000000007 1.0000000180025095e-35 182.87562197516252 3.5000000000000004 3927.4361139546504 1.0000000180025095e-35 -1443.9876705325448 5170.9310941049853 1.0000000180025095e-35 -1.842857142857145 438.01088443491005 3703.9398227386905 1.0000000180025095e-35 -1.0000000180025095e-35 1.0000000180025095e-35 5145.5000000000009 465.50000000000006 -58.731298303744495 42575.882349854561 1963.7713623869552 14593.805622726451 -1448.3486008672396 10139.761840703552 1.0000000180025095e-35 -1.0000000180025095e-35 -699.99999999999989 9365.4487225827961 -38789.941087827443 8.5000000000000018 1.0000000180025095e-35 5.5000000000000009 -1369.4999999999998 10408.509422603302 484.19731620134354 12201.241930000002 202104.50000000003 9467.0835421420725 1.5000000000000002 -1.0000000180025095e-35 -1.0000000180025095e-35 3245.5680489343904 353.73384685720004 116463.98093909402 2772.5000000000005 5.5000000000000009 65501.084545540703 883.71490162398516 1.4379135785310002 1.0000000180025095e-35 1294.6881515493003 6.5000000000000009 820.56447923232702 1943.6809317137252 44574.429000369804 4520.373648825921 536.61816371807515 2990.1382697572353 2.5000000000000004 1703.3891852346253 5480.345509342651 1202.7565036496001 1135.5302858738953 -8382.0983860811029 202104.50000000003 1.0000000180025095e-35 -15629.339300543999 -3.3277351744639998 1.0000000180025095e-35 2214.3059882319853 -354.84519798349294 67.541004170884307 -21797.466062497999 -1.0000000180025095e-35 -1.0000000180025095e-35 205932.99735851001 1.0000000180025095e-35 -6033.6640425767491 58.241770543354008 302.89971212411507 -1.0000000180025095e-35 2.5000000000000004 1.0000000180025095e-35 1.0000000180025095e-35 14948.060103881251 31786.411402327503 123.74506840219051 328.93531884233408 7824.660613491601 -2582.4821676479996 1202.7565036496001 -13.712150410646398 2278.3072442503258 6.5000000000000009 97.408656398225006 624.64978114251312 1632.7200094634002 -1.0000000180025095e-35 4.5000000000000009 2.5000000000000004 3061.5000000000005 94.222550608749614 1.5000000000000002 -788.99999999999989 86.500000000000014 -4519.3452615566539 -463.12519257294497 346125.8766018296 8690.0989355925121 24850.502700605703 -1.0000000180025095e-35 940.8026950000002 3562.5000000000005 4841.3635416628704 -35.986097296659246 1.0000000180025095e-35 8690.0989355925121 102.08767324506 -6398.7211369200895 0.14700996677740852 86344.750885922011 20315.090788683705
decision_type=2 10 8 2 2 8 8 10 10 2 2 8 2 8 2 2 10 8 2 8 10 8 8 2 10 8 8 10 10 10 8 10 10 2 8 10 10 8 10 8 10 10 10 10 2 8 2 8 10 10 8 10 8 10 8 8 2 10 8 8 10 10 10 10 10 8 10 2 2 2 8 2 2 8 2 10 10 10 10 2 10 10 10 10 10 8 2 10 10 8 10 10 2 2 8 8 10 8 2 10 2 10 10 10 8 8 10 10 8 10 8 10 10 8 2 10 10 10 10 8 10 10 8 10 8 8 10 8 8 10 10 8
left_child=1 2 -1 4 5 7 13 11 9 -7 16 12 -4 -6 24 -16 17 21 38 20 48 -11 35 -13 50 30 58 -22 34 -30 -8 32 60 37 -9 -19 42 54 -5 56 67 92 -29 -42 45 46 -34 -43 -14 -46 51 -2 -40 -25 -10 -37 57 82 -18 69 62 -17 74 131 68 66 -58 71 76 70 -41 -26 -54 -51 -12 83 -52 -48 -31 -63 -68 -82 -20 111 85 -71 -38 -70 91 -77 -53 -89 -21 94 127 -45 97 99 -99 121 101 -96 -91 -95 105 -87 -92 -84 -101 110 -86 -35 113 -105 123 -116 117 -117 119 120 -118 -73 -65 124 126 -126 -102 -69 129 -127 -67 -33
right_child=14 -3 3 18 6 8 25 28 33 10 31 23 19 -15 15 61 26 22 39 41 27 -23 -24 53 40 -27 -28 36 29 78 -32 63 44 75 -36 55 86 -39 52 59 43 47 -44 95 49 -47 77 -49 -50 73 64 90 72 -55 -56 -57 65 -59 -60 -61 -62 79 -64 122 -66 130 80 93 87 84 -72 96 -74 -75 -76 89 -78 -79 -80 -81 81 -83 107 -85 109 104 -88 88 -90 102 106 -93 -94 103 100 -97 -98 98 -100 108 114 -103 -104 112 -106 -107 -108 -109 -110 -111 -112 -113 -114 -115 115 116 118 -119 -120 -121 -122 -123 -124 -125 125 128 -128 -129 -130 -131 -132 -133
leaf_value=0.32076307553384709 -0.057068995502299887 0.53158750352118689 0.0068997450441171731 0.057977492837637333 0.37239202250139319 -0.072572417626485017 0.20894528829907288 -0.029377372659195683 0.0071046143512717317 0.16483031292934031 -0.10272299811350365 0.10275147143601471 0.24121752245606148 0.1452118417779491 0.16655363959436897 -0.056255623640138516 0.033395962102655406 0.084317817916732568 -0.15236454240230479 0.016793875141220781 0.048588186174828345 0.060454463620761283 -0.052522047832092029 -0.010991231950133276 -0.1301884641120542 -0.0095920274723585754 -0.079781223836454182 0.13081788392470112 0.01253859861291556 -0.10221055439026359 0.065438709155367134 -0.10048367075003201 -0.012472795740374009 -0.11458841384895936 0.092083872815467857 -0.024154010353150044 0.086631851340138843 -0.11677396610933269 -0.0069011536459298688 -0.18270093157013287 -0.04264350962411298 0.057860775310677702 0.20703355154172579 -0.13520632395114249 0.010470877784312844 -0.063881163485504724 0.12448996081303726 0.16520313106359313 0.16361457885450767 -0.058276718724869989 -0.11311306965605845 -0.11334036128054674 -0.065953070391424728 0.038486494145659619 -0.067633511959543313 0.03698335805865155 -0.075107192262683684 -0.010562870680321875 -0.022087597065731778 -0.092384588961906725 -0.13093243155664405 -0.12914470666222816 -0.012506894330454457 -0.13685110889982161 -0.098172932154406811 -0.19212861285165792 -0.09514640486889385 -0.14986811929343849 -0.193932035398062 -0.12173287547681241 -0.051825114980713412 -0.18128921608138401 -0.12190433203789 -0.12968539291475439 -0.04691913366391115 -0.11434175794472357 -0.16062334527542471 0.068983445198171789 -0.1486766016343839 -0.19221433614762323 -0.13012297437360842 -0.19249026979849299 -0.11570181286351935 -0.14528346642826223 -0.15358069997600995 -0.12853352025796716 0.12027890021306427 -0.16575526024802648 -0.18625964942927811 -0.13551187561659228 -0.18041223783097124 -0.10819378185854976 0.048597779256042639 -0.15000011360817497 -0.19742128035802886 -0.18461674793471622 -0.19649169837616334 -0.1211554352636086 -0.17517461612341237 -0.14158522840791399 -0.15020867498704546 -0.14599048064152298 -0.17603743911375705 -0.19282498725155162 -0.19696628243688982 -0.17983272300917003 -0.13950287999980129 -0.0780310104537323 -0.17927958889997353 -0.19497123325031246 -0.18442847683415667 -0.076020965302418184 -0.20206634144061819 -0.15373300402067447 -0.19864500691683026 -0.14834515413747718 -0.14577406020127839 -0.19573626747745293 -0.20016912149691773 -0.19463856600036794 -0.19142071645686393 -0.19853848914947397 -0.16783070233213088 -0.20200869988523651 -0.16526722137299274 -0.15930470224449378 -0.18756493504419425 -0.1798410650384831 -0.19457430507685589 -0.1962732528117426 -0.16016271101923116 -0.077289290729390531
leaf_weight=231.91602588025853 138.96121052512899 117.80248560849577 349.09040458314121 65.725632695946842 182.427831673529 883.03519707359374 99.126212779432535 106.9639901756309 139.67194630159065 294.39355346374214 113.54456550255418 249.6498503065668 212.2744532325305 90.889703736174852 53.152684367727488 30.16361866844818 220.58943698555231 249.78504861518741 43.12947868462652 128.22020046645775 174.96703419834375 372.4848033846356 281.20820281794295 438.87525560939685 69.483693982008845 101.95407056994736 256.00114212697372 177.55461128801107 132.76204040832818 84.558776392135769 120.89993185224012 57.758712662849575 123.92727005109191 40.853954090271145 106.4469461296685 157.18363509187475 154.86364039033651 147.39962496422231 102.26874451013282 50.659516742452979 59.218435205519199 101.66621921351179 197.42317937267944 38.162939803674817 70.398512938525528 85.137856381945312 61.908139448612928 80.476854623295367 138.96557293972 45.781887882389128 88.096138346008956 43.500172709580511 101.85283828014508 255.54050980461761 119.54637018358335 237.56582972640172 69.134821973741055 69.586387932766229 149.24104196717963 47.4534846781753 78.197537523228675 54.868336387909949 55.306965911295265 45.351665443275124 57.007265459746122 38.059183864854276 33.730999740771949 48.753286635503173 114.17081783665344 52.344165906775743 34.635406194254756 230.61895414255559 74.991375749930739 54.581781795714051 56.370852489490062 40.795109019149095 91.695687948260456 69.548725822009146 87.63886144477874 40.434462649282068 61.004784361459315 41.050127867143601 45.946377938613296 63.107659049797803 49.407531362492591 35.403426762204617 140.09317608457059 42.097931986674666 57.562999154441059 41.890779710840434 50.092676860745996 39.627893060445786 134.14152150740847 61.380007803905755 38.427025065757334 56.543593876529485 115.40825573727489 65.039985729847103 44.380064313765615 49.326383750420064 42.615576719399542 49.557786819525063 98.128143034875393 64.888285231776536 38.301026306580752 53.465116451494396 38.033967601135373 46.314408847596496 42.862800267059356 138.08826920157298 101.33137419447303 41.122614648658782 48.156357124913484 58.107017463073134 836.33657764270902 37.445818856358528 32.118907880503684 32.374845907092094 224.98838117578998 109.67122555524111 37.90806159703061 108.306824285537 45.665150220040232 92.781370908953249 43.507867668755352 56.304116331506521 27.814949522260576 43.145578863099217 345.80263891164213 69.560706859454513 33.39566948544234 57.124033310916275
leaf_count=2280 8697 1160 4744 3035 8534 5237 4820 5955 7210 5614 9718 2569 5731 4815 4990 4175 8743 8316 4939 3482 6490 4713 7070 7790 5894 7706 5230 6851 3475 3904 5840 4499 9408 4593 3362 6286 4553 5953 7612 6701 4705 7498 7629 4133 6643 3825 4150 6292 7220 4860 6986 4610 7491 8318 7111 5465 8360 6798 3905 6533 8896 8375 5376 4734 7249 5186 4879 5728 15479 7545 4700 29971 7366 5444 5027 4593 7771 5432 5154 6444 8168 6004 5092 7958 6981 5193 6273 4958 7570 5305 5777 4626 5650 9528 5625 8133 15208 7775 6849 6861 7127 7017 12922 10657 5763 7913 5032 4728 5981 20639 14911 4568 8054 9715 144491 6540 5386 5762 39665 19240 6445 16867 5122 15873 6814 9342 4761 5289 56388 11669 4943 4507
internal_value=0 0.0175799 0.0118465 0.00491069 0.0239645 0.0125867 0.18273 0.0649975 -0.0246833 -0.0123555 0.0040609 0.0810316 0.104068 0.296845 -0.167489 -0.0431205 0.0297373 0.0516912 -0.113929 0.124743 0.147816 0.106531 0.012186 0.0324797 -0.172985 0.085861 -0.0261311 0.121752 -0.0257504 -0.0656087 0.130091 -0.051751 -0.0352618 -0.0940553 0.0312061 0.0404178 0.14086 -0.0597747 -0.0369867 -0.138441 -0.182126 0.0626536 0.170945 -0.117746 -0.00682422 0.0162111 0.0429116 0.105288 0.210514 -0.0527596 -0.133565 -0.100536 -0.0593489 0.00721625 -0.0273631 0.0126393 -0.110396 -0.0792113 0.0110062 -0.1609 -0.0831812 -0.131947 -0.0666019 -0.116996 -0.151794 -0.133524 -0.118298 -0.185295 -0.15885 -0.166773 -0.129557 -0.172805 -0.0896794 -0.0971116 -0.0842096 -0.136827 -0.137344 0.0951236 -0.125859 -0.155903 -0.140289 -0.155209 -0.114495 -0.117008 -0.173551 -0.15643 0.102613 -0.174105 -0.157853 -0.152729 -0.146425 -0.137844 0.0330547 -0.189068 -0.190719 -0.164706 -0.177319 -0.173225 -0.143065 -0.18088 -0.191904 -0.168453 -0.163913 -0.173666 -0.170712 -0.159396 -0.162756 -0.0967913 -0.159111 -0.184192 -0.174318 -0.0952415 -0.182153 -0.174357 -0.192941 -0.195558 -0.190118 -0.17032 -0.193534 -0.185226 -0.170484 -0.186801 -0.152394 -0.187884 -0.185646 -0.188474 -0.164962 -0.16394 -0.190615 -0.179736 -0.177189 -0.0889506
internal_weight=0 10679.1 10561.3 10329.4 8902.08 8306.78 595.298 3452.17 4854.61 4122.09 3239.06 2933.8 1989.74 273.318 4220.46 178.619 2218.45 1592.62 1427.28 1640.65 1196.14 666.878 925.743 944.066 4041.85 321.98 625.832 844.902 518.371 304.96 220.026 1020.6 814.704 732.516 213.411 644.535 669.935 406.618 344.839 1082.44 3281 444.505 374.978 153.925 511.284 340.522 255.384 182.143 351.24 170.762 760.847 270.588 279.113 694.416 259.218 394.749 481.352 204.977 369.83 601.089 303.42 125.466 225.222 205.9 490.259 276.376 204.921 3127.07 433.251 553.636 85.2949 725.427 176.844 100.364 169.915 325.898 179.792 131.457 172.198 95.3028 135.786 102.055 135.39 145.084 468.341 179.514 294.957 253.46 139.289 180.814 131.627 81.7258 262.362 2401.65 2169.11 94.7065 655.943 540.535 109.42 431.115 2077.22 87.9848 140.019 232.532 127.17 88.8685 88.1266 92.2608 92.1892 288.827 150.739 81.9766 171.152 122.995 1989.23 1310.84 474.507 69.8207 404.687 179.698 70.027 338.926 91.0168 678.387 585.606 515.175 70.4305 91.8989 471.667 125.865 71.4549 114.883
internal_count=1144240 528008 526848 524568 353088 321373 31715 112940 208433 148220 142983 91090 72413 13349 616232 23984 55342 37464 171480 67669 44747 10327 27137 18677 592248 18366 17878 31796 21850 12533 10660 87641 68779 60213 9317 20067 25306 20274 25504 145976 513493 22922 14480 16971 39762 22815 18990 13790 12951 16947 78755 24116 22469 16108 14321 11751 59097 21557 12648 86879 29017 18994 20121 18862 54639 37540 27411 496522 47390 80346 11401 95406 14857 10304 14745 39939 14757 9582 9058 14819 19051 14172 14759 17119 68945 26414 10826 32633 17154 22820 15419 9584 9132 401116 363162 12266 89512 74304 14624 59680 352145 12642 18227 37954 18869 13106 10809 9820 12842 42531 21892 9161 28426 20372 339503 227529 83038 12302 70736 31071 11831 46838 9856 111974 96101 84213 11888 11017 77399 21011 10129 9006
is_linear=0
shrinkage=0.200792


Tree=5
num_leaves=133
num_cat=0
split_feature=122 143 357 17 61 93 16 84 158 80 321 422 16 102 276 27 95 8 209 262 83 120 430 102 83 408 17 59 84 485 169 336 15 38 229 247 157 430 93 143 83 327 40 77 192 481 292 485 15 6 27 27 17 59 480 72 292 59 40 382 8 247 280 40 186 485 234 439 367 99 291 145 237 177 244 101 233 458 371 132 8 366 12 239 422 230 282 254 66 325 230 40 57 371 130 458 244 66 430 220 284 137 244 327 468 485 485 59 300 153 330 15 259 153 88 255 292 183 20 356 441 101 231 333 280 285 468 233 301 485 382 5
split_gain=1364.88 430.23 301.49 245.554 243.278 186.295 140.458 115.626 92.62 86.5927 78.8363 72.8897 67.5265 55.724 51.752 50.726 43.063 41.7094 40.0457 37.8362 36.6496 36.4919 41.1951 34.1187 25.1514 24.2163 23.1822 22.4411 22.8139 21.6337 27.3521 31.3293 21.5965 19.9291 19.1481 18.474 17.961 17.0511 16.7031 15.4843 14.2948 24.7603 14.1611 14.1083 13.4121 13.0439 12.9971 12.6458 12.3985 11.8293 11.4999 11.1996 16.8481 11.0972 14.1707 10.4978 9.24596 7.53308 9.93656 7.40164 7.39945 7.1862 7.21987 6.92311 6.77195 6.3663 6.15082 5.98936 5.93424 5.92616 5.88783 5.79476 5.40375 5.08035 5.03251 4.21609 4.13679 3.91679 3.91005 3.90562 3.69226 3.60371 3.56755 3.5194 4.27527 3.51744 3.11416 3.05333 2.79786 2.78771 2.76518 2.7266 2.34853 2.26092 2.21789 2.12071 2.66866 2.09098 2.04234 1.96852 1.94564 1.86487 1.75339 1.73828 1.64707 1.55953 1.45639 1.33949 1.29934 1.29101 1.28279 1.10514 1.06828 1.25085 1.04628 1.67664 1.043 1.01872 1.008 0.966305 0.959677 0.953176 0.927361 0.916205 1.11299 0.881938 0.864014 0.807181 0.70853 0.706681 0.620466 0.572378
