tree
version=v4
num_class=1
num_tree_per_iteration=1
label_index=0
max_feature_idx=255
objective=binary sigmoid:1
feature_names=numero_de_cliente foto_mes mrentabilidad mrentabilidad_annual mcomisiones mactivos_margen mpasivos_margen cproductos mcuenta_corriente mcaja_ahorro cdescubierto_preacordado mcuentas_saldo ctarjeta_visa_transacciones mprestamos_personales cpayroll_trx mcuenta_debitos_automaticos mcomisiones_mantenimiento ccomisiones_otras mcomisiones_otras mtransferencias_recibidas chomebanking_transacciones ccajas_transacciones ctrx_quarter Master_Fvencimiento Master_msaldopesos Master_fechaalta Visa_Fvencimiento Visa_mconsumospesos Visa_mpagominimo ctrx_quarter_normalizado mpayroll_sobre_edad vm_status01 vm_Fvencimiento vm_msaldototal vm_msaldopesos vm_fechaalta vm_mpagominimo vmr_mpagominimo fm_pago_trec fm_cseg_cinv fm_cuenta_sueldo fm_pres_sueldo fm_sueldo_acr exp_tarjp_mcauto exp_tarjp_limsueldo exp_rvisa_ind3 exp_rvisa_transtarj exp_consultas_transtarj fm_cs_pres cliente_edad_lag1 mrentabilidad_lag1 mrentabilidad_annual_lag1 mcomisiones_lag1 mactivos_margen_lag1 mpasivos_margen_lag1 cproductos_lag1 mcaja_ahorro_lag1 mcuentas_saldo_lag1 ccaja_seguridad_lag1 ccomisiones_otras_lag1 mcomisiones_otras_lag1 mtransferencias_recibidas_lag1 ctrx_quarter_lag1 Master_Fvencimiento_lag1 Master_mpagospesos_lag1 Master_fechaalta_lag1 Visa_Fvencimiento_lag1 Visa_msaldopesos_lag1 Visa_mpagominimo_lag1 vm_status01_lag1 vm_Fvencimiento_lag1 vm_fechaalta_lag1 vm_mpagominimo_lag1 vmr_msaldopesos2_lag1 vmr_mpagosdolares_lag1 vmr_mpagominimo_lag1 fm_flujo_vs_capital_lag1 fm_rat_hb_lag1 fm_cons_saldo_lag1 fm_ind3_lag1 fm_mcauto_lag1 fm_com_sueldo_lag1 exp_rvisa_ind3_lag1 exp_ind3_transtarj_lag1 fm_cacr_suel_lag1 mrentabilidad_annual_delta1 mcomisiones_delta1 mactivos_margen_delta1 cproductos_delta1 mcuenta_corriente_delta1 mcaja_ahorro_dolares_delta1 mcuentas_saldo_delta1 mprestamos_personales_delta1 ccomisiones_mantenimiento_delta1 mcomisiones_mantenimiento_delta1 mcomisiones_otras_delta1 mtransferencias_emitidas_delta1 chomebanking_transacciones_delta1 ctrx_quarter_delta1 Master_mpagospesos_delta1 Visa_mconsumospesos_delta1 Visa_mpagominimo_delta1 vm_status05_delta1 mv_status07_delta1 vm_cconsumos_delta1 vm_mpagominimo_delta1 vmr_mconsumospesos_delta1 fm_flujo_vs_capital_delta1 fm_trans_ctarj_delta1 fm_ant__edad_delta1 fm_cconsultas_delta1 fm_ind3_delta1 fm_eftarj_delta1 fm_cuenta_sueldo_delta1 exp_consultas_transtarj_delta1 mrentabilidad_lag2 mrentabilidad_annual_lag2 mcomisiones_lag2 mactivos_margen_lag2 mpasivos_margen_lag2 mcuenta_corriente_lag2 ccaja_ahorro_lag2 mcaja_ahorro_lag2 mcaja_ahorro_dolares_lag2 mcuentas_saldo_lag2 ccaja_seguridad_lag2 mttarjeta_visa_debitos_automaticos_lag2 mcomisiones_mantenimiento_lag2 ccomisiones_otras_lag2 ctrx_quarter_lag2 Master_Fvencimiento_lag2 Master_fechaalta_lag2 Visa_Fvencimiento_lag2 Visa_mconsumospesos_lag2 Visa_cconsumos_lag2 vm_Fvencimiento_lag2 vm_Finiciomora_lag2 vm_mpagospesos_lag2 vm_mpagominimo_lag2 fm_rat_hb_lag2 fm_cons_saldo_lag2 fm_ind3_lag2 exp_ind3_transtarj_lag2 fm_cacr_suel_lag2 mrentabilidad_delta2 mpasivos_margen_delta2 cproductos_delta2 mcuenta_corriente_delta2 mcaja_ahorro_dolares_delta2 mcuentas_saldo_delta2 ctarjeta_debito_delta2 mautoservicio_delta2 ctarjeta_visa_transacciones_delta2 mprestamos_personales_delta2 mttarjeta_visa_debitos_automaticos_delta2 mpagomiscuentas_delta2 mcomisiones_otras_delta2 ctransferencias_recibidas_delta2 tcallcenter_delta2 chomebanking_transacciones_delta2 ctrx_quarter_delta2 Visa_mpagado_delta2 Visa_mpagominimo_delta2 vm_status03_delta2 vm_status05_delta2 vm_msaldototal_delta2 vm_cconsumos_delta2 vmr_msaldopesos_delta2 vmr_msaldopesos2_delta2 vmr_mpagominimo_delta2 fm_trans_ctarj_delta2 fm_ant__edad_delta2 fm_ind2_delta2 fm_lim_sueldo_delta2 fm_pago_saldo_delta2 fm_cconsultas_delta2 fm_ind3_delta2 fm_prop_pp_delta2 fm_cuenta_sueldo_delta2 exp_ind3_consultas_delta2 exp_ind3_transtarj_delta2 mrentabilidad_tend6 mrentabilidad_annual_tend6 mcomisiones_tend6 mactivos_margen_tend6 mpasivos_margen_tend6 cproductos_tend6 mcuenta_corriente_tend6 mcaja_ahorro_tend6 mcuentas_saldo_tend6 ctarjeta_visa_transacciones_tend6 cprestamos_personales_tend6 mprestamos_personales_tend6 mplazo_fijo_dolares_tend6 ctarjeta_visa_debitos_automaticos_tend6 mttarjeta_visa_debitos_automaticos_tend6 ctarjeta_master_debitos_automaticos_tend6 cpagomiscuentas_tend6 ccomisiones_mantenimiento_tend6 mcomisiones_mantenimiento_tend6 tcallcenter_tend6 ccallcenter_transacciones_tend6 thomebanking_tend6 chomebanking_transacciones_tend6 ccajas_consultas_tend6 ctrx_quarter_tend6 Visa_msaldopesos_tend6 Visa_mconsumospesos_tend6 Visa_mpagado_tend6 Visa_mpagospesos_tend6 Visa_cconsumos_tend6 Visa_mpagominimo_tend6 vm_mfinanciacion_limite_tend6 vm_msaldototal_tend6 vm_msaldopesos_tend6 vm_mconsumospesos_tend6 vm_fultimo_cierre_tend6 vm_cconsumos_tend6 vm_mpagominimo_tend6 vmr_Master_mlimitecompra_tend6 vmr_msaldototal_tend6 vmr_msaldopesos2_tend6 vmr_mpagado_tend6 vmr_mpagospesos_tend6 vmr_mpagominimo_tend6 fm_flujo_vs_capital_tend6 fm_trans_ctarj_tend6 fm_ant__edad_tend6 fm_cons_saldo_tend6 fm_pago_saldo_tend6 fm_cconsultas_tend6 fm_cuenta_sueldo_tend6 exp_rvisa_limsueldo_tend6 exp_ind3_consultas_tend6 rf_001_015 rf_001_014 rf_002_022 rf_003_015 rf_004_027 rf_004_021 rf_007_023 rf_007_019 rf_008_013 rf_009_023 rf_010_030 rf_012_022 rf_012_020 rf_013_015 rf_014_026 rf_014_021 rf_015_022 rf_017_015 rf_018_023 rf_019_015 rf_020_022 rf_020_016
feature_infos=[31117730:214034971] [201909:202107] [-150186.45999999999:894482.14000000001] [-689480.28000000003:6246624.6799999997] [-84202.320000000007:322021.44] [-174629.82000000001:210784.64000000001] [-38673.910000000003:667148.64000000001] [3:17] [-1969310.3400000001:15968930.32] [-13337.24:17738218.199999999] [0:1] [-2007533.1899999999:251511970.90000001] [0:276] [0:5864999.6900000004] [0:86] [0:17886287.620000001] [-15756.950000000001:6916.8100000000004] [0:292] [-84202.320000000007:322021.44] [0:173293051.77000001] [0:4914] [0:1] [0:2529] [-2914726:5145] [-868111.60999999999:2759755.96] [1:7724] [-2914726:6455] [-26698.470000000001:2300039.1800000002] [0:1867216.5900000001] [0:2529] [0:351900] [0:9] [-2914726:6455] [-1138009.01:4561937.5800000001] [-869450.10999999999:5053168.8799999999] [1:12730] [0:2924887.23] [0:57.282048240746199] [0:1495729] [0:1892.25] [1.7960164004219401e-07:300] [0:41109.879848519602] [0:16187400] [0:4629552637.5880003] [0:526781905622934] [0:209432563200] [0:1102969.7129629599] [0:229.92211120208901] [0:59564.643144130299] [19:98] [-145843.72:656056.41000000003] [-634803.01000000001:6040546.04] [-89120.539999999994:212207.64000000001] [-160618.48000000001:212702.26000000001] [-38393.760000000002:551252.78000000003] [3:17] [-16718:15399102.67] [-1854667.6799999999:99581433.409999996] [0:8] [0:250] [-89120.539999999994:212207.64000000001] [0:99835732.560000002] [0:2528] [-2252:5115] [-1745062.21:83139.720000000001] [1:7693] [-2914756:6424] [-532847.62:3315090.3799999999] [0:1846935.4199999999] [0:9] [-2914756:6424] [1:12699] [0:2904606.0600000001] [-1055.0710526314399:279.52459677419398] [0:0.0275049730036942] [0:191.072935920372] [-6022182:20678456.5] [0:1] [-285735.5:11889.682432432401] [0:58410000] [0:4474739.2549999999] [-32.441212121212097:88994] [0:96318596000] [0:408000000] [0:11] [-349678.62:844173.27000000002] [-175433.82999999999:321638.20000000001] [-122187.67999999999:129230.74000000001] [-6:4] [-7056915.9500000002:5112790.7300000004] [-56221534.909999996:38523149.619999997] [-42567921.869999997:189919756.78999999] [-928550.55000000005:4926599.6900000004] [-19:22] [-18383.099999999999:11183.24] [-175500.79999999999:321638.20000000001] [-16971796.710000001:166331400] [-9546:1195] [-595:295] [-1728483.8400000001:1411468.7] [-1617633.8100000001:2299080] [-1020287.13:796994.84999999998] [-1010:1010] [-10:10] [-124:108] [-2857873.7400000002:2205427.6800000002] [-149.068480848576:57.700635557620302] [-20678524.500274502:8211000] [-74.6666666666667:83.333333333333002] [-4.7304409672830801:0.58627450980392004] [-4.7273878187123399:4.3307333402863302] [-56649999.992395498:155519997.47314501] [-28:39.5] [-299.99982949711301:299.99996538320698] [-228.33936887379701:178.04372400527899] [-202220.12:663283.27000000002] [-525828.21999999997:6097538.8799999999] [-69804.110000000001:224536.25] [-189948.63:171632.17000000001] [-38131.099999999999:561915.93000000005] [-1709759.72:12524040.32] [2:12] [-10365.16:15640251.109999999] [-9362.4200000000001:118565715.40000001] [-1715714.1899999999:121097213.26000001] [0:8] [0:524251.52000000002] [-11325.73:5054.2600000000002] [0:235] [0:2732] [-2252:5084] [1:7663] [-2914787:6394] [-32685.119999999999:2230459.5] [0:193] [-2914787:6394] [-1:323] [-3694514.46:83561.570000000007] [0:2315502] [0:1] [-2345962:136843.33333333299] [0:53460000] [0:125090533.333333] [0:11] [-352951.12:322310.56] [-250214.04000000001:186774.89000000001] [-7:5] [-7961841.1399999997:6679287.8399999999] [-117516217.42:98593081.269999996] [-119167347.11:165005887.69] [-3:5] [-381278.85999999999:926488.40000000002] [-309:180] [-908627.41000000003:5864999.6900000004] [-167271.10999999999:309371.40999999997] [-17318597.920000002:99592100.950000003] [-136755.48999999999:321870.89000000001] [-421:504] [-1:1] [-10173:1967] [-1252:561] [-1994633.6000000001:2422775.0600000001] [-1087887.1200000001:1165645.29] [-10:10] [-1010:1010] [-3156116.77:3984563.1600000001] [-140:132] [-57.971157742831501:99.378987232384205] [-1056.5395315639701:1724.7121252623299] [-48.1275936211958:28.412452449738598] [-102.333333333333:81.999999999999702] [-5.1207843137254896:0.61568627450979996] [-67880432.8852451:149960796.60102201] [-67564795.168366507:115005328.333333] [-3518929:3518929] [-4.2904594411483901:4.06044301054642] [-53459999.940493502:155519999.94052401] [-1.7324187225713401:1] [-299.99997854666799:299.99996109978701] [-1060607.6058807899:1580375.5716766799] [-125090517.738527:362879999.76209402] [-129035.39999999999:63338.4847297296] [-639758.17700000003:673414.73783783696] [-102901.35457142899:53648.243000000002] [-44616.570930232498:39402.529069767501] [-39745.476279069801:45041.361860465098] [-4:4] [-1929530.00314285:1510825.5519999999] [-2235033.5142857102:3217396.5959999999] [-19239889.850232601:32576552.146285702] [-64.342857142857099:54] [-14.257142857142901:39.314285714285703] [-214521.03828571399:918291.38428571401] [-11046892.758857099:11171987.142857101] [-5.9428571428571404:11] [-44146.773142857201:88260.451142857099] [-8.5428571428571392:5] [-26:30.257142857142899] [-6:22] [-5322.1300000000001:4629.8400000000001] [-1:1] [-52:48] [-1:1] [-2174.9428571428598:1091.13953488372] [-11:8] [-205.228571428571:357.802325581395] [-2150511.9500000002:650869.44000000099] [-525607.14000000001:376854.97342857101] [-299059.03000000003:397694.970571429] [-499404.64000000001:263311.45428571402] [-62.5:54] [-1158665.9399999999:444931.63542857202] [-48359256.154857099:41370999.368000001] [-422902.50199999998:941201.72885714297] [-453704.30628571502:898691.85400000005] [-283759.97542857198:376854.97342857101] [-2314:2759] [-45:99] [-240343.67828571401:696615.20742857095] [-0.625:0.58823529411764697] [-15.669421989734101:19.260840415873002] [-149.23509082391899:315.42422504139398] [-2.2857167063448398:3.3256060107568901] [-8.0555667845917203:1.7490332125304] [-4.0412197798073404:8.0884759830244501] [-6495403.8856802396:8211000] [-25.657142857142901:29.3333333333333] [-1.64339339339339:0.27267041901188499] [-335137.23860078398:156145.54919081999] [-502704.14285714302:23459.3240645978] [-3.9702919135521202:3.89182029811063] [-149.99998927333399:77.142823712870396] [-159166136846.961:93330086235.564194] [-225767.928426731:1532970.7915161301] [0:1] [0:1] [0:1] [0:1] [0:1] [0:1] [0:1] [0:1] [0:1] [0:1] [0:1] [0:1] [0:1] [0:1] [0:1] [0:1] [0:1] [0:1] [0:1] [0:1] [0:1] [0:1]
tree_sizes=8457 8780 8611 8546 8501 8975 8276 8978 8768 8992 8767 9217 8541 8782 9137 8652 8543 9035 8823 9022 9164 9482 8854 9161 8943 9272 9488 9182 9464 8714 10074 9285 9615 9524 9584 8936 9062 9480 9298 9848 8716 8814 9287 9056 9124 9063 9198 8799 9040 9812 9589 9288 9325 9657 9294 8820 9593 9640 9529 9079 9415 9311 9414 9478 9280 9150 9742 9179 9532 9271 9145 8923 8747 9186 9875 8955 8923 9100 9074 9653 9031 9398 9052 9534 9270 9099 9415 9108 9649 9193 9072 8846 9596 8506 9637 9045 9304 9107 9123 9747 9157 9590 8816 8727 8742 9097 9209 9753 9408 9095 8943 8943 9458 9138 9064 9651 9163 8717 9192 9531 8970 9674 9539 8968 9193 9502 9425 9141 9329 9387 9526 8872 9417 9217 9510 9298 8617 9070 8900 9422 9277 9213 9101 8717 9200 8983 9197 8858 9243 9089 9304 9079 9080 9334 9067 9314 8806 9422 8808 9851 9188 9839 9189 9658 9077 8891 9461 9519 9413 8954 9337 9319 9452 9193 8976 9177 9297 9206 9441 8733 9305 9659 9100 9673 8612 9894 9078 9290 9339 9082 9785 9784 8638 9434 9182 8404 8835 9358 9669 9422 9005 9196 9592 9534 9036 9508 9564 9424 8869 9855 8887 9284 9428 9346 8735 9394 8987 8954 9522 9385 8959 9118 9171 8636 8881 8646 8955 9076 9407 8892 9508 9690 9329 9149 8965 8870 8949 9303 9539 9447 8984 9760 9066 8741 8973 9202 8986 9675 9080 10030 8737 9424 9451 9316 9528 9188 9380 8982 9395 8953 9297 8988 8655 9078 8983 9285 9420 9416 9656 8979 9206 9180 8873 9755 9289 9089 8874 9188 9221 8729 9464 9990 8511 9140 9104 9198 9317 9581 9664 9169 9265 9418 9308 9178 8764 9000 9423 9052 9898 9791 9565 8631 9448 9326

Tree=0
num_leaves=76
num_cat=0
split_feature=253 13 236 255 235 62 248 160 6 254 240 116 209 243 254 11 1 214 167 18 29 6 209 1 190 250 5 240 254 243 48 190 117 209 152 35 105 128 40 2 12 6 71 131 225 6 195 134 171 90 190 149 2 106 124 134 57 97 144 144 3 82 172 95 170 225 95 180 44 99 44 97 111 87 95
split_gain=116048 15885 12708.3 8953.67 6539.57 4270.66 2438.1 1427.38 1326.75 726.618 670.84 593.72 460.577 440.015 358.354 221.884 203.859 167.365 147.411 137.794 113.189 82.925 77.7684 68.2527 49.2599 42.3609 33.0912 24.1396 19.2808 16.2421 15.9401 11.778 9.44487 7.92316 7.06051 6.3802 3.97663 3.35285 2.94945 2.74057 2.52974 2.19673 1.42208 1.40368 1.30513 1.29013 0.847273 1.6078 0.777474 0.971687 1.35511 0.657412 0.622121 0.801196 0.52203 0.36904 0.338316 0.295357 0.222707 0.212665 0.186569 0.149851 0.178098 0.144174 0.143877 0.124998 0.124524 0.107076 0.067912 0.254996 0.0546949 0.0454697 0.00898731 0.000879648 0.000867396
threshold=1.0000000180025095e-35 7937.2600000000011 1.0000000180025095e-35 1.0000000180025095e-35 1.0000000180025095e-35 45.500000000000007 1.0000000180025095e-35 -25.499999999999996 54.875000000000007 1.0000000180025095e-35 1.0000000180025095e-35 11194.475000000002 -592.5124285714279 1.0000000180025095e-35 1.0000000180025095e-35 28220.670000000002 202011.50000000003 1.0000000180025095e-35 1.0000000180025095e-35 302.64500000000004 82.500000000000014 394.19000000000005 1.0000000180025095e-35 202101.50000000003 -1.0000000180025095e-35 1.0000000180025095e-35 -334.13999999999993 1.0000000180025095e-35 1.0000000180025095e-35 1.0000000180025095e-35 5.3272834671872858e-05 -0.31411960132890343 980.11500000000012 -236.67128571428498 -3.4999999999999996 1557.5000000000002 5143.6050000000005 10.500000000000002 5.3819300098645655e-05 1687.1500000000003 9.5000000000000018 1138.8700000000001 2395.5000000000005 1771.5000000000002 -0.022162270756801095 1280.5250000000003 30.771142857142902 8.5000000000000018 0.041666666666669856 0.85999999999999954 -0.083554817275747484 -12714.639999999998 -247.14499999999995 -0.0013380101109454247 17556.945000000003 12.500000000000002 8785.0550000000021 -7.4999999999999991 -380.30499999999995 447.46500000000054 52098.325000000004 29.458118047160806 0.29477553847221355 535.85500000000013 0.33333333333331505 1.0000000180025095e-35 -1.0000000180025095e-35 -0.020738675709892799 0.74139869456729413 33477.67500000001 1.1043482253413803 1.0000000180025095e-35 -0.0057460903135077091 -111.13499999999998 14.975000000000003
decision_type=2 2 2 2 2 8 2 8 8 2 2 8 10 2 2 2 2 8 10 8 2 8 8 2 10 2 10 2 2 2 8 10 8 8 8 10 10 8 10 8 2 10 10 10 10 8 8 10 8 10 10 8 8 10 8 10 10 10 8 10 10 8 8 8 10 10 10 10 10 8 10 8 8 10 10
left_child=2 3 4 -2 5 6 8 -7 12 10 15 18 -1 14 16 17 -9 -4 -10 26 24 23 -13 33 -15 -17 -12 35 30 -23 -22 34 39 -21 -31 38 42 -36 44 -33 45 -37 46 -42 -11 -34 47 52 49 50 -44 -45 -29 -54 -53 58 65 -52 -48 67 64 62 -58 74 70 -50 -66 -55 69 -63 -51 -70 -71 -56 -60
right_child=1 -3 9 -5 -6 7 -8 13 11 27 19 22 -14 20 -16 25 -18 -19 -20 21 28 29 -24 -25 -26 -27 -28 36 -30 31 -32 32 40 -35 37 41 -38 -39 -40 -41 43 -43 48 51 -46 -47 55 -49 56 60 57 54 53 59 73 -57 61 -59 63 -61 -62 68 -64 -65 66 -67 -68 -69 71 72 -72 -73 -74 -75 -76
leaf_value=-4.2158066267209655 -2.9374497824407308 -3.757338933557846 -4.4781490231717731 -1.588850278053445 -3.666850115517672 -4.331824511599736 -4.7519037339954764 -4.6405222081291511 -4.1330349371638366 -4.7955783167847201 -4.7258756306472742 -4.5239018230446035 -3.9110789542640929 -4.6475045951523946 -4.7677650939757124 -4.6524220244268983 -4.450210864837973 -4.6452514047930933 -4.314498741122299 -4.7807522617182228 -4.7381729006635789 -4.7480784462942625 -4.4156763456860189 -4.6656907509745338 -4.7312419659984357 -4.7337453180485367 -4.6445788690593206 -4.8146449257177597 -4.8011633455440954 -4.7506993130279529 -4.7909665336258636 -4.7612992975046016 -4.7792571580850849 -4.7403568694368259 -4.768278122476854 -4.7919673063894912 -4.795666449098885 -4.7903210956459246 -4.7654182343225884 -4.7855916107965522 -4.7933352079736 -4.8103783665441648 -4.8012199420527448 -4.798462168169646 -4.7799547226463979 -4.7958656944919174 -4.8100333041858319 -4.7975605597173017 -4.8141668951938703 -4.8137245395053432 -4.8165650876618242 -4.8014412606237382 -4.8014744894524792 -4.8137100395113075 -4.8105685707530288 -4.8070584378917518 -4.8108326228551412 -4.8099066083570534 -4.8168458583784455 -4.8062090178379293 -4.8186439189874282 -4.811549157470699 -4.8169087422081027 -4.8121384808734451 -4.8089103613539441 -4.8091413169132755 -4.8141805912134918 -4.8093757067847127 -4.8192700393662076 -4.8173025510913261 -4.8170579769455451 -4.8169322477853411 -4.8186911492106361 -4.8101271852787528 -4.8172830864269525
leaf_weight=289.09334781393409 266.7624682970345 286.67715831659734 344.34481532406062 335.69938806537539 276.53104823827744 366.09996295906603 384.32520747557282 297.46506795659661 262.32649397011846 264.03481526952237 310.70692120119929 343.5614412073046 310.71636017039418 407.6848561335355 269.89596347138286 337.42658388987184 396.43447202909738 381.43710560072213 278.83397884014994 329.31913403235376 499.23580182995647 351.47068765293807 481.34089574217796 346.21358704380691 442.16275347303599 453.0733610233292 294.42595411837101 488.40070008579642 470.23208458162844 326.8935059197247 263.98762407153845 293.74640059564263 269.24472478125244 264.2330183852464 368.02536381408572 413.67813953477889 485.87125130556524 480.18942972552031 303.30733956024051 268.29146233946085 475.69682661350816 371.30043367855251 529.46649032365531 384.1364425830543 415.4525290094316 296.97427926585078 319.80538624711335 432.21484648436308 306.4502740483731 282.00522770453244 321.19280778523535 311.87726311199367 458.92507086787373 406.27855790499598 279.57016131374985 298.81473641376942 288.31941149104387 538.16854927316308 286.7149103730917 279.38139647990465 277.522062827833 270.0658517871052 294.3504480170086 268.01775330677629 268.36696825921535 291.64167261589319 273.13328037876636 298.5504656387493 485.70136291440576 264.95032470952719 314.20850882958621 520.2925192322582 300.16440498270094 266.07347549311817 262.35480820573866
leaf_count=30630 28264 30374 36484 35568 29299 38789 40720 31517 27794 27975 32920 36401 32921 43195 28596 35751 42003 40414 29543 34892 52895 37239 50999 36682 46848 48004 31195 51747 49822 34635 27970 31123 28527 27996 38993 43830 51479 50877 32136 28426 50401 39340 56098 40700 44018 31465 33884 45794 32469 29879 34031 33044 48624 43046 29621 31660 30548 57020 30378 29601 29404 28614 31187 28397 28434 30900 28939 31632 51461 28072 33291 55126 31803 28191 27797
internal_value=-4.64384 -2.69263 -4.71227 -2.18599 -4.49228 -4.53189 -4.35163 -4.65601 -4.27338 -4.78107 -4.73846 -4.36797 -4.05795 -4.69495 -4.59787 -4.63534 -4.53179 -4.56597 -4.22653 -4.76488 -4.73987 -4.77383 -4.46075 -4.72701 -4.69107 -4.69903 -4.68632 -4.80773 -4.77349 -4.7839 -4.75643 -4.78703 -4.79307 -4.76277 -4.7724 -4.789 -4.811 -4.78076 -4.77967 -4.7729 -4.79804 -4.80068 -4.81178 -4.80136 -4.78603 -4.78797 -4.80916 -4.80714 -4.81348 -4.8114 -4.80813 -4.80444 -4.80928 -4.80747 -4.80711 -4.81249 -4.81542 -4.8124 -4.81392 -4.81027 -4.8146 -4.81633 -4.8139 -4.81544 -4.81362 -4.81172 -4.81157 -4.81187 -4.8171 -4.81594 -4.81548 -4.81806 -4.81804 -4.81035 -4.81705
internal_weight=0 889.139 25352.4 602.462 6039.93 5763.4 2350.2 3413.2 1965.87 19312.5 7433.37 1366.06 599.81 3047.1 963.796 1516.28 693.9 725.782 541.16 5917.09 2083.3 5311.96 824.902 939.766 849.848 790.5 605.133 11879.1 1233.46 4372.19 763.223 4020.72 2845.61 593.552 1175.11 1767.77 10111.3 848.215 982.795 562.038 2283.57 784.979 9625.46 1717.35 679.487 566.219 3799.46 2363.75 5826 2804.06 1388.83 1241.66 1931.54 1443.14 857.521 1435.71 3021.94 859.361 1136.89 984.21 1415.24 2423.84 582.67 817.087 1137.71 598.092 541.5 704.829 1841.17 835.181 596.214 1005.99 565.115 545.644 549.07
internal_count=2780342 94206 2686136 63832 639942 610643 249008 361635 208288 2046194 787580 144737 63551 322846 102116 160653 73520 76898 57337 626927 220730 562812 87400 99570 90043 83755 64115 1258614 130687 463242 80865 426003 301498 62888 124505 187299 1071315 89870 104129 59549 241949 83170 1019836 181957 71993 59992 402560 250444 617276 297096 147149 131556 204650 152903 90856 152116 320180 91051 120456 104279 149947 256811 61735 86572 120543 63369 57373 74678 195076 88489 63170 106587 59875 57812 58175
is_linear=0
shrinkage=1


Tree=1
num_leaves=77
num_cat=0
split_feature=31 236 10 199 62 255 199 248 238 252 251 255 1 243 160 37 1 27 60 240 180 54 1 1 45 41 156 141 60 149 141 243 190 245 43 210 228 106 245 169 75 65 160 151 138 64 195 151 217 169 3 244 46 209 23 126 134 45 133 54 62 149 201 218 173 129 20 151 149 105 85 232 149 129 83 111
split_gain=12200.3 8834.06 1478.2 1980.29 769.333 856.459 806.374 720.514 632.761 593.83 548.021 496.696 450.528 243.515 238.358 223.45 217.747 145.392 118.313 92.1444 56.6858 49.2733 40.5784 37.7932 32.6129 27.6365 27.6003 17.0969 14.9543 12.1207 9.69141 8.75161 8.04222 7.88117 6.79389 6.6285 4.67146 4.15719 3.98812 5.0052 3.81912 3.24687 2.44123 2.15101 2.06488 1.19875 1.20286 1.09788 0.947647 0.933308 1.70092 0.854646 0.761506 0.599308 0.53003 0.374822 0.425692 0.448772 0.359212 0.33636 0.304146 0.292808 0.283886 0.283618 0.243382 0.182732 0.147132 0.129017 0.105225 0.0933596 0.0708452 0.0550526 0.0476301 0.017352 0.0129121 0.000226494
threshold=1.0000000180025095e-35 1.0000000180025095e-35 1.0000000180025095e-35 60.215714285714256 90.500000000000014 1.0000000180025095e-35 192.40385714285753 1.0000000180025095e-35 1.0000000180025095e-35 1.0000000180025095e-35 1.0000000180025095e-35 1.0000000180025095e-35 202101.50000000003 1.0000000180025095e-35 1.5000000000000002 0.0028572871632800158 202102.50000000003 3134.6400000000008 353.28500000000003 1.0000000180025095e-35 -0.00030909599085710997 509.33500000000004 202009.50000000003 202102.50000000003 0.23489103607584952 3.2828454781516103 825.16500000000008 0.0020184407623523352 786.99000000000012 -5299.3749999999891 0.17852405479693353 1.0000000180025095e-35 1.0000000180025095e-35 1.0000000180025095e-35 83.486263375805663 0.74305019305019304 -0.0058962215393667796 -0.013285144532853349 1.0000000180025095e-35 0.010890873015873001 0.014270886200046401 1097.5000000000002 1.0000000180025095e-35 -2060.5749999999994 768.31500000000017 -16940.429999999997 90.488571428571376 5943.9950000000008 -0.24285714285714297 0.00072222222222222316 22129.880000000005 1.0000000180025095e-35 5852.2166666666662 -236.67128571428498 -1337.4999999999998 8485.1150000000034 13.500000000000002 14.227923069764453 34121.840000000004 1281.8150000000003 102.50000000000001 -479.49499999999995 0.089368770764119615 -1.0000000180025095e-35 -0.72150884123650483 143.50000000000003 23.500000000000004 565.41999999999962 8043.0350000000008 82.109999999999971 2163.6800000000007 286.88576044311156 1.0000000180025095e-35 96.500000000000014 0.18960157711580153 -0.0024014453580266945
decision_type=10 2 2 10 8 2 10 2 2 2 2 2 2 2 8 2 2 10 8 2 10 8 2 2 8 8 10 10 8 8 8 2 8 2 8 8 10 10 2 10 10 10 8 10 8 10 10 8 10 10 10 2 2 10 10 8 10 8 10 8 10 10 10 10 10 8 10 8 8 8 8 10 8 10 10 10
left_child=1 2 -1 9 5 6 -5 8 13 11 -8 12 14 16 17 -14 22 20 -15 35 -4 25 -3 34 36 27 -6 -10 29 -23 -21 -30 37 -11 -20 -16 47 -33 -26 44 -35 -34 -41 -39 49 46 -43 -9 52 50 51 -40 -46 -45 63 56 57 -50 66 -58 64 -51 70 -54 -59 -57 -56 -66 -47 -68 71 72 -62 -53 -67 -38
right_child=-2 7 3 4 26 -7 10 24 21 33 -12 -13 15 18 19 -17 -18 -19 23 30 -22 28 -24 -25 38 -27 -28 -29 31 -31 -32 32 41 40 -36 -37 75 43 39 42 -42 45 -44 53 48 68 -48 -49 55 61 -52 73 54 -55 58 65 59 60 -60 -61 62 -63 -64 -65 67 74 69 -69 -70 -71 -72 -73 -74 -75 -76 -77
leaf_value=0.20377501076616353 0.81805026345039611 -0.040752833719832925 0.12375774348969841 0.1004948782867653 -0.082240756801735537 0.077151468255621691 0.24321625195235771 -0.11090083559662943 -0.10092731029743653 -0.12073617732329597 0.4977121168255802 -0.053759140461697337 0.2065410116504329 0.031705958654641909 0.0052800339803178295 0.042454941915496563 0.17529891365927311 -0.027381028682780133 -0.091261490340645457 -0.12027588757323296 0.050688476669531503 -0.082997544907515874 0.043552779805006304 -0.029056610909494286 -0.14774993486604948 -0.14414835767711415 -0.0075611727476582848 -0.048212075742442406 -0.11372615278348144 -0.13229401608078328 -0.07447142037694543 -0.11450019688691575 -0.13762712170228214 -0.16450556167005914 -0.12182804290136097 -0.024165037965925514 -0.14310607936309286 -0.12745588098970867 -0.14446702038248663 -0.13651561737827067 -0.13674329134876703 -0.14514654863912579 -0.15872491416298493 -0.15329168241723695 -0.15559029930817683 -0.16255883332978938 -0.15967498592088047 -0.12742776705241579 -0.16356716202486737 -0.16213771342900488 -0.16739203861626212 -0.1562418505701893 -0.15672845312804601 -0.14133588936305497 -0.16706958102759406 -0.16957475391807189 -0.15958913879587244 -0.16412560365946344 -0.16260315492748426 -0.16857931131485032 -0.17111755700134182 -0.16917226251190418 -0.16596395206370848 -0.16494726214391134 -0.16721246167842183 -0.1751775176063633 -0.16931393648263537 -0.17261926604628014 -0.1676552162981701 -0.17383226205796981 -0.17517568672158165 -0.17001551005011428 -0.17396863523511782 -0.15836354688964513 -0.17353567788940899 -0.14287221096524441
leaf_weight=1765.0495220907032 499.15169833786786 389.44432240352035 545.39796356391162 628.86370782181621 295.19426540471613 1553.8637471310794 613.17057587951422 245.69168164860457 408.82932352740318 401.06463575176895 437.93766686972231 2837.6391325658187 614.22167412005365 313.67182553000748 455.21443824470043 423.25367376487702 291.7212188243866 523.39241820201278 460.85346168652177 299.66811202839017 777.6210475480184 242.89844841696322 309.28102552611381 248.24440727196634 411.46570105198771 245.52087742369622 302.59363795537502 340.45615726429969 276.53269333392382 396.28746683336794 260.89497397094965 243.16049814596772 281.93197417166084 335.89846324082464 419.31297522690147 468.30941455252469 253.67456951923668 250.96589165087789 237.38500761520118 238.15119109023362 269.76752672623843 288.99839848652482 401.13777159713209 245.47547192592174 239.44475223496556 260.91147427354008 425.240189245902 239.82347009517252 359.08334923535585 319.74675425700843 379.1236922563985 238.49574907682836 226.02388734277338 261.38962062448263 407.20048368163407 434.3427977161482 267.47706272359937 361.4171343119815 290.18678575754166 236.98453733883798 299.69973279722035 404.88692372385412 226.34118528850377 288.700499702245 261.61966118682176 265.27200067322701 296.39685283973813 271.57811072934419 230.2867822078988 258.4920008983463 263.60769642237574 303.07277155201882 431.84602493420243 227.30966674722731 317.99791284557432 246.55732003971934
leaf_count=55933 15726 38694 34115 45256 28721 19248 47449 29645 47325 43220 20269 36205 38117 34338 32728 38368 28529 49205 53044 33989 40990 28441 30367 28105 50658 28579 27986 39475 31790 46741 25862 29115 34140 38402 48969 31858 30450 30254 29033 29548 30463 35321 49787 29483 29763 31822 52195 29034 44718 39839 47130 29619 28176 31333 50822 54278 33313 44945 36205 29557 37437 50437 28268 35988 32553 33105 37016 33873 28302 32276 32937 37873 53956 28300 39754 29577
internal_value=0 -0.0479449 0.0552682 0.0335044 0.136656 0.170132 0.256134 -0.131875 -0.0882466 -0.0146231 0.34925 0.00284216 0.039613 -0.0171314 0.00846642 0.1396 0.0492076 0.0501419 -0.0626941 -0.0433837 0.0808104 -0.127572 -0.00343613 -0.0889352 -0.161238 -0.0935535 -0.0444388 -0.0769749 -0.137514 -0.113561 -0.0989578 -0.143052 -0.14631 -0.139629 -0.105823 -0.00965126 -0.131206 -0.134269 -0.164468 -0.165254 -0.15214 -0.154414 -0.150451 -0.140612 -0.166421 -0.158341 -0.153796 -0.119064 -0.167904 -0.161242 -0.158011 -0.152953 -0.164786 -0.147126 -0.166032 -0.169359 -0.168456 -0.169299 -0.167962 -0.163813 -0.17015 -0.166068 -0.171643 -0.161338 -0.167607 -0.172273 -0.169578 -0.169966 -0.164948 -0.171419 -0.172633 -0.171985 -0.172801 -0.157277 -0.174282 -0.142991
internal_weight=0 30790.7 13809 12044 3831.62 3233.84 1679.97 16981.6 6831.41 8212.34 1051.11 7205.61 4367.97 2432.53 3330.5 1037.48 990.447 1846.41 1442.08 1484.09 1323.02 4398.89 698.725 1128.41 10150.2 994.806 597.788 749.285 3404.08 639.186 560.563 2764.89 2488.36 1006.73 880.166 923.524 985.747 1000.99 9164.49 8753.02 605.666 1487.37 639.289 757.831 8113.73 1205.44 714.239 485.515 6306.79 1806.95 1082.31 703.19 2006.45 506.865 1767 4300.34 3282.73 2778.27 1252.28 504.462 2419.18 724.634 1524.57 514.724 894.615 1017.61 962.089 533.198 491.198 554.889 1298.23 1034.62 731.546 465.805 583.27 500.232
internal_count=2780342 2764616 718384 662451 188929 132222 112974 2046232 786362 473522 67718 361437 325232 262046 248747 76485 97590 124310 164456 124437 75105 524316 69061 130118 1259870 115379 56707 86800 408937 75182 59851 333755 301965 112085 102013 64586 118706 120185 1141164 1090506 68865 181780 79335 91070 1011171 147640 87516 58679 786813 224358 134082 86952 250246 60816 220483 536567 409430 346560 156319 62870 301842 90276 190471 64164 111371 127137 120114 66426 60124 69292 162203 129266 91393 57919 72859 60027
is_linear=0
shrinkage=0.173762


Tree=2
num_leaves=76
num_cat=0
split_feature=254 46 186 253 251 247 22 116 226 11 216 116 35 199 250 1 54 209 142 45 11 160 44 238 8 43 60 228 214 214 140 53 240 250 116 53 43 99 2 116 130 167 252 1 131 25 77 25 141 64 77 53 178 244 160 148 65 180 99 1 144 228 45 2 90 140 15 123 176 130 140 180 64 40 169
split_gain=7262.21 3839.15 2330.12 905.078 1253 886.656 709.722 578.985 489.469 227.259 216.884 192.484 135.19 132.881 130.773 120.078 122.137 113.061 110.369 85.0052 66.3658 33.6332 27.644 27.548 26.0767 21.6303 17.3004 12.6247 10.2385 9.16651 13.7859 6.74221 5.9155 5.56203 5.21961 4.7789 3.8071 3.18111 2.71605 2.66072 2.5622 2.40879 1.60079 1.43248 1.6348 1.42273 1.37428 1.45042 1.16168 0.745528 0.727039 0.518108 1.07024 0.470823 0.402066 0.331053 0.288355 0.28357 0.274973 0.439831 0.229966 0.185798 0.167313 0.163243 0.161055 0.156764 0.144735 0.130569 0.128434 0.0928153 0.0923346 0.0745375 0.0713715 0.0183007 2.95868e-05
threshold=1.0000000180025095e-35 3658.7511111111103 -1.0000000180025095e-35 1.0000000180025095e-35 1.0000000180025095e-35 1.0000000180025095e-35 50.500000000000007 8351.4050000000007 -0.22857142857142848 8156.6600000000008 -0.44285714285714295 18981.535000000003 747.50000000000011 53.95814285714301 1.0000000180025095e-35 202009.50000000003 448.36500000000007 -236.67128571428498 0.092013644634164768 1.1824523016361752 2691.2700000000004 -6.4999999999999991 0.28274435895096706 1.0000000180025095e-35 -84.934999999999988 663.15330521423311 1235.7650000000001 -0.0036816522202681996 626.71928571429862 9436.3040000000128 0.50569547283229965 -411.90499999999992 1.0000000180025095e-35 1.0000000180025095e-35 15649.605000000001 -512.58499999999992 945.33221559010769 11097.250000000002 525.66500000000008 34438.700000000004 -1063.4999999999998 -0.0051294346385890493 1.0000000180025095e-35 202103.50000000003 1440.5000000000002 2548.5000000000005 0.99409156761096862 1264.5000000000002 0.045770520069030408 -70665.494999999981 0.98336101882613514 -321.61999999999995 -1.2847874869040298e-05 1.0000000180025095e-35 24.500000000000004 527.94000000000153 1769.5000000000002 0.12859809068518804 -21033.964999999997 202102.50000000003 -69.619999999999933 -0.013002633179273748 23.768967799694455 993.17500000000007 25.510000000000055 1.1837718388732852 40.050000000000004 15.31 -5.6213903377881498e-05 -880.49999999999989 1.1590898922176402 0.0089070708582262518 -23456.804999999997 2.7989605969393854e-05 0.00051587301587301311
decision_type=2 2 8 2 2 2 2 8 10 2 10 8 10 10 2 2 8 10 10 8 2 8 8 2 2 8 10 10 10 10 10 10 2 2 10 10 8 8 8 8 10 8 2 2 10 8 10 10 8 10 8 10 10 2 8 10 8 8 10 2 8 8 10 10 10 8 2 8 10 8 10 10 10 10 8
left_child=1 2 5 4 7 8 9 12 -1 13 -5 15 -4 -3 17 33 18 22 -17 24 21 -13 -9 -18 -2 -16 -25 -19 31 32 -31 41 39 -8 38 43 -37 -28 -26 53 -11 -22 -34 44 -30 -32 47 48 -44 -23 60 58 67 -21 55 56 -54 72 61 66 -49 -48 -63 -62 -61 68 74 -53 70 -68 -64 -52 -46 -70 -60
right_child=19 6 3 10 -6 -7 11 14 -10 40 -12 20 -14 -15 25 16 23 27 -20 29 28 49 -24 26 34 -27 37 -29 35 30 45 -33 42 -35 -36 36 -38 -39 -40 -41 -42 -43 46 -45 57 -47 51 50 -50 -51 71 52 54 -55 -56 -57 -58 -59 59 64 63 62 65 -65 -66 -67 69 -69 73 -71 -72 -73 -74 -75 -76
leaf_value=0.41091272242156845 -0.081383740682015426 0.032486267177504517 0.081581047467753229 0.038516212893684482 0.28497109128395287 0.11067413607281726 -0.11490859768982821 0.021324574020365385 0.21988592683185165 -0.070773843273766304 -0.030947307033214244 -0.02746780315737065 0.20394149213745863 0.16478130265218982 -0.023082455559489165 -0.039154341832178974 -0.029518718044320279 0.10476410891885221 0.10225305931051207 -0.13441056676204116 -0.12394539172983168 -0.098187201237892485 -0.032709084771210192 -0.062692402404933137 -0.11049062244752937 -0.086890313105783643 -0.12923915194861596 0.061940857789031412 -0.14385965364600706 -0.10698928377428614 -0.14959309583203365 -0.10904079963176151 -0.15236920385275646 -0.14896030605533589 -0.14822779495505539 -0.11695066389740846 -0.14680473874337768 -0.100271056756312 -0.13322525002032357 -0.16291605248450242 -0.046520035009564926 -0.14499885821839448 -0.14572694318876897 -0.14120035540769243 -0.16138168390746788 -0.16813278758184688 -0.16513228040677436 -0.15725245257226 -0.16124880401141889 -0.11132349216237665 -0.1715085430340049 -0.15368238745745416 -0.16264994825767246 -0.1458929892123709 -0.1609007493098327 -0.17329419191682804 -0.16956312400414314 -0.15577788641061766 -0.171430913675157 -0.15983870483930032 -0.16701078263746508 -0.16724676046167294 -0.16985868655542785 -0.16012872138155521 -0.16622248730946923 -0.17496840742220723 -0.16437182092401528 -0.15995842026775617 -0.16728592302096493 -0.16954754321501073 -0.1749631333377058 -0.16734386605958407 -0.16565553992418414 -0.16938709471632002 -0.17133484180437406
leaf_weight=726.44469571299851 449.48970361053944 598.35626556538045 432.45271741272882 2275.7626871317625 897.58212130423635 1261.0880458336323 319.03523195814341 701.56805456615984 915.23823947552592 263.488329120446 3362.1364568974823 241.75936539797112 737.68949191318825 371.60207590740174 308.87123305723071 418.12290787417442 279.62440685462207 407.01354643097147 277.09584723645821 230.40072753932327 271.38624301087111 229.86379278311506 482.48517145076767 330.34303211513907 307.70686070760712 333.72082207771018 230.68789036013186 424.8122085724026 222.22529836418107 222.17921256367117 246.11611535027623 435.87539692735299 291.05737915914506 265.24678001878783 367.63451723242179 229.6722717131488 294.15681972308084 227.17402550205588 327.5608304659836 229.8039464391768 262.55845531541854 414.98899782728404 261.27331530721858 219.97016115114093 253.17781677795574 253.91013530036435 229.45542434928939 274.45506619848311 328.7778134518303 301.60098895803094 301.38739908766001 203.78313395148143 323.71147487126291 202.65833061374724 259.36048256931826 311.27007155539468 416.64545062603429 216.04711394896731 196.24923292268068 298.43793220678344 218.22170616267249 382.41758099012077 204.1211579660885 198.93407417228445 198.81713501829654 286.41059351060539 229.52149583632126 196.6934682847932 226.28308899281546 192.23010874912143 224.87713989475742 227.84912933502346 220.92251314502209 280.05614699609578 190.97003721864894
leaf_count=24269 52863 51426 30018 30294 54175 13578 37134 56086 47060 27544 40275 26205 51926 26698 32951 46242 29543 30549 29377 31071 35100 27664 42977 40897 37976 38088 29835 32609 29243 31368 35120 54775 40732 34139 48906 29246 38340 28764 43929 32750 28150 54369 37750 28578 34124 37012 33451 39979 47478 36730 44157 29283 46599 28459 37895 45602 60507 29398 28717 43452 31860 55891 29968 29023 29224 41960 33594 28651 33266 28180 33066 33386 29997 40986 27858
internal_value=0 0.0267246 0.0826453 0.0441062 0.10019 0.220246 -0.0735991 0.0568695 0.304415 0.0332948 -0.00290805 -0.100708 0.15872 0.08317 0.0120393 -0.0620985 -0.0394739 0.033798 0.0172069 -0.154956 -0.126225 -0.0811997 -0.000693388 -0.0763765 -0.116162 -0.0562201 -0.0929998 0.0828943 -0.138756 -0.161714 -0.143005 -0.125942 -0.163488 -0.130367 -0.131749 -0.147439 -0.133715 -0.114866 -0.122213 -0.147804 -0.0586684 -0.136675 -0.164983 -0.153787 -0.156822 -0.159007 -0.165534 -0.161449 -0.154376 -0.105642 -0.164868 -0.167059 -0.164627 -0.139784 -0.167028 -0.168539 -0.16654 -0.160996 -0.168385 -0.166458 -0.161159 -0.169757 -0.170419 -0.163729 -0.162391 -0.171411 -0.168958 -0.156765 -0.170322 -0.166731 -0.172534 -0.169716 -0.163373 -0.168448 -0.171384
internal_weight=0 20661.8 13266.9 10364.1 4726.2 2902.77 7394.98 3828.61 1641.68 1496.01 5637.9 5898.98 1170.14 969.958 2658.47 2347.33 1763.05 2015.88 695.219 9790.73 3551.65 773.224 1184.05 1067.83 1452.39 642.592 788.205 831.826 2778.42 8338.34 722.205 1122.25 7616.13 584.282 1002.9 1656.17 523.829 457.862 635.268 662.863 526.047 686.375 6953.27 1132.34 912.373 500.026 6662.21 1810.9 590.051 531.465 1220.85 4851.31 1711.46 433.059 1310.99 1051.63 740.357 690.147 3139.85 1306.23 691.611 1833.62 1604.17 417.156 497.255 1221.75 808.971 400.477 935.338 421.752 428.998 529.237 474.1 506.339 387.219
internal_count=2780342 1388373 524855 439948 369379 84907 863518 315204 71329 133818 70569 729700 81944 78124 233260 275931 204658 162221 75619 1391969 453769 90599 99063 129039 183674 71039 99496 63158 363170 1208295 103500 144244 1104795 71273 130811 218926 67586 58599 81905 92280 55694 89469 1012515 151340 122762 72132 971783 263633 85228 64394 178405 708150 248537 59530 190603 152708 107106 93519 459613 191025 100862 268588 235137 60883 72676 179246 118349 57934 137286 61774 63034 77543 64121 74252 56575
is_linear=0
shrinkage=0.173762


Tree=3
num_leaves=75
num_cat=0
split_feature=254 10 238 94 149 60 253 237 199 243 46 253 11 117 4 228 51 18 245 241 22 210 1 44 8 243 160 36 228 210 210 122 160 46 148 80 151 252 211 25 68 29 228 130 46 36 35 171 77 79 171 32 76 133 171 15 50 64 225 171 116 117 126 25 145 180 144 160 85 111 176 99 189 112
split_gain=5860.19 2659.95 1857.12 736.243 532.843 501.389 377.506 475.483 330.594 275.358 211.354 174.853 123.416 109.633 107.829 89.1885 79.7885 71.3221 68.5521 51.1348 45.4957 44.9186 35.2919 29.5799 26.0716 25.8793 25.6847 23.5297 15.2635 12.7229 10.2495 8.79085 8.46169 7.78856 7.72147 7.25687 5.43676 4.88035 15.2073 3.84982 3.10143 2.37884 1.94588 1.44589 1.33469 1.82985 0.871857 0.863538 1.67074 0.794007 0.785229 0.734722 0.558733 0.549589 0.651142 0.494656 0.440076 0.379922 0.374429 0.372721 0.352725 0.425133 0.327925 0.309855 0.257403 0.230495 0.111981 0.088712 0.108551 0.0859648 0.0789855 0.0307211 0.0230393 0.00591163
threshold=1.0000000180025095e-35 1.0000000180025095e-35 1.0000000180025095e-35 1364.9450000000004 -1588.8499999999997 692.21500000000015 1.0000000180025095e-35 1.0000000180025095e-35 155.16914285714304 1.0000000180025095e-35 3658.7511111111103 1.0000000180025095e-35 11999.460000000001 980.11500000000012 101.17500000000003 -0.071132709059767332 11116.520000000002 617.90500000000009 1.0000000180025095e-35 1.0000000180025095e-35 88.500000000000014 -0.083554817275747484 202102.50000000003 0.34368167209810102 -84.934999999999988 1.0000000180025095e-35 -8.4999999999999982 2738.9550000000004 -0.071132709059767332 -1.0000000180025095e-35 -0.39767441860465097 25193.260000000006 8.5000000000000018 6600.2901785714303 19.114999999999956 793.09416666666664 9098.8900000000012 1.0000000180025095e-35 1968.6291428571453 1762.5000000000002 475.06500000000005 118.50000000000001 -0.028998030666184445 -1002.4999999999999 11633.066308479501 510.25500000000005 1377.5000000000002 0.047619047619039706 0.99631674625569822 0.0013988079972473203 0.06680911680911851 -1642.4999999999998 0.0095438039595205758 3666.7450000000003 0.041666666666669856 69.88000000000001 1463.7000000000003 -12767.074999999999 0.27794028339279403 0.031259132086499504 2805.6000000000008 600.46000000000015 3497.0100000000007 3391.5000000000005 -44.814999999999991 0.20884778096172352 237.18500000000003 6.5000000000000009 -288.50499999999994 1.0000000180025095e-35 -0.0007571253330742265 17239.010000000002 193.63300000000001 -0.018095826387235097
decision_type=2 2 2 10 8 8 2 2 10 2 2 2 2 8 8 10 8 8 2 2 2 10 2 8 2 2 10 2 10 10 8 8 10 2 10 8 8 2 10 10 10 2 10 8 2 2 10 10 8 8 8 10 10 10 10 2 10 10 10 10 8 8 10 8 8 10 10 8 8 10 10 8 10 10
left_child=1 5 3 4 8 -1 7 9 10 12 11 15 19 16 -11 -3 27 -16 24 29 -12 -17 33 -14 -2 -24 36 -4 30 -6 -20 42 -28 -15 -18 63 -19 -30 44 43 -32 49 -26 -35 45 51 -33 60 -49 -41 53 -39 71 65 59 -42 -43 -56 64 -55 -46 62 -62 -27 -54 69 -66 68 -63 73 -58 -50 -69 -47
right_child=18 2 13 -5 6 -7 -8 -9 -10 14 20 -13 23 22 17 21 34 26 28 -21 -22 -23 25 -25 31 35 32 -29 37 -31 40 46 -34 39 -36 -37 -38 38 -40 41 55 56 -44 -45 47 50 -48 48 52 -51 -52 -53 58 54 57 -57 70 -59 -60 -61 61 67 -64 -65 66 -67 -68 72 -70 -71 -72 -73 -74 -75
leaf_value=0.1172648532251581 -0.078627311157005733 0.16890083783708978 0.023951272662271032 0.21486638494712226 0.063818206727285873 0.27013219464754951 -0.055161707012653306 0.16058514668088678 0.12580431852125828 0.053344868324391941 -0.0063459546601237898 0.013739135588079354 0.023319353943369165 -0.11780172502707398 -0.0024611916968372794 0.10339033507241753 -0.089099045506490518 -0.038085250794068395 -0.10776107071323611 0.10941218150492041 -0.086074706980137555 0.027611829605656456 -0.045078340786020688 -0.037386511402213295 -0.10133353527281469 -0.09290578456556596 -0.088697804986530682 -0.048592865739800574 -0.13537790317595505 0.023666231108284305 -0.13497722588618064 -0.14056893212239222 -0.12664477644574884 -0.14228098377116702 -0.12849386729160783 -0.13291223745974559 -0.071592405450230906 -0.15940368075560016 -0.11526322134962877 -0.14759687683145259 -0.15145719681660774 -0.1512574316380027 -0.12512903132534514 -0.12257139161459434 -0.16394896188546129 -0.17272915071377376 -0.15529266412222789 -0.15200559028355989 -0.17057466807199453 -0.13219180778147266 -0.15285836876022338 -0.14744696771597521 -0.17070593691444388 -0.16288446373400886 -0.17030580291038488 -0.16229011196394222 -0.15788701463470195 -0.15996346872260836 -0.15644278601829795 -0.15275175342410921 -0.1612921903919762 -0.16768738124895988 -0.17107047219100446 -0.10270446277075229 -0.16638159651249998 -0.1635428216893233 -0.1602043342188576 -0.17246098636092275 -0.17287597069772562 -0.16739177444063322 -0.16265936889379373 -0.17384393597423339 -0.17478191257362896 -0.17132771837947849
leaf_weight=1504.1702326298691 409.25789964338765 399.00795573554933 258.76516470359638 595.55538831930608 497.4466289030388 1137.8977321735583 3316.6761939395219 635.66113818483427 1632.1993100512773 286.26540077617392 470.80716092977673 1492.0417097155005 450.27898257831112 399.98814762197435 464.15041568456218 557.04123760294169 369.29244170803577 311.53089861571789 243.08090271614492 597.15199286676943 399.43813043087721 410.03020635200664 213.34947156673297 524.82536918018013 213.86187669308856 190.45658982265741 509.9028304531239 282.23899793811142 206.45397652965039 457.34746339637786 322.03346814075485 268.08325997786596 272.10559909511358 207.27424519043416 253.23166263010353 330.64513822505251 275.51617471920326 292.80486179003492 198.21798627916723 209.54698038101196 259.80825635930523 249.68783896835521 201.54888362903148 245.46837145742029 320.5876817042008 166.71610208321363 221.96962704276666 304.99991916911677 164.51540637342259 195.05251869373024 174.1779401297681 330.11292469641194 213.34070109389722 204.28736865986139 309.86515647498891 249.47782152099535 194.00431125797331 164.00334853259847 161.02251052670181 236.50001896452159 231.77590209292248 220.18890228262171 187.18072217470035 199.51099469978362 165.47863531392068 200.61055753519759 190.73724915878847 224.28717256570235 272.30041136499494 187.61736979847774 227.50184726249427 183.68037676252425 304.41115949070081 199.79340562224388
leaf_count=37234 54521 25638 29438 23432 31449 28237 39390 30520 48780 25364 47090 17996 32660 54832 46719 40639 48884 31299 38908 33652 50425 31607 25258 45379 28763 27625 56325 33518 32752 30706 51143 41940 35730 31000 34325 49898 29820 48764 32566 31695 43020 38776 29815 37063 55150 28349 35942 52170 28049 29691 29565 55474 36958 35015 53221 41970 30459 28043 27691 40551 39878 37923 32340 29431 28612 34184 33015 38678 46856 32006 36389 31582 52626 33929
internal_value=0 0.0199663 -0.00323037 0.0256613 0.0175891 0.183102 -0.00921525 0.0196345 0.060586 0.000351916 0.0320347 0.0548635 0.0390908 -0.10768 -0.0458365 0.0997798 -0.0627053 -0.0613242 -0.151467 0.0695292 -0.042941 0.0712609 -0.125962 -0.00935405 -0.115024 -0.0982368 -0.0812806 -0.0138946 -0.158224 0.0445854 -0.139147 -0.131475 -0.101902 -0.139388 -0.105124 -0.113975 -0.053811 -0.161631 -0.162564 -0.145037 -0.148324 -0.150694 -0.112879 -0.131595 -0.164235 -0.161209 -0.147238 -0.166609 -0.163361 -0.14017 -0.16396 -0.153067 -0.166571 -0.165119 -0.162255 -0.156764 -0.157038 -0.166726 -0.163841 -0.157448 -0.169162 -0.170322 -0.165661 -0.0979189 -0.165933 -0.16859 -0.163074 -0.172234 -0.170556 -0.170417 -0.160463 -0.172299 -0.173797 -0.171965
internal_weight=0 21223.1 18581 14555 13959.4 2642.07 8598.86 5282.18 5360.57 4646.52 3728.37 2858.12 2527.05 4026.01 2119.47 1366.08 1163.53 1833.21 8404.79 1551.95 870.245 967.071 2862.49 975.104 1314.72 933.962 1369.06 541.004 7090.07 954.794 1074.4 905.464 782.008 1928.52 622.524 720.613 587.047 6015.67 5809.21 1528.54 831.32 1075.79 415.411 452.743 5611 2466.49 490.053 3144.51 1383.77 404.599 1843.57 622.918 1078.77 1669.39 914.656 509.286 671.194 473.869 730.579 440.787 1760.73 1440.14 418.957 389.968 569.557 754.737 356.216 1021.19 492.489 554.127 421.506 348.196 528.698 366.51
internal_count=2780342 1388373 1322902 754620 731188 65471 469013 429623 262175 399103 213395 115880 173846 568282 225257 97884 146165 199893 1391969 95807 97515 72246 422117 78039 190981 132212 153174 62956 1200988 62155 175041 136460 92055 289905 83209 106954 61119 1025947 993195 235073 136133 167010 58578 68063 960629 419101 77882 541528 238077 61386 314863 104238 185907 285298 156830 84990 105624 81264 126276 75566 303451 248301 72218 57056 98585 128468 61627 176083 84779 94284 66848 59631 91304 62278
is_linear=0
shrinkage=0.173762


Tree=4
num_leaves=75
num_cat=0
split_feature=236 102 199 254 248 34 230 147 253 3 253 28 5 48 3 52 101 145 52 6 6 243 6 45 3 43 142 217 25 28 22 17 5 67 3 244 228 51 5 214 144 210 201 109 113 143 205 142 81 160 99 101 144 0 0 51 24 20 20 113 99 176 188 145 141 112 141 151 154 46 140 119 113 140
split_gain=5242.85 1403.57 1064.31 722.082 429.255 407.552 325.519 300.13 302.012 283.438 341.271 451.21 259.53 246.794 138.301 109.316 91.5085 72.9003 65.7457 61.7106 53.4068 43.2766 40.3266 39.5157 37.7943 28.5733 18.9581 15.2785 10.4725 8.44966 7.78175 7.71645 6.50046 5.95064 4.42341 3.46602 4.79081 4.72157 2.99908 2.90788 2.49105 2.09648 2.04005 1.73318 1.57278 1.45338 1.25913 1.22558 1.11918 1.02477 1.19939 0.903831 0.891449 0.715425 0.9513 0.517839 0.491306 0.567347 1.32271 0.343488 0.440066 0.312867 0.276938 0.250976 0.213538 0.180803 0.167643 0.192196 0.159154 0.151264 0.117869 0.0851479 0.0528721 0.00465349
threshold=1.0000000180025095e-35 9.5000000000000018 108.23028571428601 1.0000000180025095e-35 1.0000000180025095e-35 12454.645000000002 0.11882523095313351 -2094.0899999999997 1.0000000180025095e-35 27076.310000000001 1.0000000180025095e-35 932.53500000000008 -246.56499999999997 1.4886473505113053e-05 18112.520000000004 689.97500000000014 692.07000000000062 -1.0000000180025095e-35 609.17500000000007 237.73500000000004 727.50500000000011 1.0000000180025095e-35 1660.4450000000004 1.0000000180025095e-35 13109.585000000001 787.8794368435166 0.0041194922395244053 -0.5857142857142853 1083.5000000000002 99.705000000000013 125.50000000000001 9.5000000000000018 -430.06499999999994 3827.1450000000004 22129.880000000005 1.0000000180025095e-35 -0.071132709059767332 12561.460000000001 -2289.5949999999998 1965.5112857142801 -155.59999999999948 0.22915057915057954 0.18761785040854803 0.022727272727271954 1.5667339893842402e-05 1.5833333333333353 -0.82707641196013293 0.59024469816297909 0.016379174949542753 -11.499999999999998 -7316.3799999999992 175.95000000000053 -524.9899999999999 138203388.50000003 168361054.50000003 25247.060000000001 11840.825000000003 31.500000000000004 87.500000000000014 -2.0338680619714547e-05 2649.1700000000005 0.004373567253455256 -274.19714285714196 -16.284999999999997 0.0055422324208350658 -0.018095826387235097 0.045770520069030408 565.41999999999962 354.00000000000006 11633.066308479501 1.1109574890986953 1301.0400000000002 -1.9948332615285996e-06 1.159098696622135
decision_type=2 10 10 2 2 2 10 8 2 8 2 10 8 8 8 10 8 8 8 10 8 2 10 8 10 8 10 8 10 10 2 8 8 8 8 2 8 10 8 10 10 10 10 8 8 10 8 8 8 8 10 10 10 2 2 8 8 10 10 10 8 8 10 10 8 8 10 10 8 2 10 8 10 10
left_child=1 2 4 5 6 14 7 16 12 10 11 -4 24 15 19 17 -1 -14 20 -2 -7 39 25 33 26 -16 -9 30 34 43 -23 40 44 45 -29 37 -37 -34 -33 -20 -30 52 46 -6 49 -5 47 -38 -46 50 62 -31 -40 55 63 59 57 65 -59 -51 61 -61 -25 -55 -15 -48 70 -68 -43 -57 -62 -67 -71 -72
right_child=3 -3 9 23 29 18 -8 8 -10 -11 -12 -13 13 64 22 -17 -18 -19 21 -21 -22 27 -24 32 -26 -27 -28 28 31 51 -32 38 35 -35 -36 36 42 -39 41 -41 -42 68 -44 -45 48 -47 56 -49 -50 53 -52 -53 -54 54 -56 69 -58 58 -60 60 66 -63 -64 -65 -66 71 67 -69 -70 72 73 -73 -74 -75
leaf_value=0.02746518437837072 0.08846078798479011 0.23782811724761782 0.25722212115796839 -0.13615815956654639 -0.11570872202262494 -0.0098746186734463785 0.11224684578533795 -0.05786342163230733 -0.052080643679168398 0.013109960355000835 0.065643115856986123 0.079060353264519753 0.15901076975484216 -0.033982499803543446 -0.0015057159224423134 0.026848302907854442 0.1072499227747883 0.073520014502364672 -0.051928149538568114 0.00010185747943693137 -0.1059886907034753 -0.075975322514679949 -0.095902831866855928 -0.1697552649638939 -0.097039927220818653 -0.070984975800487848 -0.0035966429794328427 -0.085200042092212394 -0.13224903998938548 -0.14999113425970756 -0.11730546532616963 -0.16063158481769768 -0.11975611732347202 -0.092340510217246138 -0.12336124643615563 -0.12560123462745423 -0.14343664205494602 -0.1577344589864991 -0.14075749264301307 -0.079609431749685988 -0.10833679284692532 -0.14659086772834415 -0.14031641361676953 -0.095656933171777619 -0.1626009810708183 -0.11478886811952191 -0.17033747177098094 -0.16016079472497016 -0.1428695612824751 -0.15703961681530379 -0.14726882001502323 -0.13225905063533763 -0.12402082941758641 -0.17007177955414141 -0.14820774336534751 -0.16671507781579151 -0.1540388194200083 -0.16661887295995581 -0.14531893711445484 -0.16594143516671686 -0.16700536351674439 -0.1565305922211046 -0.15938295661090868 -0.15990638392242348 -0.039568755728778313 -0.16165548547608577 -0.16073855298868076 -0.16948490468153998 -0.15425468860280867 -0.17074974432329609 -0.17351624574741489 -0.16729659353085496 -0.17462540208875513 -0.17213609893578569
leaf_weight=992.57024445338175 448.49617132358253 992.25710988184437 931.22164188046008 206.59463142650202 284.64228879613802 367.57622810639441 809.63600801443681 392.28467595158145 3814.9706717748195 943.65501157986 1712.4481273982674 796.14476590044796 504.01457849796861 418.8216494191438 510.30286469310522 838.10427733976394 771.3459260542877 748.2835230496712 229.46056678332388 510.07747202645987 332.41153814038262 252.53953368542716 362.52654694532976 142.53718087170273 393.89853028766811 275.03652221430093 385.27371936710551 178.13093143096194 265.08962916489691 180.64631066843867 302.07678320258856 307.41781404288486 227.83169895410538 263.23027759045362 189.03863580571488 166.42718746559694 278.44339728634804 174.57047633687034 173.49272751109675 228.86611329577863 261.0947203184478 166.35897479532287 212.59595972299576 239.79771076422185 158.852718972601 179.67074460862204 242.72151875030249 252.07131636096165 191.33988423505798 138.24226975860074 215.88654094794765 167.05196456657723 215.36936012748629 152.20511197950691 151.11983342608437 153.67431708518416 210.75486590946093 216.82423955481499 148.1917851595208 239.94104477064684 159.40106706740335 192.02571789408103 170.92000916553661 141.5126811703667 407.75431985640898 187.39839134458452 137.62873802706599 169.01598826795816 160.99194471957162 179.29909269837663 156.57806258508936 142.01319461409003 260.96331204567105 139.463296323549
leaf_count=41240 37382 14113 38200 36335 34870 45904 44362 27119 48849 46182 15902 53407 26829 27680 47613 53763 23046 46541 28412 53897 50273 39864 43713 28811 39878 35828 33412 27557 44204 29895 51631 55031 44258 44337 32092 32177 55830 34369 29988 29991 42373 29107 42377 29096 32048 32174 48979 50651 37747 27794 43480 28207 36147 30538 29832 31105 41719 43761 29922 48481 32077 38938 34513 28307 29060 37660 27966 34393 28896 36455 31837 28514 53104 28299
internal_value=0 0.0373902 0.0247485 -0.112781 -0.00333936 -0.0680789 0.0064107 -0.00245305 -0.0169171 0.0974698 0.120613 0.175107 0.0158945 0.0436384 -0.00727905 0.0754205 0.0623544 0.107928 -0.103361 0.0414431 -0.0555175 -0.114791 -0.0479665 -0.153101 -0.0531889 -0.0258383 -0.0309747 -0.123885 -0.131234 -0.120466 -0.0984862 -0.137485 -0.15772 -0.112488 -0.104847 -0.150981 -0.153865 -0.136232 -0.146276 -0.0657508 -0.120384 -0.140114 -0.156353 -0.10654 -0.16282 -0.126218 -0.158384 -0.151383 -0.15182 -0.164148 -0.157235 -0.141472 -0.131488 -0.165691 -0.15941 -0.167142 -0.161619 -0.163324 -0.157971 -0.165239 -0.166189 -0.161758 -0.1641 -0.165174 -0.0367382 -0.166739 -0.1687 -0.165559 -0.15036 -0.171409 -0.170815 -0.164087 -0.173047 -0.172866
internal_weight=0 16724.8 15732.6 12096.3 11349.1 5736.36 10477 9667.32 7903.41 4383.47 3439.81 1727.37 4088.44 2916.98 2106.44 2090.4 1763.92 1252.3 3629.92 958.574 699.988 2929.93 1147.87 6359.95 1171.46 785.339 777.558 2471.6 1916.98 872.138 554.616 1549.82 5710.45 649.496 367.17 2459.84 2057.44 402.402 1023.63 458.327 526.184 716.213 1891.01 524.44 3250.61 386.265 1678.42 530.515 350.193 2900.41 529.344 347.698 388.862 2371.07 444.838 1926.23 1147.9 937.149 365.016 1332.3 1194.05 431.967 313.457 293.718 826.576 572.133 762.087 306.645 327.351 593.937 455.442 329.412 440.262 296.041
internal_count=2780342 731651 717538 2048691 563847 789903 441779 397417 333131 153691 107509 91607 284282 183873 218433 127133 64286 73370 571470 91279 96177 475293 127154 1258788 100409 83441 60531 416890 325395 122068 91495 265746 1145942 112846 59649 490217 411590 78627 179169 58403 86577 124138 379413 63966 655725 68509 337036 106481 69795 585930 106804 58102 66135 479126 88677 390449 230555 188836 73683 269785 241991 87419 63324 58845 56740 115153 154572 62359 58003 120664 92213 66174 89559 60136
is_linear=0
shrinkage=0.173762


Tree=5
num_leaves=79
num_cat=0
split_feature=236 10 147 254 40 1 12 41 253 24 141 253 246 1 18 41 6 15 6 34 3 45 189 238 78 45 147 75 56 210 60 218 100 34 243 12 40 130 13 173 250 19 238 62 118 227 145 48 195 195 76 98 214 142 87 0 116 142 189 173 178 45 130 3 85 91 120 42 64 232 82 207 156 180 232 129 165 124
split_gain=3996.35 1023.28 1276.83 704.541 470.942 875.613 373.935 326.093 390.565 314.943 246.495 206.081 318.702 197.161 167.36 128.408 173.133 93.6935 84.4545 57.4422 48.2861 43.3108 43.2911 34.4385 34.0379 31.3479 24.5667 23.396 22.1788 13.5449 12.9435 11.146 9.95309 9.31623 8.88199 8.42308 7.40827 5.31689 4.79768 6.06518 4.58277 4.09892 3.93925 2.87813 3.00497 2.84321 2.38587 2.12731 2.2525 1.32498 2.042 1.31321 1.19081 1.08218 1.03379 0.822144 0.776958 0.696519 0.703573 0.626626 0.591331 0.654668 0.453601 0.450295 0.379017 0.346769 0.332359 0.330691 0.724795 0.31898 0.303739 0.13769 0.182974 0.12889 0.0742955 0.0651891 0.0364645 0.0332838
threshold=1.0000000180025095e-35 1.0000000180025095e-35 -1.0000000180025095e-35 1.0000000180025095e-35 2.1682278871181501e-05 202101.50000000003 2.5000000000000004 0.32634001940053409 1.0000000180025095e-35 313.82500000000005 0.028944312131069953 1.0000000180025095e-35 1.0000000180025095e-35 202101.50000000003 302.64500000000004 1.1599281960808903 188.62000000000003 1441.6850000000002 451.65500000000003 14234.010000000002 10067.505000000001 0.50277767116491201 542.38242857143007 1.0000000180025095e-35 0.28283562850929006 5.5293949386075907 -793.82499999999993 0.0038244363843971253 16746.535000000003 -0.25647840531561444 52.315000000000005 4271.7308571428666 74.975000000000065 14234.010000000002 1.0000000180025095e-35 11.500000000000002 8.9209381853356517e-05 -318.99999999999994 18922.370000000003 -0.87893697613082988 1.0000000180025095e-35 4806.3850000000011 1.0000000180025095e-35 78.500000000000014 -152.39499999999995 0.030303030303029856 80.114999999999966 2.0161123462190753e-05 47.017571428571657 90.488571428571376 0.075331278791049325 -8.4999999999999982 1628.4542857142903 0.11943931743956951 -37.474999999999987 132016518.50000001 34438.700000000004 0.15245104926383352 542.38242857143007 -0.25811323763205996 1.0000000180025095e-35 45.348576278972907 -515.49999999999989 30208.010000000006 -1.0000000180025095e-35 1.0000000180025095e-35 -895.83499999999992 56553.900000000009 -19620.184999999994 -125.07477981124548 67.923869211367119 1306.6694285714304 -1160.5799999999997 -0.43410113681078494 1.0000000180025095e-35 135.50000000000003 1414.4200000000003 1.0000000180025095e-35
decision_type=2 2 8 2 10 2 2 8 2 10 8 2 2 2 10 8 10 2 10 2 10 8 8 2 10 8 8 10 8 8 8 8 8 2 2 2 10 8 2 10 2 2 2 8 10 10 8 8 10 10 10 10 10 8 10 2 8 10 10 10 10 10 8 8 10 10 10 10 10 10 8 8 10 10 10 10 10 10
left_child=1 2 -1 6 5 11 17 8 9 10 32 12 15 23 -15 16 24 22 26 -16 28 38 -2 29 -3 30 -14 -28 -21 -8 -6 36 -7 -25 -31 -22 43 40 39 -5 -35 -27 -38 44 53 51 -36 48 65 50 -47 57 -50 -23 -37 56 59 -45 -59 62 61 -57 66 -54 -20 -42 -53 74 76 -68 -44 72 77 -55 -61 -74 -69 -58
right_child=3 4 -4 21 25 7 13 -9 -10 -11 -12 -13 18 14 19 -17 -18 -19 64 20 35 31 -24 33 -26 41 27 -29 -30 34 -32 -33 -34 37 46 54 42 -39 -40 -41 47 -43 70 45 -46 49 -48 -49 52 -51 -52 55 63 73 -56 60 71 58 -60 67 -62 -63 -64 -65 -66 -67 69 68 -70 -71 -72 -73 75 -75 -76 -77 -78 -79
leaf_value=0.23765052098775089 0.09547573669602763 0.1239004650901351 0.0094235349025130043 -0.078795720881073394 -0.10201115079658586 0.15396095802273715 -0.054969432082534984 -0.026841553835737521 0.040383615260807706 0.037069650718519698 0.28059908256300647 -0.046918834127221892 0.012534979684493783 0.11002907895088511 0.021479327091437805 -0.026332539915618926 -0.0067865498296139255 -0.051162782505320789 -0.11435153538284526 0.01947463745995506 -0.078784877199009409 -0.14557209585243033 0.015920825296833807 -0.098220859981663897 0.071899839803012247 -0.11574027355670223 -0.012618525469195846 -0.074703643697174443 -0.065755406886996909 -0.072786842670054849 -0.053369428044307603 -0.10892787577255723 0.12037448070428013 -0.11301175935935587 -0.10018390320585252 -0.12720317360371006 -0.10957556892632617 -0.10362121116879811 -0.13196569205437322 -0.11883111720845492 -0.12063243953726722 -0.15086363235890682 -0.14041232817595678 -0.14724020031013801 -0.13157985119917867 -0.15824584842175321 -0.12531947189896739 -0.15644602813985392 -0.13490232281515024 -0.16140074141438931 -0.12974949026327551 -0.17029998443623548 -0.14455278410498307 -0.166482309736494 -0.10962185541758307 -0.14406686017831566 -0.16711744606745421 -0.1520222978561101 -0.16635350791941589 -0.16860356488170689 -0.16640398664557371 -0.16148080741324 -0.15301955630410191 -0.15800412984198681 -0.10507992107915408 -0.1317192118622342 -0.15567346071569582 -0.16758353172222604 -0.15467062762093473 -0.16511006601847009 -0.15272750839238058 -0.17371099010793969 -0.16891433808291023 -0.15890142035402177 -0.17450230906883882 -0.17449899430103444 -0.17175848621147019 -0.16301302642373694
leaf_weight=1461.225740918424 435.11582768475637 696.86288304487243 1499.7974685560912 248.10145971924067 316.82765138708055 523.82290468644351 287.39062077645212 789.17975324532017 2059.8268268369138 590.08836194779724 544.3189716283232 3659.5396094601601 348.77806056477129 209.44009113498032 227.68204759480432 631.97627402190119 740.38218737766147 335.22640072414652 277.85520330350846 179.47311256080866 271.20089574577287 174.09433305962011 393.1195200914517 278.59151248820126 836.022709290497 163.92436981899664 368.5870745414868 364.49281849386171 189.54467921005562 241.73090555006638 345.07806099625304 153.55197346163914 542.10396607127041 208.05543476575986 208.5785994627513 201.10185909783468 136.40276822820306 166.10443435795605 162.50330679677427 211.77816659165546 167.0566462976858 258.54985248623416 122.26238379767165 216.65567355463281 222.48697130335495 128.14731249911711 251.50468405149877 219.40407354943454 227.03352909395471 145.83280559862033 186.31368477735668 123.87527605053037 144.0657934085466 151.44151387736201 202.8305471832864 142.66726278979331 117.65370512194932 200.92410669848323 213.16494833026081 117.82040084479377 128.59491590410471 120.01916241832078 218.35507829766721 157.05830709915608 255.57469278061762 173.79884002171457 230.7556909234263 125.64768087910488 157.73326327744871 203.56224156031385 119.6404456589371 220.70919785229489 124.43355002114549 122.48294820729643 142.37445721309632 128.05534332804382 127.02036612201482 121.00935595901683
leaf_count=20935 33953 32470 39034 48126 31861 27324 37019 40853 17226 42077 27720 43635 28502 25343 27725 36134 51090 33141 31363 25134 45652 40533 38142 44290 38419 27817 26229 33185 32116 25045 34667 33794 29365 37132 28840 37882 30712 30524 30237 43456 31647 44392 28271 50934 50678 29822 36631 43756 43662 34352 43399 29165 27630 35397 38131 33250 27915 47318 50356 27918 30135 28143 51567 33321 27353 33187 54948 29949 37508 48414 27964 52640 29587 28869 33753 30496 30425 28757
internal_value=0 0.0290678 0.122051 -0.105524 0.0098329 0.0188565 -0.0608543 0.0757552 0.0947609 0.145666 0.185462 -0.0162655 0.00854952 -0.0849428 -0.0339002 0.0429518 0.062213 0.0263444 -0.0533261 -0.0576018 -0.0748459 -0.149451 0.0577152 -0.112634 0.0955398 -0.100255 -0.0254267 -0.0434877 -0.0243035 -0.0867436 -0.0766523 -0.154995 0.13688 -0.127343 -0.099755 -0.102472 -0.156503 -0.132891 -0.106301 -0.0972323 -0.136641 -0.137235 -0.133188 -0.158549 -0.148087 -0.160475 -0.113924 -0.141158 -0.137298 -0.147711 -0.141362 -0.162322 -0.144404 -0.156284 -0.118375 -0.164078 -0.165406 -0.155223 -0.1594 -0.163094 -0.156749 -0.152023 -0.159734 -0.151569 -0.109909 -0.126285 -0.162361 -0.166985 -0.163913 -0.160096 -0.146503 -0.170106 -0.168486 -0.163093 -0.171831 -0.171747 -0.169682 -0.165036
internal_weight=0 17274.8 2961.02 10841.2 14313.8 13229.4 5375.11 5049.34 4260.16 2200.33 1610.25 8180.07 4520.53 4211.65 1481.27 2905.24 2273.27 1163.46 1615.29 1271.83 1044.15 5466.07 828.235 2730.37 1532.89 1084.38 1081.86 733.08 369.018 989.205 661.906 4843.69 1065.93 1741.17 701.814 675.133 4690.14 1462.58 622.383 459.88 1296.47 422.474 378.306 4311.83 670.506 3641.33 460.083 1088.42 869.013 460.294 314.461 3181.03 528.158 448.019 403.932 2550.29 2159.01 630.745 414.089 1447.14 391.281 262.686 776.548 301.124 533.43 340.855 558.193 670.596 410.401 434.318 241.903 711.861 491.152 273.924 260.195 252.489 252.668 238.663
internal_count=2780342 731651 59969 2048691 671682 532945 789903 184565 143712 126486 84409 348380 304745 684667 231983 158113 121979 105236 146632 206640 178915 1258788 72095 452684 70889 138737 87916 59414 57250 127535 66528 1136969 56689 325149 90516 121665 1103175 280859 121819 91582 250335 72209 86947 1016228 155477 860751 65471 213203 169447 107573 73221 753178 104613 104799 76013 604570 513042 148608 97674 343647 91528 61393 184094 60951 58716 64834 132527 159553 97882 103362 56235 169395 116755 64266 61671 60083 60374 56672
is_linear=0
shrinkage=0.173762


Tree=6
num_leaves=73
num_cat=0
split_feature=42 238 175 160 243 1 111 31 253 253 41 44 117 13 240 27 1 78 43 43 119 190 117 45 81 162 220 15 68 19 87 199 176 148 18 1 12 205 91 122 130 77 1 61 119 113 231 3 183 12 133 44 2 18 64 113 119 43 101 133 178 82 108 53 131 12 238 97 130 180 172 64
split_gain=3205.53 1129.42 965.793 654.526 349.737 632.365 216.987 200.021 170.475 152.641 116.805 101.16 96.1069 89.2521 70.4841 67.9453 66.853 58.9107 49.1865 47.8197 41.5216 23.399 23.2029 17.6603 17.8321 16.5599 20.1749 16.25 15.4871 13.3013 11.9984 11.7271 11.2966 10.4109 10.2668 9.5735 4.73241 4.73155 4.03536 3.95169 3.06035 2.7447 2.2627 2.20043 1.69371 1.55987 2.15841 1.4742 1.09446 0.998581 1.66441 0.915448 0.8346 0.606781 2.49244 0.60113 0.578756 0.68397 0.683232 0.435325 0.547714 0.906621 0.386267 0.615702 0.280741 0.271555 0.21851 0.195822 0.133914 0.118653 0.0356318 0.0199743
threshold=1.0000000180025095e-35 1.0000000180025095e-35 0.69314718055994751 -11.499999999999998 1.0000000180025095e-35 202101.50000000003 0.044832750271215353 1.0000000180025095e-35 1.0000000180025095e-35 1.0000000180025095e-35 3.2828454781516103 0.48025139130989453 1092.3100000000002 4506.3800000000001 1.0000000180025095e-35 3859.4750000000004 202005.00000000003 1.0806900714547203 293.54895595769659 137.74166643905903 19.435000000000006 -0.083554817275747484 1220.8900000000003 2.1968814538186705 0.029103881324664755 3806.3850000000007 0.0087120527558849515 5731.670000000001 1202.3250000000003 21093.615000000005 -13.315000000000099 1.0000000180025095e-35 -0.0041516984942872289 58.110000000000056 700.98000000000013 202103.50000000003 2.5000000000000004 0.74305019305019304 1.0000000180025095e-35 16494.035000000003 -667.49999999999989 0.99990306320279154 202009.50000000003 59588.985000000008 2301.2600000000007 -2.0338680619714547e-05 1.7449982326587303e-06 5661.3300000000008 1.0000000180025095e-35 8.5000000000000018 2976.1750000000006 3.2054717998801654 1328.9950000000001 358.07000000000005 -12767.074999999999 -2.8627368531849995e-06 1685.7350000000004 137.74166643905903 35.189999999999955 2976.1750000000006 -5.6834327934072038e-06 23.574800908593804 1.333333333333335 -870.88499999999988 1950.5000000000002 19.500000000000004 1.0000000180025095e-35 17.500000000000004 -1398.4999999999998 -0.00030909599085710997 -0.3289331120216869 -70665.494999999981
decision_type=10 2 10 8 2 2 8 8 2 2 8 8 8 2 2 8 2 10 8 8 10 8 8 8 8 10 10 2 10 2 10 10 10 8 10 2 2 10 10 8 8 8 2 10 8 10 10 10 10 2 10 8 10 8 10 8 8 10 10 10 10 8 10 8 10 2 2 8 10 10 10 10
left_child=1 2 3 6 5 9 15 14 17 10 11 -5 16 18 23 -1 -3 -7 22 30 -13 27 -6 24 42 31 -27 29 -24 -14 -18 36 -22 35 -20 40 48 -15 -31 -25 43 49 -2 -23 -35 47 53 -43 -16 50 -38 -48 -41 54 66 -44 57 58 -51 68 61 -61 67 -64 -63 -58 -47 69 -55 71 -68 -62
right_child=7 12 -4 4 13 8 -8 -9 -10 -11 -12 20 21 37 25 -17 19 -19 34 -21 32 33 28 39 -26 26 -28 -29 -30 38 -32 -33 -34 44 -36 -37 41 -39 -40 52 -42 45 55 -45 -46 46 51 -49 -50 56 -52 -53 -54 59 -56 -57 65 -59 -60 60 62 64 63 -65 -66 -67 70 -69 -70 -71 -72 -73
leaf_value=0.11029537285381366 -0.11823089006062522 -0.13069560149863291 0.18290178761993231 0.081759564680890101 0.017681423221190283 0.078576682835122189 0.17566800848787498 -0.017302429530456288 0.035296036533422052 -0.039382720231114797 -0.048145386544611327 0.047911016823766389 -0.030669847670533244 -0.10333128908640021 -0.12232283617590169 0.03836202414361161 -0.010515312161052047 0.13740942902516703 -0.050630560330859525 -0.064608828424261328 0.010707090403470424 -0.11908008577210527 -0.018980946885739147 -0.11179330966156942 -0.048610541544418337 -0.15827878783708976 -0.076563430431810672 -0.12659548434055851 -0.0631095663927628 -0.067320552074164278 0.046397658811434338 -0.10225417434233988 -0.023339169683498414 -0.13390121286073164 -0.09712187553464921 -0.079362598100718745 -0.15315074784228394 -0.13665576046348973 -0.10281036539603192 -0.13481305412856839 -0.10330817355066628 -0.16244407893045393 -0.089659465882984526 -0.14488863697267218 -0.15537517610403742 -0.17082397494261567 -0.15690157415835249 -0.1383816970199552 -0.1435571481235679 -0.16354447935771624 -0.12522002110613573 -0.13506367480826476 -0.15319112325596582 -0.16614842338553681 -0.14030724653356089 -0.10280343162308314 -0.15298392312673428 -0.1383002481377974 -0.14501294455554506 -0.14473026545608805 -0.17439352684928675 -0.15625693788136383 -0.16852903388552082 -0.15042383922811814 -0.16712530287142777 -0.16455130161800666 -0.16443637797738991 -0.16349669313515319 -0.17347133285747116 -0.16681682698840025 -0.16049592831913587 -0.17119300205902035
leaf_weight=632.9733649478294 245.75661606667563 212.51853112806566 1140.4832817246206 770.55670732539147 357.33998305676505 1335.2076542172581 786.77050134167075 437.06749092182145 2606.6559981741011 3925.6246974803507 767.53215303691104 515.1501545147039 183.17626484390348 275.1154596968554 133.18787293508649 1061.0981458490714 227.48996091051959 835.41356153134257 230.49271827191114 411.3813842930831 469.03477140935138 221.8474302617833 739.42193814134225 180.90615307702683 226.52865992276929 171.34052457311191 195.10154520091601 202.20981606421992 355.60921055776998 171.36754724080674 220.00851570535451 131.04462285083719 789.63956318981946 238.35471483157016 379.63335307687521 214.63954089279287 130.58673234004527 241.62816279940307 222.11962306220084 144.03253419999965 177.63308164360933 130.0881192246452 179.44552570162341 181.22563515137881 207.38955042604357 144.04013239755295 109.14615571475588 187.9371813358739 162.95683354302309 111.71582845295779 127.13081333949231 123.58688202151097 154.78931555524468 126.05473903589882 168.10261041694321 253.427507778164 121.6634855424054 139.52284581260756 129.93704500095919 111.22563446918502 129.10723958932795 114.8491373565048 118.560238517588 108.71423970675096 191.27501913858578 123.45795213058591 139.62021127669141 175.36744849151 187.6307498884853 160.46785073075444 137.54677612520754 108.23337918031029
leaf_count=30156 42334 38781 52642 36205 35149 56087 31095 47337 26255 45786 41114 23312 33819 30029 33147 51571 30427 37826 25532 59056 26185 46223 48672 31786 29449 44470 47185 40900 40175 33126 28367 22878 50563 48599 51041 38482 34438 32339 42904 32812 36215 33457 28396 40621 45059 37896 29650 49516 41241 29698 34063 32923 38322 34006 45500 39826 33274 37726 34517 30217 36021 31255 33142 30099 53383 33910 38849 48712 51991 44533 38296 29774
internal_value=0 0.011606 0.0280869 0.0177463 0.00371975 0.0161828 0.10026 -0.130612 0.0652494 -0.0162045 0.0112687 0.0291915 -0.0855052 -0.0543368 -0.139249 0.0652392 -0.043437 0.10122 -0.0381575 -0.021846 0.00635566 -0.107818 -0.0207653 -0.105109 -0.0908238 -0.15012 -0.114772 -0.0842109 -0.0333116 -0.0693485 0.0174654 -0.153372 -0.0106521 -0.122634 -0.0795584 -0.11072 -0.155112 -0.118914 -0.0873542 -0.132062 -0.12231 -0.156869 -0.104915 -0.130684 -0.143892 -0.159647 -0.16119 -0.148224 -0.134007 -0.148477 -0.139373 -0.145305 -0.144333 -0.162933 -0.158195 -0.0973547 -0.152223 -0.147987 -0.15358 -0.164756 -0.16327 -0.158166 -0.16593 -0.159869 -0.163048 -0.15881 -0.165334 -0.168334 -0.170529 -0.170466 -0.162481 -0.172934
internal_weight=0 21306.7 18215.4 17074.9 14594.1 12014.8 2480.84 6171.15 4777.28 7237.54 3311.91 2544.38 3091.36 2579.24 5734.09 1694.07 1071.4 2170.62 2062.5 858.88 1773.82 2019.96 1452.37 1384.89 905.158 4349.2 366.442 778.873 1095.03 576.663 447.498 3982.76 1258.67 1241.09 610.126 795.346 3851.71 516.744 393.487 479.728 580.706 3555.57 678.63 403.073 445.744 2671.55 2353.53 318.025 296.145 884.015 257.718 232.733 298.822 2120.8 589.31 432.873 626.297 381.176 241.653 1531.49 1217.8 417.35 800.45 227.274 306.124 245.121 421.207 573.176 313.685 397.808 277.167 237.341
internal_count=2780342 1334313 771734 719092 606270 343333 112822 1446029 120168 223165 177379 136265 562579 262937 1398692 81727 156631 93913 200569 117850 100060 405948 123996 242925 140005 1155767 91655 150749 88847 109849 58794 1064112 76748 255199 76573 161541 1041234 62368 76030 102920 123059 966846 110556 86844 93658 729220 646247 82973 74388 237626 68501 62573 71134 583674 160541 68222 169125 101941 64215 423133 337136 114855 222281 63241 84638 67184 115041 159040 85997 110328 77145 65795
is_linear=0
shrinkage=0.173762


Tree=7
num_leaves=79
num_cat=0
split_feature=254 29 187 1 170 141 243 1 255 246 255 33 6 226 11 108 247 98 11 5 243 170 78 165 214 52 52 228 13 208 237 255 133 65 34 190 15 113 35 152 37 231 0 0 117 22 12 65 6 115 5 28 112 38 57 4 138 227 169 207 0 15 20 20 18 176 49 171 75 117 176 57 117 99 57 87 176 176
split_gain=2569.2 856.845 740.097 360.01 314.727 310.788 254.013 221.956 132.161 123.847 154.78 97.3609 92.142 90.1762 83.5731 70.1531 54.9126 49.9541 38.7777 37.4745 33.0919 32.0082 31.3339 57.3526 27.9916 19.4621 18.6755 18.6565 17.4386 19.5728 15.6027 12.546 40.052 11.6524 9.72948 7.64466 7.37069 6.61578 6.52377 6.01494 5.41036 4.78025 4.44749 4.24672 3.8408 3.51547 3.49532 2.68227 2.58 2.25327 2.12948 1.60717 1.16335 0.965951 1.09864 0.900723 0.830502 1.37803 0.540845 0.537115 0.536041 0.426538 0.419238 0.352672 0.575036 0.302742 0.283314 0.277104 0.239715 0.326532 0.415877 0.231616 0.278009 0.234123 0.0853453 0.0838248 0.0587351 0.0120362
threshold=1.0000000180025095e-35 118.50000000000001 -9.1648571428571426 202101.50000000003 -1.2416666666666647 0.0055422324208350658 1.0000000180025095e-35 202056.50000000003 1.0000000180025095e-35 1.0000000180025095e-35 1.0000000180025095e-35 1023.8400000000001 287.67500000000007 -0.035714285714285539 5034.9700000000003 -4.999999999999984 1.0000000180025095e-35 -1.4999999999999998 22054.845000000005 -773.1049999999999 1.0000000180025095e-35 1.0000000180025095e-35 0.71835117002396764 29529.195000000003 -160.08128571428597 998.97500000000014 998.97500000000014 -0.013002633179273748 53807.19000000001 -634.50857142857137 1.0000000180025095e-35 1.0000000180025095e-35 40251.710000000006 1097.5000000000002 24836.410000000003 -1.0000000180025095e-35 2430.5700000000002 1.5667339893842402e-05 1377.5000000000002 -2.4999999999999996 0.0010000197310124903 2.8406752496590751e-06 79637138.500000015 159533562.00000003 1316.8850000000004 76.500000000000014 19.500000000000004 3826.5000000000005 451.65500000000003 526.06500000000017 -165.47499999999997 932.53500000000008 -0.033333333333333139 18.500000000000004 30335.760000000006 415.21000000000009 2903.1750000000006 0.030303030303029856 1.0000000180025095e-35 1306.6694285714304 98582011.000000015 1142.6800000000001 97.500000000000014 19.500000000000004 545.81000000000006 0.047486852867698055 50.500000000000007 0.027397260273971002 0.00099206612675940224 772.18500000000006 -0.0085645564564577684 38108.495000000003 1887.8800000000003 2649.1700000000005 46839.950000000004 -161.91499999999996 -0.015433450438362148 0.047486852867698055
decision_type=2 2 8 2 8 10 2 2 2 2 2 2 10 10 2 8 2 8 2 10 2 10 10 10 8 8 10 10 2 10 2 2 8 10 2 10 2 8 8 8 2 8 2 2 8 2 2 8 10 10 10 10 8 2 10 8 10 10 10 10 2 2 8 8 10 8 8 10 10 10 10 10 8 8 10 8 10 10
left_child=1 2 4 9 -1 13 7 16 -9 10 12 24 17 -5 -7 -3 26 -4 19 -11 34 27 23 39 -2 36 -6 -8 29 -26 -19 32 -15 -27 -17 46 -22 43 -14 -13 -20 55 62 45 -23 50 -35 -42 -45 -31 65 -41 -53 56 -55 -39 57 63 -54 -44 61 -56 -37 64 77 -24 -21 -58 -65 70 74 73 75 -69 -70 -73 -66 -47
right_child=11 15 3 5 6 14 21 8 -10 18 -12 22 38 31 -16 20 -18 30 40 66 25 44 37 -25 28 33 -28 -29 -30 49 -32 -33 -34 35 -36 42 -38 41 -40 51 47 -43 59 48 -46 53 -48 -49 -50 -51 -52 52 58 54 60 -57 67 -59 -60 -61 -62 -63 -64 68 76 -67 -68 71 69 -71 -72 72 -74 -75 -76 -77 -78 -79
leaf_value=0.13573003316146712 -0.0088138149740763783 0.015701823717624384 0.048445904011832151 0.048177304264282385 0.061528182895635671 0.15934853176492811 0.021322539233663167 0.11972714656653416 0.054596517586365585 -0.10710707120473859 -0.067744604980314441 -0.098611034876417619 -0.06912144676531061 -0.047800578826097714 0.061915066397301134 -0.043153048633491405 0.00091130429055577425 -0.019177711221622984 -0.089978879585949079 -0.035589070684127873 -0.063956991688103954 -0.050866074196696427 -0.14540880355707839 -0.00039881621576657363 -0.024999083833667734 -0.08771898431630186 0.024808661667410487 -0.033662822156017104 -0.14286451676332934 -0.085955058016861458 0.017668420745829503 -0.047658718840329829 0.017835772816065867 -0.098146875281408322 -0.085858223523560526 -0.15142878573623647 -0.10856496061737886 -0.13206988025744035 -0.038636869338205253 -0.12752530695990824 -0.1377604704380706 -0.10271033467228741 -0.13352112049807924 -0.15386724160639206 -0.082551718007934871 -0.16183053037075001 -0.13203955815739007 -0.11021686212457912 -0.11988319590047659 -0.11113188885603276 -0.1212910486192486 -0.13598769052320772 -0.16729094202621111 -0.14112797709884689 -0.15624702718234623 -0.15434904026098314 -0.17431903694949896 -0.1399821931479649 -0.14925845694879306 -0.11781189378342743 -0.15014470901127092 -0.1712530461064922 -0.16462662773400127 -0.17108683551480011 -0.14628020968332836 -0.15793259237998719 -0.027659625514518574 -0.15396546488669802 -0.16477038060891036 -0.15372103446628735 -0.15544971538271801 -0.16657026718716805 -0.15979346153170315 -0.16557532317140897 -0.17167981297002657 -0.17321399951149602 -0.15264737914232832 -0.16447962467373167
leaf_weight=1219.1407862498891 136.06703064823523 182.63177391188219 865.10422171559185 703.85683151101694 902.15345284249634 514.88621855806559 327.67038930789568 1641.1591584337875 2203.9271005103365 312.35529521526769 1712.6702913846821 114.31062285741791 328.9825791597832 570.50132364640012 549.45072039938532 351.95343499933369 1812.6935291662812 862.87568588089198 168.93165166000836 270.35421106568538 318.69322935980745 215.49823675421067 150.08742258767597 116.65820728987455 146.04855852178298 256.50407287036069 779.59904368245043 431.88819255819544 173.00097312778234 213.04742461931892 580.39920231210999 543.84542077733204 552.59236493916251 246.07347613526508 297.01382528827526 179.75653724162839 172.30697981221601 94.519973836839199 595.85893034888431 136.93494880688377 261.96876156656072 126.0256045400165 134.60437041567639 118.62082601105794 248.93629728909582 125.23676828877069 146.60994969168678 180.16812688717619 156.35613205353729 216.29791180975735 111.27054965565912 113.14007597533055 97.619414543267339 156.98905613343231 115.41263800230809 130.35073235328309 115.41928179212846 106.2534429919906 103.42629023548216 128.40399717586115 143.80300384247676 113.37467412743717 121.98956613382325 107.3539011918474 86.779847642406821 95.273576162289828 273.86249428731389 93.792794725159183 91.003666728967801 109.70577339082956 101.32540987967514 89.756628287956119 95.72488772845827 118.96349598886445 132.66169759701006 158.76673400308937 88.206436045933515 88.29439124581404
leaf_count=52277 31049 24628 38385 47014 33479 19094 24638 55489 20084 42739 24423 31060 28068 53679 43535 26277 20141 53783 24548 27381 50492 25809 46139 29713 27383 47327 32350 41700 31313 45308 17757 6578 25357 47570 36491 42117 29887 28844 55014 37658 49149 36383 28030 35179 37645 40048 31367 35840 48106 52260 32662 33755 28251 49248 37329 40342 37055 33414 29766 29205 46104 36596 29320 34129 28053 29323 29706 28990 29140 35595 32648 29127 30996 37196 43482 51754 28395 28176
internal_value=0 0.00699573 0.0192755 -0.0143497 0.0531276 0.0310446 0.0413679 0.0535891 0.0823956 -0.0386632 -0.0255098 -0.133365 -0.00313754 -0.0039748 0.10905 -0.0880425 0.021892 0.0154297 -0.0829896 -0.0591334 -0.0960917 -0.0319148 -0.14516 -0.111327 -0.0813106 -0.108803 0.0445064 -0.00994237 -0.0944914 -0.0799473 -0.00436039 -0.0259958 -0.0155057 -0.12061 -0.062698 -0.129421 -0.0796113 -0.152324 -0.0494808 -0.134214 -0.11643 -0.129802 -0.142368 -0.155077 -0.0678495 -0.157253 -0.110801 -0.126537 -0.134543 -0.0986388 -0.14123 -0.143235 -0.150082 -0.159805 -0.153321 -0.144984 -0.161814 -0.158729 -0.158014 -0.125852 -0.158458 -0.163683 -0.156764 -0.16087 -0.156874 -0.150272 -0.0315988 -0.16657 -0.163734 -0.161918 -0.164685 -0.164964 -0.16775 -0.160457 -0.168869 -0.170815 -0.14949 -0.162926
internal_weight=0 22167.9 19631.3 9848.66 9782.67 3435.13 8563.53 7339.53 3845.09 6413.53 4945.89 4787.88 3233.22 2370.8 1064.34 2536.54 3494.45 2308.38 1467.64 856.572 2353.91 1223.99 3903.42 682.09 884.462 1704.94 1681.75 759.559 748.395 575.394 1443.27 1666.94 1123.09 1213.94 648.967 957.438 491 3221.33 924.842 565.431 611.069 350.896 564.754 2870.43 464.435 2595.46 392.683 442.137 274.977 429.345 356.632 451.121 314.186 2238.82 529.579 224.871 1709.25 1036.82 201.046 263.008 372.59 228.787 301.746 930.568 388.517 245.361 544.217 672.424 542.05 434.697 324.991 557.005 344.248 212.756 223.665 248.523 174.986 213.531
internal_count=2780342 1388373 965662 622050 343612 195257 291335 161543 75573 426793 217430 1391969 193007 132628 62629 422711 85970 109925 209363 99826 398083 129792 1204656 190203 187313 335315 65829 66338 156264 124951 71540 85614 79036 254936 62768 207609 80379 1014453 83082 160490 109537 105569 128672 908884 63454 825599 78937 84989 83285 97568 108124 129430 91772 717475 169277 69186 548198 333080 58017 57235 120029 73925 71437 299666 124672 75462 57087 215118 174994 140865 105270 178063 111877 66186 72622 80881 56448 68224
is_linear=0
shrinkage=0.173762


Tree=8
num_leaves=77
num_cat=0
split_feature=254 31 6 199 116 209 43 210 77 31 44 11 41 141 255 48 4 4 65 141 116 138 31 23 232 141 27 252 176 72 138 11 99 134 37 160 145 85 250 240 18 122 35 189 9 134 130 212 83 238 118 124 77 11 140 144 160 128 238 3 108 178 19 85 9 108 64 171 111 180 116 26 87 79 54 133
split_gain=2064.14 818.185 698.015 279.423 252.21 192.796 160.55 150.813 103.456 98.2554 93.6719 93.0395 103.605 92.7926 57.6576 121.426 59.9779 36.4883 33.9147 32.9319 31.0637 29.6332 28.7817 20.3195 23.8663 20.089 19.1511 14.8321 14.2324 13.9035 13.253 17.7988 12.1717 9.71537 9.23184 7.27303 6.94157 7.38711 5.76912 5.54343 5.26749 4.75341 4.34467 3.87788 2.75512 2.60213 3.00578 2.12142 1.85182 1.74193 2.02888 1.70647 1.4277 1.66427 2.00963 1.37053 1.30438 1.25133 1.2032 1.12103 1.05707 0.705493 0.679852 0.898617 0.662723 0.593584 0.77823 0.601601 0.438141 0.392298 0.240098 0.202899 0.128256 0.123664 0.0825427 0.0201026
threshold=1.0000000180025095e-35 1.0000000180025095e-35 287.67500000000007 60.215714285714256 11194.475000000002 -592.5124285714279 31.065689583712654 -0.49285714285714294 0.99517490250858509 8.0000000000000018 1.0000000180025095e-35 43436.405000000006 0.38305261117926154 0.014018638500149002 1.0000000180025095e-35 0.00096088629830815963 544.19000000000017 1138.3950000000002 414.50000000000006 0.045770520069030408 52605.585000000006 21342.735000000004 1.0000000180025095e-35 -394.49999999999994 544.42077430814959 0.096867400083373162 65661.565000000017 1.0000000180025095e-35 -5.6213903377881498e-05 369.49500000000006 4709.5950000000003 87267.580000000016 -21033.964999999997 4.5000000000000009 0.00043999803916860053 8.5000000000000018 44.780000000000058 119.32500000000051 1.0000000180025095e-35 1.0000000180025095e-35 1141.6950000000004 21935.290000000005 1199.5000000000002 1.0000000180025095e-35 18728.365000000005 2.5000000000000004 -1063.4999999999998 18601.000285714403 0.29090783118037705 1.0000000180025095e-35 -1132.2399999999998 37344.81500000001 0.96302510564255561 35431.380000000005 1.1590898922176402 336.06500000000005 -1.0000000180025095e-35 10.500000000000002 1.0000000180025095e-35 22129.880000000005 -0.24722222222222198 -2.2893042498202446e-05 87975.010000000024 1.0000000180025095e-35 28249.610000000004 -1.9999999999999847 -3794.2299999999996 0.057142857142860305 -0.0057460903135077091 -0.085994313586751484 17234.215000000004 -1185.4999999999998 33.175000000000004 0.010386418782353453 1924.9150000000002 8002.5150000000003
decision_type=2 10 10 10 10 10 8 10 10 8 10 2 8 10 2 8 8 8 8 10 8 10 8 8 8 8 8 2 10 10 8 2 10 10 2 10 8 10 2 2 10 8 10 8 2 10 10 10 10 2 10 8 8 2 8 8 10 10 2 10 8 10 2 10 2 10 10 10 10 10 8 10 10 10 8 8
left_child=1 2 3 5 8 14 9 -7 -5 11 22 12 13 32 15 16 18 28 -1 30 25 27 34 24 -6 35 -18 -12 -9 -19 31 36 33 -4 44 38 -8 -38 -13 41 -22 -29 45 57 -2 64 51 52 -36 -33 -51 -47 55 54 58 -44 -46 -32 -54 -43 -45 -55 63 70 -41 -63 67 71 -56 -60 -49 74 -73 -64 75 -67
right_child=10 -3 6 4 23 7 19 17 -10 -11 21 20 -14 -15 -16 -17 26 29 -20 -21 40 -23 -24 -25 -26 -27 -28 39 -30 -31 43 49 -34 -35 48 -37 37 -39 -40 42 -42 59 47 60 56 46 -48 62 -50 50 -52 -53 53 61 68 -57 -58 -59 69 -61 -62 65 73 -65 -66 66 -68 -69 -70 -71 -72 72 -74 -75 -76 -77
leaf_value=0.0068372982798489846 -0.068683779503683512 0.14026388739734164 -0.024641964761632395 0.052316924694062197 -0.035148544278133256 0.098774180548220666 -0.05164861907018628 0.014675956491330215 0.11520706781957191 0.065679913561636286 -0.096124470579872501 -0.039512549458164202 -0.096010887586013879 0.067010273532018716 -0.036245525829857808 -0.064291883297064575 -0.049493043147747676 0.0051130420275149954 0.05810329593434066 -0.045844211338527126 -0.087680308055476497 -0.071063410071753694 -0.025744136231241041 0.021636449518568867 0.013720507585658999 -0.015228523893529518 0.0047891291743389491 -0.093199350148118781 0.048399200002266364 -0.037773510198525206 -0.0979816321982767 -0.13167381614962262 -0.046981465541674913 0.013101037200620778 -0.10907006059602913 -0.096307841155551077 -0.11428319019514084 -0.063958510982095096 -0.075590054651528654 -0.1560673967987771 -0.12396364430282292 -0.12727918771623595 -0.12035694202204597 -0.12530059668088753 -0.10834410907562213 -0.15203900048701957 -0.097503078668456339 -0.15841284997695063 -0.14264815145446222 -0.12488109438578558 -0.095358649972017831 -0.11896827193881115 -0.12405614946785434 -0.14234978950001623 -0.16720755486540431 -0.15052789260867991 -0.082626312484210346 -0.12092656393507642 -0.15315767871103395 -0.15485322249802233 -0.14597857993660462 -0.14828198512213467 -0.1655675348681567 -0.14692744042684514 -0.1378841528284398 -0.17039448173342983 -0.14898108534644303 -0.15101725546718001 -0.15108647960480648 -0.13868316913690837 -0.17107583057366083 -0.15857134079753218 -0.16770334092590075 -0.17423502695316756 -0.16528250199767017 -0.1742300656763445
leaf_weight=684.92307134345174 219.24178886134177 1278.581300531514 580.97737127682194 1802.7285451602656 612.07716783112846 797.83367767930031 275.70334085263312 959.79622934944928 1405.5368701340631 286.32052507391199 177.55608669877984 245.37186811561696 408.94366249325685 472.39400645554997 3014.5059127961285 733.81879721442237 397.69449778157286 471.34787670220248 903.67220708401874 377.57611872721463 209.29264793125913 173.1924040238373 237.09343453752808 1094.2364077914972 595.10593002894893 272.67371567664668 387.40421151486225 96.259736384265125 623.20701818005182 442.51988595724106 148.7648662221618 166.93319468037225 423.71320941415615 318.97566894278862 90.458714613225311 226.17159406049177 171.59968708408996 180.92290362995118 294.39219491230324 152.52802976267412 285.75313901249319 88.651224271394312 87.024637820199132 130.00614877021872 120.88880754122511 101.393591910135 86.014396970625967 76.825850433669984 109.76457220874727 132.99335285462439 149.06238023424521 87.997527391184121 131.38382564391941 87.174822380766273 98.7799049152527 95.176227907883003 117.34526363573968 138.6497194939293 98.925917563028634 89.421225143829361 175.29016128461808 133.95292491395958 80.126116736792028 127.2175399591215 100.32858926639892 90.606834013480693 130.73896908201277 89.809997599106282 105.02006580727175 131.93436038144864 109.85481977043673 110.95065264450386 79.859577019931749 130.89173601823859 77.742612487403676 75.74929037084803
leaf_count=28045 46132 13607 39684 28073 12244 34934 48526 41207 41518 10728 53320 20723 55256 39052 38075 50618 45208 22507 43691 52429 27052 54283 40586 27833 44231 24038 15560 27668 31153 40965 28201 23170 55550 42617 28615 36919 31974 30207 48688 52189 45965 28422 30978 28588 31345 34007 30525 28718 36817 34315 35349 31508 44150 32149 36517 34220 31600 30048 36951 30750 39825 50830 29844 47633 35891 34267 49026 33490 38498 48835 41579 42220 30390 49527 29727 28762
internal_value=0 0.00531102 -0.00290599 0.0173007 0.0483817 -0.000884688 -0.0525748 0.0330071 0.079869 -0.0324233 -0.127519 -0.0399364 -0.0170757 0.000897003 -0.0191243 -0.00251552 0.0165824 0.0119923 0.036 -0.0921887 -0.0728043 -0.141029 -0.0776488 0.0044872 -0.0110575 -0.0557312 -0.0227077 -0.144901 0.0279523 -0.0156538 -0.102667 -0.0911849 -0.0226977 -0.0112645 -0.0963599 -0.0701501 -0.0723024 -0.0884554 -0.0591895 -0.147834 -0.108624 -0.124309 -0.150244 -0.123536 -0.0827404 -0.136125 -0.12444 -0.153713 -0.127478 -0.117605 -0.109279 -0.136673 -0.150611 -0.152441 -0.145097 -0.136117 -0.0956765 -0.10905 -0.137331 -0.141126 -0.137173 -0.157184 -0.163317 -0.15819 -0.148853 -0.158822 -0.160976 -0.163965 -0.1589 -0.144886 -0.165865 -0.166638 -0.162393 -0.170944 -0.169957 -0.172141
internal_weight=0 22277.5 20998.9 14926.4 5509.68 9416.72 6072.48 3294.7 3208.27 4024.98 4197.88 3738.66 2205 1796.06 6122.02 3107.51 2373.69 2496.87 1588.6 2047.5 1533.66 3303.09 894.793 2301.42 1207.18 1038.61 785.099 3129.9 1583 913.868 1669.93 1077.21 1323.67 899.953 657.699 765.936 628.226 352.523 539.764 2952.34 495.046 274.332 2678.01 592.711 457.476 528.262 275.406 2149.75 200.223 448.989 282.056 189.391 1624.83 1442.63 566.044 182.201 238.234 287.415 362.244 178.072 305.296 876.586 524.916 313.898 252.857 789.411 655.458 524.719 203.8 230.86 186.681 434.909 190.81 211.018 244.099 166.356
internal_count=2780342 1388373 1374766 545862 153899 391963 828904 170766 69591 446272 1391969 435544 232159 176903 221197 183122 132504 135832 71736 382632 203385 1176874 215095 84308 56475 130368 60768 1122591 72360 63472 330203 203541 137851 82301 174509 106330 110707 62181 69411 1069271 73017 86840 982431 126662 109077 184120 96040 798311 65432 92834 69664 65515 601010 535812 204951 65198 62945 58249 129936 59172 68413 330861 197301 117930 88080 298712 247882 198856 75015 85786 70297 165366 72610 79371 92756 63029
is_linear=0
shrinkage=0.173762


Tree=9
num_leaves=79
num_cat=0
split_feature=245 146 10 1 72 6 236 198 120 102 209 149 160 141 41 6 1 187 255 251 237 83 132 209 116 180 174 141 36 37 226 211 1 53 72 12 189 246 35 116 35 22 124 225 17 63 137 171 195 41 53 17 149 213 0 130 53 6 231 178 216 38 65 201 109 64 90 20 173 87 116 126 86 145 111 173 116 44
split_gain=1652.8 988.649 597.059 424.872 405.091 295.377 261.926 209.257 107.156 106.139 86.979 94.2763 112.5 78.3465 76.5241 107.741 101.952 74.5715 64.2201 62.1782 61.1039 52.9644 32.4518 32.1417 31.0673 27.8677 27.4448 27.1104 25.8398 20.1729 19.9117 35.7361 27.52 12.7312 11.7295 10.4588 10.3192 6.65299 5.42375 4.93953 4.88964 4.83642 4.76079 4.09866 3.54878 2.98786 2.98068 2.84415 3.09956 2.61108 3.21237 2.51727 2.38278 2.15692 2.00391 1.84005 1.72759 1.67116 1.59277 2.57298 1.06422 0.929881 0.649378 1.33319 1.01007 1.22241 0.633228 0.543723 0.460708 0.367029 0.317868 0.293531 0.180231 0.166315 0.160854 0.152624 0.0706762 5.20299e-06
threshold=1.0000000180025095e-35 -1.0000000180025095e-35 1.0000000180025095e-35 202103.50000000003 5741.8350000000009 810.83500000000015 1.0000000180025095e-35 1.0000000180025095e-35 -247.87999999999997 102.00000000000001 -1536.4471428571399 1.0000000180025095e-35 -6.4999999999999991 0.014018638500149002 2.0538538635926105 810.83500000000015 202011.50000000003 -1.0000000180025095e-35 1.0000000180025095e-35 1.0000000180025095e-35 1.0000000180025095e-35 0.092106729937264056 -1763.4999999999998 -236.67128571428498 9775.7100000000009 -0.15194493124666447 -0.22780211827474897 0.036324759352112303 510.25500000000005 0.0010000197310124903 -0.72868217054263884 3711.7071428571503 202001.50000000003 -512.58499999999992 1155.4050000000002 3.5000000000000004 542.38242857143007 1.0000000180025095e-35 1377.5000000000002 20830.250000000004 3577.5000000000005 76.500000000000014 23104.330000000005 0.80596127720861854 6.5000000000000009 -698.49999999999989 -21113.984999999997 0.062589031339031015 30.771142857142902 0.32634001940053409 -1182.675 6.5000000000000009 -5299.3749999999891 750.54599999999812 138203388.50000003 -1063.4999999999998 -1182.675 727.50500000000011 -2.6931872228119098e-06 -1.8218000629214848e-05 1.0000000180025095e-35 1.0000000180025095e-35 1598.5000000000002 0.18761785040854803 0.016678761490084102 -6697.6499999999987 0.13999999999999801 10.500000000000002 -0.25811323763205996 -111.13499999999998 12639.340000000002 2685.9350000000004 -17.110000000000046 -416.54499999999996 0.0045394202452719509 -1.0000000180025095e-35 22901.910000000003 1.6736141669042504
decision_type=2 8 2 2 10 10 2 10 10 10 10 8 10 10 8 8 2 10 2 2 2 10 10 10 10 10 10 8 2 2 10 8 2 8 8 2 8 2 8 10 10 2 8 10 8 8 8 10 10 8 10 10 8 10 2 10 10 8 8 10 8 2 8 10 10 10 10 10 10 10 8 10 10 10 8 10 10 8
left_child=1 2 -1 6 8 7 10 13 -4 30 17 12 -12 22 15 16 29 19 20 25 38 -18 -5 -24 -14 -3 -7 41 -13 67 32 35 -2 40 -31 42 -35 -30 -19 -38 46 -28 -32 47 -16 71 -17 54 -49 50 -45 -34 -44 -43 58 -36 73 -56 59 -37 -40 -60 72 64 -64 74 70 -8 -54 -67 -61 -46 -63 -42 76 -76 77 -66
right_child=9 3 4 5 -6 26 14 -9 -10 -11 11 28 24 -15 44 33 21 18 -20 -21 -22 -23 23 -25 -26 -27 27 -29 37 34 31 -33 51 36 55 43 39 -39 60 -41 56 53 52 49 45 -47 -48 48 -50 -51 -52 -53 68 -55 57 -57 -58 -59 61 66 -62 62 63 -65 65 69 -68 -69 -70 -71 -72 -73 -74 -75 75 -77 -78 -79
leaf_value=0.22731500867024904 -0.0097885315841120708 -0.0045115203420832114 0.055247262144129707 0.031250765759531618 -0.073970844524015408 -0.00015877068079604774 -0.037620874945164168 0.10545196548366438 0.15021205699003395 0.07494642238533826 0.082667602923220992 -0.0075732410514098196 0.023372415891063467 0.078116590275455228 -0.10461608600445955 -0.081208779358715497 -0.007755050664887503 -0.064216371564157201 -0.076526584313541104 0.010496715743771408 0.015170112730971842 0.10393569380485031 -0.031577888006681584 0.024735986424148374 -0.021742478211631989 -0.051187721779214268 -0.072313013889822864 -0.018277697747461498 -0.033701120538859118 -0.05105873946733825 -0.09693810825789452 -0.019039318420201432 -0.1020300588324602 -0.051604924018613975 -0.089370182001617116 -0.12542842957258238 -0.075469177576418606 -0.066614553503823073 -0.033227194646227795 -0.11626482561180534 -0.12450489901657458 -0.090263662447803844 -0.11268899984496357 -0.14296353279784776 -0.15242425537315349 -0.11664374849960669 -0.11786769862827354 -0.11657415345290432 -0.1565693477753157 -0.15459029560630708 -0.10163069445835449 -0.14048999631416237 -0.13674978932527085 -0.11843934365155974 -0.15151806857635455 -0.11575010125930926 -0.14655576790300706 -0.1216600658553338 -0.14515002627282439 -0.13860853908573145 -0.046890811155259893 -0.17424399416147443 -0.14662713682475437 -0.13766424384829709 -0.17419321231712395 -0.15919607008590331 -0.16381212844193938 -0.025235382746905212 -0.15404678574718603 -0.14165746786006514 -0.15511436892745128 -0.14034258437089819 -0.16390024126536953 -0.11465888199175736 -0.16930513009321715 -0.15932938138055844 -0.16779830432834794 -0.17426005412393353
leaf_weight=789.42487714160234 86.588375640800223 603.59579835389741 792.8971299265977 1124.9457113551907 576.8821736308746 199.70944072958082 215.04434845596552 1391.9405997905415 655.22044888720848 74.479333876864985 760.66975851845928 1002.1992858273443 1040.8319646364544 640.58041456900537 183.59501142753288 158.38048874144442 340.76179111958481 471.51199686224572 1234.3054149448872 2101.2197165510152 699.28679277794436 205.49880113289692 770.64604360074736 507.57443336769938 827.0870291639585 1072.3366683148779 211.08247015881352 201.6261740475893 366.49366037244909 219.81470524473116 180.43432370619848 72.564743473660201 83.619714953703806 260.23818298778497 152.39580207341351 128.02768201148137 169.54107677307911 375.33389895618893 345.89458425971679 190.08224908262491 97.526858347235247 147.39431320666336 112.66848450782709 99.901343647390604 116.15073856548406 181.33443082286976 116.02770333876833 144.54024896584451 98.28972971951589 88.337491752812639 131.50983841135167 133.28729561856017 101.56827078154311 184.99751258362085 121.74192541977391 167.67311899829656 105.70983417984098 105.77438472420909 137.29673823993653 68.25620074593462 342.56831703172065 103.36470101121813 125.86912835808471 85.530523077351972 68.933021129807457 69.540705346735194 133.85123982955702 213.04160030907951 85.743838181020692 74.753302151570097 72.800371695542708 127.22063827235252 100.12988889403641 110.47502667852677 106.4842575143557 81.939217003760859 81.554998273961246 71.770025336183608
leaf_count=10759 30056 32996 22743 36086 26401 21129 28492 39431 49821 2606 32610 41934 35819 45800 27302 44338 50374 38078 18229 24394 19309 27676 42005 31217 45326 55329 22088 24060 21288 34679 52910 21755 25240 51949 29638 50846 34298 38802 29114 42410 29684 28310 40643 40348 24397 36993 26408 56138 39259 34548 51489 49488 36172 41113 45853 34212 28318 42653 56068 27986 26736 42234 52833 35238 30531 29863 57406 29267 31994 31793 30300 34798 39858 32374 45298 36071 35076 29255
internal_value=0 0.0027214 0.0991333 -0.0108768 0.0491629 0.0308525 -0.0262828 0.0496424 0.0982154 -0.13008 -0.0136044 0.00555337 0.026336 0.0241201 -0.0690834 -0.0566326 -0.0257567 -0.0257967 -0.0457996 -0.00941389 -0.0254009 0.0342621 0.00972692 -0.00921595 0.00339621 -0.034377 -0.0573621 -0.0726944 -0.0257702 -0.0596275 -0.134918 -0.139419 -0.0926038 -0.0953361 -0.0819645 -0.14256 -0.0779603 -0.0503539 -0.049859 -0.0970321 -0.11365 -0.0928827 -0.119242 -0.14743 -0.124802 -0.133528 -0.0967092 -0.150378 -0.132763 -0.129176 -0.119474 -0.125663 -0.132657 -0.105945 -0.152839 -0.10319 -0.128468 -0.137637 -0.15513 -0.145775 -0.040026 -0.158534 -0.160429 -0.158112 -0.160681 -0.163868 -0.155251 -0.0314571 -0.144668 -0.15011 -0.147127 -0.146109 -0.169154 -0.119275 -0.168702 -0.164967 -0.171868 -0.174227
internal_weight=0 22768.8 2814.42 19954.3 2025 5380.5 14573.8 4435.69 1448.12 3231.15 11243.3 4372.62 2628.59 3043.75 3330.51 2722.21 1514.23 6870.72 3093.57 3777.15 1859.26 546.261 2403.17 1278.22 1867.92 1675.93 944.81 745.1 1744.03 967.97 3156.67 2853.18 303.495 1207.98 539.884 2780.61 619.862 741.828 1159.97 359.623 588.12 543.474 480.415 2300.2 608.301 424.706 274.408 1980.45 242.83 319.749 231.411 216.907 299.981 332.392 1737.62 320.069 313.712 227.516 1510.1 402.935 688.463 1107.17 969.87 766.375 680.845 554.976 274.908 428.086 187.312 144.294 141.057 243.371 203.495 208.002 410.682 188.423 222.258 140.703
